1319 256
中 0.16983157 -0.10635333 0.2625271 0.11360362 0.12304312 -0.038226783 0.12139507 0.022891846 -0.10071326 -0.110096134 -0.11351886 -0.06271207 0.13220322 -0.17412542 0.112965606 0.05879717 0.017820375 0.13747752 -0.2055044 0.25055745 0.11971182 0.034455962 -0.006866772 -0.13172266 -0.25819457 -0.02594426 -0.0033964438 0.011027385 -0.057171814 0.22824837 0.02593779 -0.065400034 -0.012804254 0.1186004 -0.06250967 0.13669594 -0.062108073 -0.02101075 0.13307671 0.03847214 -0.19405466 0.055440053 0.05077474 -0.030239925 0.21086258 -0.15555577 -0.023941282 -0.015409163 0.077028155 0.14407384 -0.08688741 -0.16276033 -0.07779379 0.06364259 -0.31811363 -0.060658608 0.035725318 -0.26220497 -0.028991068 0.11220218 -0.14162162 -0.01927277 -0.092984825 -0.046800576 0.03563986 -0.15285403 -0.1050008 0.082360245 -0.070519455 -0.1349255 0.10547333 -0.13617018 -0.21119079 -0.009620788 0.09396828 -0.052057985 -0.030984974 -0.18832403 -0.06289241 0.0017613284 -0.07144837 0.02752018 0.15662536 0.23200166 0.0040104804 0.29167905 0.0898808 -0.1724422 -0.043162975 -0.03679958 -0.092443936 -0.16409826 -0.026153512 0.05836051 -0.0074975677 0.047603473 -0.23927912 -0.061748765 0.029220536 0.062723495 -0.30716807 -0.20544213 -0.051170036 0.021659654 -0.049686074 -0.033000253 0.1684476 0.05486095 -0.0096437195 -0.08240953 -0.03706317 -0.13018423 0.11607796 0.26574644 0.10578662 -0.06795369 0.06012453 0.0029638705 0.056402255 -0.020986723 -0.08200778 -0.17028275 0.030916927 0.1486057 0.056397256 0.13982162 -0.051575884 -0.065963976 -0.15472169 -0.051541634 -0.055066105 -0.16101545 0.040387083 -0.043307424 0.014148244 -0.044678304 0.02418898 0.15565512 0.12923597 -0.00652057 -0.09491584 -0.1214504 0.11403754 0.14248684 -0.15279642 -0.013438126 -0.07105645 0.16013494 0.009168967 -0.07183999 -0.16735837 -0.25338554 -0.0028802825 -0.13782808 -0.020854853 0.03743461 0.19269109 0.041711707 -0.13453017 0.05455381 0.096178204 0.011187518 -0.085856855 -0.07985651 -0.12888409 -0.088264495 -0.047519594 0.003653349 0.4181186 0.1022208 -0.14402628 0.01746951 -0.016075175 0.043747846 -0.09997527 -0.12818149 -0.1424772 -0.06465767 0.38249174 0.117107496 0.09836523 -0.04492235 0.03379375 -0.1299921 0.10609676 0.03592789 -0.02425039 0.10669487 -0.19081151 0.0916431 0.0023777161 0.043252397 0.010795976 -0.045018017 -0.038781792 -0.035088323 -0.13135615 -0.124512345 -0.14867042 0.020162338 -0.07648965 0.13682298 0.09755734 -0.1189721 -0.082673214 -0.15163548 -0.18790355 -0.007874874 -0.107488476 0.004716734 0.052854102 0.13240837 0.23517542 0.05194106 0.06371836 -0.03676058 0.16933669 0.08138649 -0.13827342 -0.0724487 -0.0072198566 0.046760645 0.04836344 0.067650065 0.09592924 0.008824382 -0.1641196 0.18943273 0.026468748 -0.046613246 0.08330428 0.04229119 0.07984557 0.03007455 0.010932883 0.057186708 -0.113922514 -0.020756593 -0.062914826 0.036852583 -0.101296656 0.051192258 -0.07587644 0.0863979 0.17233984 -0.11814078 0.20833677 0.009514466 -0.20392567 -0.12084018 -0.054643095 0.07687333 0.06622847 -0.12670647 -0.06730789 0.009785625
程心 0.14787403 -0.08838505 0.35145035 0.1501615 0.12765336 -0.10815138 0.20679829 -0.0464036 -0.18846788 -0.14002037 -0.10699969 -0.018685957 0.14098726 -0.13892059 0.14672221 0.10414519 -0.22712511 0.26231536 -0.09834691 0.13586 0.28368095 -0.06763539 0.015677666 -0.17121384 -0.18887883 -0.22628592 -0.053445358 -0.041428555 0.08381779 0.2266974 0.08470805 -0.23869714 -0.032840956 0.07837869 -0.16619138 0.093828045 -0.029112628 -0.032039102 0.115646586 0.17586441 -0.03133447 0.16771257 0.20311037 -0.08639596 0.035049025 -0.15928227 0.045091335 -0.07857178 0.10852301 0.19233447 -0.021026935 -0.3105086 -0.1711455 -0.06947239 -0.36000574 -0.075282 -0.028699644 -0.42036206 0.06294189 0.32973617 -0.10912749 0.077129506 -0.1753146 -0.04474539 -0.029345782 -0.1993527 0.032614253 -0.11434395 0.019602356 -0.20448394 0.019822882 -0.15191627 -0.12295672 0.15640675 0.04195118 -0.116977885 -0.06591318 -0.29797837 0.118101574 0.0040327236 -0.11245011 0.08261283 0.052062474 0.26209918 0.07307173 0.22194126 0.10175864 -0.092975 -0.021365555 -0.14332706 -0.0048419223 -0.1560323 -0.015264992 0.18600297 -0.07851427 -0.025819778 -0.1915522 0.018657628 0.024522657 0.17333661 -0.3426239 -0.1182305 0.08113515 -0.05319254 -0.11043209 -0.054707862 0.22393124 -0.004980273 -0.030067697 -0.050691992 0.08663128 -0.077337645 0.19888611 0.22270803 0.24486144 -0.10398369 0.061044622 -0.052622598 0.07803378 -0.09303658 -0.21252635 -0.13619632 -0.043700762 0.22844824 -0.02956213 0.04699747 -0.15455903 -0.2077749 -0.086137 -0.091477424 -0.0066992873 -0.2164333 -0.022809608 -0.014941685 -0.10535101 -0.1480211 0.105631664 0.07823692 0.04119686 0.0003915841 -0.14812218 -0.1332513 -0.0051122406 0.104125686 -0.14311154 -0.09066203 -0.06785479 0.09134149 -0.07396876 -0.16484039 -0.10396053 -0.3436524 0.08495099 -0.06882669 0.18069808 -0.04680302 0.08241399 0.071960956 -0.117117845 -0.13786255 0.13862693 -0.07835934 -0.02246027 -0.25859034 -0.25360975 -0.17616703 -0.04100203 0.058863584 0.42127886 0.10347507 -0.15706934 0.048778404 -0.016250506 0.022969676 0.03723042 0.0048643164 -0.27364227 -0.07018262 0.39445883 0.052332066 -0.0079703545 0.026431087 0.077957176 -0.30498993 0.04876883 -0.0014057899 0.009380076 0.18063338 -0.22761504 -0.004118007 0.03127568 -0.0021128664 0.035845537 -0.17724477 -0.09194987 -0.11085466 -0.17388812 -0.09855964 -0.10245706 0.02924911 0.06344773 0.16238603 0.0068300203 -0.19972652 -0.09753135 -0.18063447 -0.27764416 0.006091526 -0.22697394 -0.060443774 0.17377612 0.13126981 0.2824517 0.070830345 0.17419972 0.002110542 0.13214807 0.1399208 -0.10516657 -0.05087686 -0.003794873 0.057838995 0.03025207 -0.008110696 0.20498644 -0.067874685 -0.3022766 0.095776506 0.098804675 -0.09573309 0.05067368 0.2123146 0.19707957 -0.11869282 -0.037333485 0.07532191 -0.031896405 -0.038124368 -0.1792958 -0.037269264 -0.06950135 0.14739676 -0.12856399 0.0048906896 0.18225555 -0.16196215 0.24756736 -0.017909193 -0.22881173 -0.19582815 0.034443874 0.13124715 0.16803591 -0.017944753 -0.08059369 0.08488563
罗辑 0.1057836 -0.06497675 0.3696202 0.14837019 0.11485681 -0.110878065 0.18931147 -0.09632707 -0.21151789 -0.1476286 -0.07487154 0.0064939708 0.124280065 -0.111185096 0.12342961 0.09246511 -0.27611572 0.31064054 -0.01627778 0.08263534 0.27247182 -0.09115424 0.040308926 -0.19385517 -0.13860025 -0.27038395 -0.028721113 -0.057959206 0.10185012 0.20509546 0.09864998 -0.29175767 -0.03880585 0.08139003 -0.18487956 0.06851774 -0.014571333 -0.019073384 0.10079498 0.1946203 0.029353142 0.17758769 0.21916662 -0.093091555 -0.016883584 -0.16418362 0.08480287 -0.08457774 0.065414876 0.21374057 0.013743604 -0.357345 -0.1891045 -0.09627566 -0.3310486 -0.07046468 -0.02295215 -0.42423058 0.09840942 0.37662724 -0.0895093 0.14013007 -0.18916143 -0.042392753 -0.09198647 -0.18172571 0.09666662 -0.18476668 0.06643505 -0.20503078 0.026823802 -0.16991235 -0.036336806 0.17463264 0.007352196 -0.114076585 -0.07527732 -0.2837336 0.20862697 0.0070288787 -0.13644479 0.11897985 0.012345715 0.24430677 0.06641739 0.17605221 0.04894026 -0.033637173 -0.021657417 -0.20006022 0.016988948 -0.14953284 0.0035485404 0.19463332 -0.08321708 -0.048618477 -0.14996734 0.07142011 0.033261854 0.19807659 -0.34494123 -0.08723871 0.1190342 -0.060770508 -0.102249205 -0.06947297 0.21994154 -0.024018154 -0.08262527 -0.01984078 0.07549997 -0.042304434 0.19262727 0.18692373 0.26958194 -0.09895182 0.06477145 -0.050261445 0.058168586 -0.08805772 -0.2038007 -0.10015418 -0.059054244 0.23988733 -0.054249957 -0.006218893 -0.19494474 -0.23027724 -0.042135153 -0.08558896 0.035127666 -0.2583756 -0.048156552 -0.018031709 -0.1360614 -0.17217243 0.15165737 -0.007394429 -0.043999936 0.0038502433 -0.16094188 -0.1467521 -0.05480098 0.079154864 -0.09945682 -0.111622244 -0.029971566 0.032240957 -0.10752844 -0.1579585 -0.043946344 -0.3824853 0.12599823 -0.035143632 0.24028508 -0.079801515 0.060389757 0.057415463 -0.11366425 -0.17520963 0.13069028 -0.1038514 0.012358151 -0.3056969 -0.2628061 -0.169368 -0.042280883 0.08019536 0.37612802 0.086449295 -0.13318428 0.028221099 -0.021155663 0.01695543 0.08070239 0.029334977 -0.28252825 -0.073691435 0.3415232 0.024429519 -0.03718387 0.07309066 0.1050161 -0.32012013 0.034144282 0.0121326 0.031967055 0.15212215 -0.20504059 -0.040068492 0.060950246 -0.031931844 0.029131707 -0.17912845 -0.09328351 -0.14174399 -0.17905839 -0.064052194 -0.06387095 0.038627382 0.12888014 0.16516235 -0.06296046 -0.15186872 -0.1164929 -0.1627712 -0.29959497 -0.013754481 -0.22256903 -0.05861233 0.19012097 0.065470904 0.2676149 0.06916775 0.17429405 0.008260318 0.077535726 0.17839667 -0.09888268 -0.10563044 -0.00029287452 0.017355269 -0.027805055 -0.013005278 0.22729845 -0.058307506 -0.31175825 0.029399408 0.13396403 -0.0945559 0.011581794 0.25537997 0.28192726 -0.15371564 -0.046678107 0.05020048 -0.0075047812 -0.041455224 -0.21429342 -0.06282634 -0.05072936 0.17207435 -0.16023785 -0.023741094 0.1569536 -0.17146924 0.2296483 0.003921322 -0.20894358 -0.19487761 0.04586383 0.13987318 0.19388413 0.04504847 -0.09401166 0.12954983
世界 0.124564976 -0.16679668 0.31458017 0.13454956 0.27127746 0.026271682 -0.007281375 -0.13372181 -0.06560977 -0.082715295 -0.007922503 0.073993966 0.12182746 -0.18637238 0.10921406 0.060967475 0.22730535 0.14405121 -0.17307805 0.47721252 -0.14419025 0.123035446 0.028560385 -0.24973191 -0.27991974 0.10719104 0.14809456 0.0527902 -0.29943475 0.20904675 0.088573866 -0.15974012 0.027179444 0.23207581 0.0012125565 0.22766556 -0.03196063 -0.022068834 0.07020448 -0.03504119 -0.33915153 -0.15281539 0.08169489 -0.02557489 0.25535434 -0.1706886 0.119512625 0.033870213 -0.2447298 0.18735096 -0.1265243 0.036686152 0.07517209 0.019707087 -0.288167 -0.06507679 0.34586298 -0.14200558 0.021529898 -0.0050018355 -0.18833017 0.03606893 -0.19330853 -0.054437254 -0.026963526 0.029078633 -0.111826226 0.2160474 -0.09023156 -0.11220993 0.28799504 -0.33358422 -0.20169027 -0.12589154 0.11525734 -0.06841272 -0.07605907 -0.13315897 0.00059850275 0.06853135 -0.049464297 0.15923862 0.136976 0.14821398 -0.05387807 0.4312175 0.04540277 -0.16643211 -0.089984685 -0.12798163 -0.12792675 -0.24422295 0.17371914 -0.05272824 0.06333109 0.06437781 -0.3145426 -0.22588766 -0.02196664 -0.09262778 -0.47417128 -0.28471902 -0.028236626 0.08783306 -0.024212578 -0.055944264 0.16389617 0.16532135 -0.11475775 -0.117211714 -0.33583602 -0.19181567 0.065809794 0.29709777 -0.017858673 -0.057856258 0.01732836 0.17886005 -0.11468017 0.046804577 0.07832371 -0.17687443 0.13166238 0.118325 0.0757742 0.23771702 0.006123234 0.09741044 -0.20251991 -0.059205625 0.038104527 -0.23012652 0.0032752461 -0.16111472 0.05157192 -0.042202298 0.040064514 -0.0141267 -0.0074548405 -0.06642363 -0.05588856 -0.2433437 0.24487217 0.33121973 -0.08984109 0.048506472 0.040606238 0.1602671 0.1433579 0.19331664 -0.19393907 -0.31886446 0.08111509 -0.12833464 -0.22613852 0.039558973 0.3507614 -0.073375635 -0.26348832 0.17442256 0.09036202 0.15413189 -0.021005416 -0.037946653 0.060654484 -0.0342784 -0.061704367 0.16370736 0.30824608 0.16942613 -0.06839545 -0.14187771 -0.01628593 0.16297898 -0.14258482 -0.30791932 -0.028186677 -0.09519595 0.48730078 0.07709044 0.27535412 0.10627082 0.0798002 0.057328355 0.22835702 0.10438296 -0.12072756 -0.064660884 -0.14405751 0.05195116 0.13905841 -0.04793425 -0.06026342 0.16435237 0.14120556 -0.09118683 -0.008782211 -0.19645815 -0.17491014 0.012890227 -0.17017898 0.14643945 -0.040272117 0.15000275 -0.21062607 -0.12997302 -0.25977075 -0.09515423 0.10617582 -0.042379193 -0.0636052 0.18960997 0.22003412 0.07153687 -0.11115062 0.043189827 0.06299599 0.11380646 -0.19494535 -0.2596231 -0.049626965 0.0416836 -0.028719153 0.07654601 -0.07405731 0.18378136 0.06032594 0.12010092 -0.022411626 -0.024198199 -0.083282106 0.020308133 0.18200286 0.079470284 0.23234686 0.037902754 -0.17512424 -0.12534209 0.02291012 0.063554026 -0.10986309 0.05955796 -0.21403973 0.076300554 0.18451683 -0.14280777 0.16124345 0.0965302 -0.35317 -0.07522913 -0.10971256 0.050806183 0.0048263436 -0.15863855 -0.05680185 0.027336704
三体 0.12473737 -0.15754804 0.26175636 0.097028695 0.31745625 0.08801224 -0.06569017 -0.13992849 -0.008147423 -0.030090893 0.02694797 0.079583235 0.14857608 -0.22026664 0.09325591 0.06491861 0.38718313 0.107029475 -0.25910303 0.6001774 -0.27786884 0.14384629 0.0139274215 -0.2481416 -0.30511165 0.19490787 0.18848896 0.09408777 -0.40715238 0.21062315 0.10833138 -0.103934824 0.07228734 0.25875217 0.050214253 0.29353955 -0.07549722 -0.023970416 0.05796447 -0.090317056 -0.4629181 -0.23498784 0.008610415 -0.023222616 0.33625498 -0.19349545 0.10188641 0.08843037 -0.3274557 0.18401854 -0.14157446 0.17289399 0.164728 0.068200864 -0.3003131 -0.038321868 0.4393597 -0.03776809 -0.0003579647 -0.08750759 -0.23677658 0.020511929 -0.21515799 -0.039162237 0.001966307 0.07983011 -0.16903296 0.3322117 -0.14124368 -0.09692029 0.36361006 -0.36404678 -0.24668981 -0.21685798 0.15685935 -0.083525494 -0.050305806 -0.08656952 -0.0795477 0.07669007 -0.020465316 0.16423391 0.20057806 0.13844164 -0.107301526 0.51604456 0.043797575 -0.19913724 -0.10148358 -0.105240576 -0.18407652 -0.27836943 0.21471164 -0.117576756 0.09653461 0.08352249 -0.3676801 -0.31064558 -0.051389027 -0.20305069 -0.5085984 -0.35245818 -0.06654224 0.14019276 -0.0020210475 -0.0540143 0.15134294 0.22453266 -0.10748198 -0.13257857 -0.4318412 -0.21684381 0.035800163 0.33654058 -0.12680304 -0.040302437 -0.03357826 0.23716493 -0.1514122 0.11527083 0.16951035 -0.20603636 0.20174558 0.074375145 0.11210824 0.32179058 0.0346796 0.17153561 -0.26008838 -0.03969174 0.01109786 -0.20897698 0.042858794 -0.1737482 0.118846215 -0.0232069 0.00091937947 0.016566398 0.021735817 -0.09038686 -0.010952426 -0.23339447 0.34919482 0.40430272 -0.09580158 0.095115475 0.03472523 0.20922941 0.23073561 0.2946879 -0.2575533 -0.27405965 0.03836809 -0.1547311 -0.3662827 0.07022693 0.3900903 -0.078998655 -0.30055246 0.25783846 0.10404948 0.23408136 -0.05754561 0.018756745 0.15342806 -0.014692557 -0.060474657 0.17170353 0.2989632 0.20515321 -0.04498478 -0.1871657 -0.020471735 0.18256366 -0.22368175 -0.3815934 0.031781748 -0.12147012 0.5618767 0.051717274 0.3730969 0.09544279 0.04178563 0.17813939 0.31530532 0.13072161 -0.17855987 -0.11670794 -0.1263494 0.09815849 0.14551668 -0.05049165 -0.060739968 0.26637414 0.21070734 -0.0786769 0.037752267 -0.22900984 -0.21524677 0.026886733 -0.26951697 0.16556083 -0.025377868 0.22972357 -0.2117135 -0.10523246 -0.2650681 -0.11933574 0.18331413 -0.03699412 -0.16487604 0.20867126 0.1942158 0.06625225 -0.16899066 0.03432888 0.04987972 0.11067429 -0.20147279 -0.30228022 -0.06334948 0.036157753 -0.0544908 0.08303656 -0.17449324 0.23053512 0.14442302 0.1752624 -0.058656074 -0.029711984 -0.11143832 -0.074645154 0.13215977 0.17809816 0.2892297 0.04631683 -0.22828442 -0.14700492 0.0995144 0.12057112 -0.14247656 0.046474196 -0.20609383 0.10751009 0.19514507 -0.10816071 0.17657809 0.14248523 -0.3706911 -0.05081443 -0.15338038 0.04213678 -0.058803372 -0.21587117 -0.06462447 0.0052140574
号 0.2088073 0.041453734 -0.009004321 0.14609744 0.09262627 0.11933267 0.1528508 0.18991508 -0.04834624 -0.20197645 -0.08058207 -0.22374521 0.35318935 -0.5078825 -0.020647751 -0.09372809 0.5373813 -0.10397472 -0.37589028 0.37504345 0.021297738 0.22287345 0.008480939 -0.053363845 -0.56315553 0.28440854 0.019150132 -0.12789853 -0.40949574 0.2720844 -0.16264845 0.4140002 -0.1014854 0.11341459 0.25223476 0.37327152 -0.12837692 0.1438184 0.20699602 -0.19334316 -0.43436256 0.022990912 -0.17480002 0.068644755 0.6254208 -0.03938628 -0.4515402 -0.27174056 0.37250867 -0.01466375 -0.07497792 0.06396444 -0.08973472 0.34854662 -0.5045547 0.04618321 -0.098616004 -0.09879841 -0.40501755 -0.10078164 0.01458053 -0.31363514 0.08033392 0.0015709723 0.2507212 -0.3083273 -0.5679879 0.35749167 -0.102585986 -0.08493098 0.0968153 -0.2208966 -0.5802136 -0.12883936 0.30510333 0.16896671 0.1837084 -0.1776689 -0.5089231 0.19877166 0.12611617 -0.06332547 0.696463 0.28069583 0.021671519 0.37365276 0.41257948 -0.5720283 0.097734876 0.20949732 -0.20176658 -0.27683654 -0.16564581 -0.025190512 0.11051039 0.31062755 -0.4868505 -0.28863305 -0.020874502 -0.2569469 -0.20098309 -0.5580638 -0.4114666 0.3270493 0.08972758 0.02634596 0.3067265 0.17712791 0.046725232 -0.32226697 0.09911313 -0.15117222 0.31352305 0.35883406 -0.09218324 -0.3170529 0.22316931 -0.17166865 -0.011112311 0.025166381 0.16460632 0.038832642 0.22299871 -0.1483088 0.3527691 0.27197188 0.24778569 0.035930797 -0.27190986 -0.2017093 -0.104668185 -0.090337805 0.16699466 -0.08233414 0.10311493 0.11196883 -0.22157899 0.6203064 0.49782515 0.066355236 -0.26747257 0.3526705 0.33588368 0.20980395 -0.5035955 0.07746064 -0.22943912 0.16778788 0.26668087 -0.16750818 -0.6248568 -0.04170537 -0.37181672 -0.5163787 -0.42656136 0.3219613 0.2486288 0.44288644 0.019789122 0.3395086 0.16915281 -0.1133055 -0.112449236 0.19995128 0.019490343 -0.017418483 -0.113072574 -0.13199325 0.7198504 0.07329861 -0.24088845 0.19612168 0.1687016 -0.26595095 -0.5049466 -0.14149143 0.045508042 -0.046338562 0.4500996 0.15725721 0.106201105 -0.29227617 0.058965288 0.37976113 0.030694507 0.025444886 0.08104762 0.24605341 -0.3461755 0.5185342 -0.13766418 0.13867846 0.023176065 0.048973594 -0.083367765 0.1297962 -0.08864097 -0.1004967 -0.19409862 -0.0016266619 -0.47289184 0.23161444 0.645784 -0.30047083 0.16463922 -0.068473846 -0.010962992 0.03214391 -0.12031472 -0.17718081 -0.05506634 0.42427367 0.26385283 0.08191538 0.08415678 -0.26498803 0.41673878 0.11464094 -0.2489296 0.34444132 -0.16083318 0.4200094 0.26866308 0.3238467 0.044893514 -0.038409486 -0.33026916 0.5764389 -0.021052578 0.16162398 0.18360718 -0.38442996 -0.3611374 0.36005658 -0.12821409 -0.08903362 -0.35979766 0.13184743 0.1435503 0.07256442 -0.2733855 -0.048410136 0.18511406 0.29181 0.10908033 -0.042169333 0.21147637 0.09298096 -0.026225701 -0.4309792 -0.47585392 -0.10616142 -0.06732522 -0.23859192 -0.14991978 -0.09617031
时 0.15564917 -0.07910632 0.24129061 0.09819536 0.14060529 -0.035696685 0.12972857 0.0053396476 -0.10583335 -0.10786174 -0.09913489 -0.058158364 0.15408556 -0.1870613 0.09811465 0.07380355 0.004267781 0.14787097 -0.17711198 0.23469685 0.1373351 -0.004301461 0.0031254622 -0.12033721 -0.23800988 -0.064704366 -0.014599144 -0.0055092396 -0.03599855 0.19982477 0.055794083 -0.0815337 -0.00858023 0.10667899 -0.070690304 0.14076574 -0.06942523 -0.011828341 0.121329896 0.07091598 -0.1594548 0.07146339 0.08398066 -0.04309724 0.16571508 -0.1608032 -0.026748769 -0.051217534 0.06247776 0.13173926 -0.061719168 -0.1659239 -0.07728282 0.062342305 -0.33072564 -0.05092995 0.02671383 -0.27027312 -0.026338514 0.15255658 -0.120432064 0.017017283 -0.11049586 -0.034505222 0.029652286 -0.16075534 -0.0916682 0.04237802 -0.036896233 -0.15931484 0.09563912 -0.15190096 -0.19253477 0.033593427 0.081158176 -0.07730305 -0.027508894 -0.19790779 -0.034990106 0.019674461 -0.06621194 0.048431937 0.15748748 0.21541381 0.02497012 0.2789168 0.086349614 -0.14570259 -0.024381489 -0.045142543 -0.06303769 -0.17265669 -0.01383237 0.085586816 -0.017229967 0.030070063 -0.22345829 -0.043227896 0.010113065 0.049038064 -0.28780624 -0.19601516 -0.028749967 0.020550154 -0.06088824 -0.041273016 0.16840608 0.05716024 -0.016368207 -0.073317245 -0.006148424 -0.10540493 0.15835808 0.23622012 0.10448851 -0.0928592 0.061468177 -0.013640874 0.045000944 -0.031703055 -0.08491452 -0.14782377 0.011154145 0.13958609 0.05446785 0.122107334 -0.07040024 -0.084985554 -0.13966197 -0.046144307 -0.05974786 -0.15059377 0.0468537 -0.030014459 -0.0029984897 -0.06256738 0.020794595 0.1494405 0.10053107 -0.014537063 -0.10517803 -0.08877844 0.1142085 0.12625314 -0.15041427 -0.029514387 -0.078785695 0.1225592 0.012117017 -0.08719323 -0.18112317 -0.24943411 -0.0016721914 -0.1434855 -0.001619603 0.020958688 0.15240695 0.06841375 -0.12006727 0.008524463 0.11818858 -0.011505947 -0.06719225 -0.098808385 -0.14328131 -0.10902962 -0.07330884 0.030416049 0.4091523 0.09472178 -0.1312229 0.042365454 -0.012327047 0.0178468 -0.07912015 -0.082539834 -0.15569241 -0.07310365 0.38138014 0.08867749 0.0806524 -0.03643998 0.036311615 -0.12734896 0.09498064 0.044165183 -0.01707796 0.1299552 -0.2043488 0.10069099 0.018480383 0.02999207 0.017662607 -0.050697587 -0.044086564 -0.056303248 -0.1391186 -0.111538604 -0.12870942 0.024800789 -0.069239356 0.14888199 0.09430634 -0.12917583 -0.06828304 -0.16448198 -0.18998885 -0.0035189749 -0.114080615 -0.037077766 0.055630196 0.14223918 0.23251715 0.063835114 0.08471761 -0.016653664 0.14477368 0.068841144 -0.100647904 -0.050256766 0.00886761 0.065796964 0.024846924 0.06693187 0.09559758 -0.02080338 -0.19733973 0.18237706 0.053833637 -0.05074883 0.060765106 0.052268002 0.10495435 0.016231604 -0.0030871506 0.045768622 -0.09109536 -0.010969683 -0.07298845 0.031755127 -0.08959096 0.085484475 -0.07975511 0.07686625 0.1738861 -0.109136604 0.2153903 0.024315191 -0.17434815 -0.13993737 -0.037434075 0.076074496 0.081184566 -0.08622362 -0.054420173 0.030173015
地球 0.15355732 -0.15473212 0.23304701 0.09002681 0.26460713 0.066948965 -0.0038143496 -0.0624388 -0.009815849 -0.058904693 -0.027371861 0.0027305018 0.18025048 -0.2508057 0.08477353 0.071731314 0.3744005 0.049172327 -0.2890031 0.5450788 -0.20547496 0.13752268 0.013511473 -0.1747309 -0.33132592 0.20416917 0.15374175 0.07937508 -0.33393702 0.1990124 0.05287399 -0.005307591 0.068787925 0.2124123 0.031035041 0.27125928 -0.06860059 -0.017178478 0.08292716 -0.102496415 -0.4477253 -0.18412937 -0.016085576 0.0048898603 0.36609513 -0.17570041 0.012213169 0.03373895 -0.19788228 0.12162912 -0.13072444 0.13402928 0.12661473 0.13630922 -0.31294817 -0.03272266 0.3238653 -0.05459219 -0.062235318 -0.110148326 -0.20651534 -0.03170664 -0.14007713 -0.02292499 0.04728251 0.018461414 -0.23753852 0.3285174 -0.15071629 -0.10641218 0.32557312 -0.29220384 -0.3045285 -0.19590281 0.17022993 -0.04658656 -0.027585562 -0.10529968 -0.148621 0.06248293 -0.0036908975 0.10847316 0.254214 0.14319469 -0.07969202 0.48412764 0.054459024 -0.24563876 -0.07317108 -0.03302457 -0.19058128 -0.24193314 0.15036768 -0.091209665 0.10031037 0.10965553 -0.35203785 -0.2734474 -0.028102214 -0.18828057 -0.40596735 -0.3110689 -0.10155034 0.13439043 0.007661914 -0.03221366 0.14557493 0.19182861 -0.044665366 -0.14238991 -0.32645085 -0.22118 0.050436653 0.32713425 -0.0975373 -0.056477625 0.0021426338 0.17587815 -0.083207265 0.08833385 0.15159036 -0.19942515 0.1593488 0.0671801 0.1517989 0.2874342 0.054811504 0.13753496 -0.26235345 -0.037166443 -0.028799517 -0.16372254 0.07050816 -0.13403782 0.116391905 -0.004856029 -0.04814183 0.1312706 0.1055482 -0.07891538 -0.02439157 -0.16573249 0.32727352 0.33442232 -0.14067668 0.075275384 -0.0074527324 0.19818762 0.21195044 0.2186491 -0.27890408 -0.20564766 -0.03374706 -0.19330949 -0.35465747 0.10106487 0.34917122 -0.037377898 -0.24436574 0.25065845 0.090935975 0.18315437 -0.076995276 0.06757528 0.10691899 -0.010593776 -0.07497478 0.12888286 0.34753606 0.16481961 -0.10028808 -0.10570628 0.0076429574 0.13449594 -0.24238431 -0.31632066 0.015276515 -0.09854964 0.51335406 0.105625324 0.31033868 -0.011462488 0.02373652 0.17299859 0.2550734 0.1270639 -0.14608745 -0.046039045 -0.15874308 0.14641976 0.113278754 0.010981589 -0.040322814 0.22557886 0.14685754 -0.044930696 0.006794912 -0.22471032 -0.21438903 0.0064723515 -0.28939503 0.15605083 0.08486785 0.10016882 -0.16223243 -0.11003607 -0.1836307 -0.076541714 0.12647584 -0.021253822 -0.1359505 0.22226956 0.20508212 0.06868356 -0.13127118 -0.0006617846 0.12692478 0.06495367 -0.18039091 -0.2090858 -0.023508677 0.08079244 -0.0078448355 0.11107868 -0.1266166 0.16440672 0.06559654 0.24892028 -0.05968175 -0.0018687291 -0.041774575 -0.10004842 0.043414023 0.21718295 0.20222409 0.021248208 -0.21707527 -0.09241668 0.09517303 0.12269308 -0.1462264 0.015841402 -0.14578907 0.14954047 0.18593317 -0.08015292 0.18204375 0.12812638 -0.28977883 -0.059513368 -0.16525868 0.043263674 -0.06472659 -0.22263426 -0.058106367 -0.023753205
太空 0.19605008 -0.09098823 0.17785484 0.029227605 0.13503358 -0.0039477204 0.10666149 0.11663557 -0.051268283 -0.10717269 -0.13096027 -0.14802516 0.20789436 -0.26161316 0.100230314 0.0755589 0.18927714 0.047613215 -0.3433627 0.34064385 0.042327553 0.043415755 -0.024341542 -0.05318575 -0.33371034 0.08875888 0.009478 0.05039427 -0.1107363 0.23588297 0.01128027 0.113442 0.0036786443 0.1156827 -0.0076940428 0.20105162 -0.1102325 0.012958953 0.16367434 -0.05326097 -0.3412057 0.032100532 -0.028790561 0.006075659 0.35329893 -0.15159552 -0.12228245 -0.028644558 0.11596512 0.059154708 -0.12460369 -0.05036078 -0.01685279 0.23350987 -0.34474787 -0.0066796187 0.009109484 -0.16266604 -0.14338258 -0.01730691 -0.14101952 -0.095117345 -0.0398059 -0.023451952 0.14866476 -0.15665045 -0.27620202 0.21767667 -0.13158824 -0.16750059 0.14916115 -0.116445005 -0.3445191 -0.10699804 0.1656621 -0.02318556 0.036225922 -0.14986783 -0.24492407 0.028891616 -0.0050305943 -0.03537442 0.31953296 0.21781182 -0.02493587 0.3550371 0.12635933 -0.29023644 -0.030481298 0.05298916 -0.15861627 -0.17333047 -0.05930511 0.016164174 0.03857949 0.10517128 -0.31989357 -0.12502967 0.00646951 -0.0562297 -0.26165882 -0.26258892 -0.13102572 0.078980304 -0.029616833 -0.000110924055 0.13335322 0.094488636 0.06408915 -0.11864489 -0.056763146 -0.18329233 0.13531038 0.30917493 -0.0144691635 -0.0835751 0.056537237 0.008654474 0.086738326 0.030568125 -0.0031680886 -0.18425892 0.055677302 0.084161624 0.1459928 0.20390572 0.036524355 -0.012197536 -0.22986512 -0.03327034 -0.12235331 -0.065368146 0.12123594 -0.025917556 0.09273254 0.032535233 -0.10996686 0.31074327 0.2600662 -0.007691214 -0.091024175 -0.017314041 0.24871665 0.1470359 -0.20751685 0.015443139 -0.14267156 0.20652331 0.098614074 -0.043296825 -0.29767272 -0.13637783 -0.14535685 -0.23019138 -0.17730221 0.13985384 0.20524496 0.05871635 -0.10558349 0.15913051 0.11888864 0.035670415 -0.16006449 0.033506386 -0.05953127 -0.04925466 -0.07726007 -0.012289501 0.46698585 0.10115735 -0.16563006 0.07499253 0.017893 0.0075801164 -0.23598742 -0.13947992 -0.0721614 -0.060571216 0.41428748 0.16970997 0.16747363 -0.15939206 -0.021773823 0.025032582 0.15041302 0.06592543 -0.043494124 0.15011781 -0.19958629 0.21648963 -0.04314498 0.13136655 0.048723865 0.021851182 -0.04334635 0.019652693 -0.13605653 -0.16665378 -0.20415539 -0.0033057272 -0.22797808 0.13959016 0.27047497 -0.18316436 -0.035671778 -0.14359684 -0.10526802 0.008994101 -0.09624461 -0.008739739 -0.020333055 0.18613106 0.19591042 0.071994975 0.042206608 -0.058608152 0.24082167 0.002893395 -0.12702644 0.0022200458 0.027611956 0.13076971 0.06839849 0.13888693 0.017312488 -0.021062907 -0.16730021 0.33929458 -0.042010188 -0.008966866 0.12245463 -0.09353146 -0.06970877 0.20332879 0.0051888283 0.022610325 -0.16121548 0.01166228 0.034636717 0.10747363 -0.14361213 -0.010044051 0.0014807042 0.15948243 0.18241143 -0.047028568 0.24064766 0.028037287 -0.13401078 -0.11631318 -0.12849574 0.06646756 -0.033877794 -0.21645056 -0.035175078 -0.062887035
人类 0.08203528 -0.17591901 0.31581175 0.12401555 0.28914258 0.03849006 -0.0063677193 -0.16206503 -0.090150215 -0.07342103 0.037803095 0.09306124 0.18311188 -0.19775623 0.1200788 0.082586765 0.25190833 0.19260903 -0.16104825 0.48487282 -0.21526428 0.119965136 0.028526979 -0.27160877 -0.2010158 0.0844144 0.17569937 0.060132876 -0.32276317 0.1949912 0.14465266 -0.1872563 0.089153185 0.22336979 -0.023134409 0.2662383 -0.009280981 -0.021514228 0.012427731 -0.042698916 -0.34907332 -0.18804328 0.102397 -0.041208263 0.19286717 -0.19282128 0.14833798 0.03557455 -0.32469544 0.2077191 -0.12498588 0.083575994 0.09495705 -0.002838144 -0.29737377 -0.031412482 0.3839365 -0.13618988 0.04692014 0.038344912 -0.19451831 0.095804736 -0.24446692 -0.04793803 -0.061023023 0.076829456 -0.07314334 0.20910758 -0.05751334 -0.1592481 0.32175216 -0.3805189 -0.15676604 -0.1259554 0.14107917 -0.060205143 -0.072058365 -0.15371257 0.05923434 0.051184464 -0.062277887 0.21518603 0.14506432 0.10635507 -0.099356495 0.46596706 0.026030736 -0.13807027 -0.11458946 -0.18879879 -0.13908015 -0.23190048 0.24814028 -0.03979947 0.076215476 0.074075356 -0.34660503 -0.2366819 -0.038747337 -0.13845919 -0.5414946 -0.30399027 0.083404444 0.07740994 -0.023992857 -0.06813231 0.17628393 0.22405428 -0.13292137 -0.086855665 -0.37600723 -0.21502768 0.09941481 0.31552494 -0.06054749 -0.035665207 -0.023366947 0.22636513 -0.16643363 0.082856394 0.1216558 -0.14859988 0.14957383 0.121402785 0.087352745 0.25397286 0.00923579 0.12686718 -0.23090431 -0.08272382 0.07655944 -0.23501277 -0.0024223588 -0.16591975 0.067740016 -0.06995553 0.050689105 -0.055190224 -0.04230703 -0.05463798 -0.0034461087 -0.25210416 0.24431333 0.36868224 -0.05457391 0.04796125 0.067143396 0.13985687 0.20448983 0.24956386 -0.20265645 -0.35310212 0.10773435 -0.12187242 -0.22374943 0.046401378 0.33806032 -0.07701021 -0.24540047 0.16482674 0.111107096 0.17215584 -0.0051599047 -0.088995524 0.059296496 -0.045814525 -0.059001196 0.22304302 0.25744787 0.19177938 -0.050576396 -0.19269 0.020183539 0.1771511 -0.16200112 -0.2894496 -0.009302246 -0.09665389 0.5184656 0.019229202 0.30165067 0.14978975 0.08690956 0.100738145 0.27108344 0.14267853 -0.11409119 -0.10685468 -0.10188373 0.036742274 0.17329296 -0.088459715 -0.022728335 0.17682323 0.13151978 -0.11780783 0.05451572 -0.18637249 -0.19661811 0.014155613 -0.17664894 0.17643526 -0.07349644 0.18631439 -0.24033454 -0.09847819 -0.3086763 -0.113760635 0.10696701 -0.07326303 -0.09118262 0.21958567 0.2284904 0.13166523 -0.121479675 0.036947962 0.024836177 0.14959913 -0.16267169 -0.3145651 -0.040000334 0.06622325 -0.12084355 0.056130275 -0.09474636 0.18691826 0.0974491 0.098674454 -0.043323178 -0.02783935 -0.16851132 0.031834386 0.20117557 0.09610962 0.22104657 0.029829988 -0.142433 -0.16586144 0.031420596 0.052999534 -0.1408803 0.088500515 -0.2577503 0.03529721 0.17140992 -0.13107969 0.17311615 0.101169154 -0.3806387 -0.08634016 -0.11215831 0.055786595 -0.022103868 -0.13140452 -0.06984919 0.030016484
宇宙 0.17293967 -0.16373779 0.2874846 0.12906946 0.21901537 0.023973972 0.050551206 -0.074399315 -0.09453976 -0.094183706 -0.07960251 -0.0036015147 0.15072586 -0.21129861 0.13049968 0.052338272 0.16341972 0.14027822 -0.19603229 0.41821325 -0.049410705 0.13338031 0.012686346 -0.19511849 -0.27659506 0.08946246 0.09435868 0.037369687 -0.22672871 0.22516969 0.052764464 -0.10853119 0.043558545 0.17682824 -0.0076261465 0.19271141 -0.08014231 -0.002953871 0.083617665 -0.01983502 -0.29218936 -0.09818805 0.027205981 -0.011063983 0.2810328 -0.1562049 0.03840831 0.0036918004 -0.11623604 0.16689774 -0.12828684 -0.01682566 0.043108385 0.060312737 -0.3295303 -0.061872542 0.2299432 -0.15739045 -0.009571831 0.025024205 -0.16438866 -0.0196201 -0.12698558 -0.03788909 -0.014045759 -0.06669718 -0.12932146 0.19204867 -0.092789546 -0.114750855 0.21939006 -0.25575727 -0.22086066 -0.08726262 0.11114374 -0.039172404 -0.04886828 -0.14068328 -0.03266264 0.03041584 -0.048595134 0.096231945 0.14561456 0.18381377 -0.044547997 0.39522928 0.08188487 -0.17969234 -0.05918148 -0.067570835 -0.13536005 -0.21006706 0.115226 -0.015663909 0.052244376 0.07804516 -0.2873322 -0.16696146 -0.022491127 -0.06397616 -0.40145347 -0.27778712 -0.017422216 0.0665056 -0.057663288 -0.029294355 0.18866384 0.13708438 -0.06459527 -0.10163286 -0.20560373 -0.1797107 0.07845273 0.28111765 0.0042576864 -0.06645058 0.038638044 0.10226384 -0.062436227 0.034915507 0.017588275 -0.169349 0.1021925 0.14494893 0.059770666 0.22062354 -0.0293406 0.06395422 -0.21473227 -0.070625074 -0.00840649 -0.17873451 0.035964675 -0.11919538 0.04302106 -0.056837257 0.014744558 0.066499904 0.082855865 -0.035971865 -0.04709397 -0.19374722 0.19838041 0.28011858 -0.11198449 0.030559076 -0.017416945 0.1581805 0.10886644 0.10336678 -0.20648384 -0.31269726 0.052158795 -0.15404972 -0.19214152 0.045738455 0.29589528 -0.015333462 -0.20739476 0.15534781 0.09950047 0.11712551 -0.043007746 -0.031236812 -0.012456148 -0.07616087 -0.06731272 0.10123014 0.34546864 0.1482796 -0.0682894 -0.094605796 -0.022051493 0.10613737 -0.14412601 -0.24324147 -0.06678805 -0.056695513 0.45959413 0.087326296 0.21133432 0.015355908 0.044537585 -0.0066739554 0.1810414 0.091122866 -0.100093 0.018814165 -0.1296113 0.087287776 0.08641533 -0.022671077 -0.03200278 0.087917015 0.08275238 -0.052869737 -0.027809968 -0.16444312 -0.18730453 0.019921558 -0.15824893 0.12660435 0.03669349 0.031154495 -0.1690782 -0.1453182 -0.26348114 -0.07497101 0.02688191 -0.016798299 -0.037178412 0.19623464 0.2432428 0.06948661 -0.06333451 -0.0071448544 0.10471994 0.0840857 -0.16335036 -0.19938725 -0.05818593 0.04738744 0.0014886293 0.07133499 -0.009946581 0.11261361 -0.044552684 0.17718314 0.019640094 -0.03354195 -0.0075229374 0.0046832715 0.1245397 0.0735088 0.13527292 0.084367305 -0.14743498 -0.059765004 -0.01617884 0.054505862 -0.09439609 0.0386819 -0.17046192 0.10870632 0.18524152 -0.12390958 0.17327735 0.05279705 -0.2902593 -0.07835501 -0.115365125 0.053525724 0.042847477 -0.12168442 -0.07164058 0.011998901
太阳 0.24905488 -0.11661353 0.19878277 0.014693718 0.17117411 0.030301284 0.12744644 0.13699241 -0.03706665 -0.08374448 -0.18396069 -0.17284526 0.22104895 -0.28087327 0.13413009 0.13953516 0.1752056 -0.02981707 -0.37711012 0.42063296 0.05255763 0.030506236 -0.08466699 -0.07472907 -0.37180033 0.09403648 -0.040525794 0.04897348 -0.056980338 0.2090616 0.026221817 0.106665626 0.050095372 0.15698192 -0.024116859 0.18799573 -0.16482244 -0.059380364 0.19268066 0.013697273 -0.3322768 0.012630861 -0.05610856 0.04170607 0.37424132 -0.24742086 -0.17161827 0.033736683 0.1114104 0.054302316 -0.12968469 -0.10534942 -0.0007025953 0.2859504 -0.34745526 -0.05625429 0.033060078 -0.16943352 -0.12660569 -0.01682908 -0.23585987 -0.07467272 -0.032038406 -0.024221659 0.14705643 -0.21903922 -0.25257 0.27206677 -0.16177422 -0.18287687 0.1806336 -0.09273232 -0.35519204 -0.12961115 0.10951568 -0.06955845 -0.0021600318 -0.16914317 -0.2544479 -0.020651221 -0.06483942 -0.0538927 0.24506171 0.28819996 -0.0490155 0.41178626 0.07369482 -0.20987554 -0.019956235 0.096242666 -0.16539572 -0.1633432 -0.087405324 0.009761395 0.03170061 0.069868766 -0.28265488 -0.019545754 0.00018718216 0.0041722064 -0.25595117 -0.25614083 -0.15184769 0.07560664 -0.059409484 0.0070938226 0.14435685 0.08470699 0.06697508 -0.103233606 -0.06547881 -0.16835897 0.103883326 0.28765514 -0.009979397 -0.03980711 0.05634453 0.007017497 0.096127085 0.021940008 -0.0332573 -0.29661372 0.043993775 0.13046992 0.122566424 0.22330396 -0.01866887 -0.029662633 -0.2447572 0.036141284 -0.20723276 -0.051680252 0.16598049 -0.04464717 0.10597038 0.010926181 -0.10911714 0.29988724 0.24951275 -0.017373024 -0.026341446 -0.10535422 0.26598617 0.1044136 -0.17860058 0.035047986 -0.14912358 0.24641114 0.054424766 -0.053818468 -0.23156871 -0.19174428 -0.15570605 -0.21101512 -0.19568641 0.07063834 0.23202707 0.011638055 -0.17821643 0.12961279 0.11960781 0.11772361 -0.17588426 0.08402528 -0.14214282 -0.08351741 -0.17221244 -0.0052595227 0.54663175 0.1103609 -0.15860908 0.102076404 -0.014941381 0.04999697 -0.21133076 -0.14998364 -0.108150244 -0.075510636 0.4615943 0.23862137 0.17874008 -0.23195244 -0.060470093 -0.016577618 0.20084432 0.122672185 -0.0661485 0.14499067 -0.21984728 0.24485275 -0.0034122744 0.15737057 -0.0091390535 0.07988525 -0.017527554 -0.013793228 -0.14145057 -0.1660051 -0.21194589 -0.014714645 -0.21231253 0.089645125 0.24903594 -0.16617656 -0.026323237 -0.22377527 -0.12079947 -0.024476914 -0.0356338 0.086897254 -0.036965042 0.17079002 0.24371071 0.080183454 0.019026322 -0.03953754 0.20869772 -0.06501388 -0.11137856 -0.07992967 0.12858805 0.04634664 0.044111744 0.1676074 0.0013176581 -0.04505412 -0.13807704 0.36151662 -0.006399253 -0.07005005 0.23140335 -0.116578035 -0.013994245 0.20014305 -0.020640021 0.041020114 -0.15727332 0.03667171 -0.009400101 0.1930164 -0.14265169 0.008445536 -0.031238679 0.20074388 0.24508432 -0.093741655 0.26373434 0.026538176 -0.13832879 -0.030097328 -0.06736414 0.0957429 0.01803295 -0.20969492 -0.03260334 -0.06701903
想 0.10774079 -0.08172023 0.34558517 0.14884777 0.13992678 -0.062394727 0.14372978 -0.10551286 -0.18912743 -0.13445772 -0.06594898 0.028044652 0.12980531 -0.13521214 0.12651925 0.07927829 -0.1538993 0.26907092 -0.040988725 0.16704033 0.17031218 -0.028829632 0.041962016 -0.199411 -0.15006839 -0.19128855 -0.0068928893 -0.04094981 -0.0016072927 0.19308434 0.12414524 -0.26562816 -0.010727169 0.08950605 -0.14431438 0.10278309 -0.014599534 -0.021739595 0.07515311 0.13327886 -0.041559488 0.088675685 0.19512658 -0.08731992 0.029441193 -0.16054471 0.08786995 -0.06195783 -0.014560726 0.21104315 -0.022131337 -0.24331766 -0.11585205 -0.088682175 -0.32182157 -0.06023962 0.074053496 -0.34291792 0.0849797 0.30587062 -0.112459585 0.10981628 -0.20080216 -0.036253236 -0.07316956 -0.13498884 0.05761125 -0.105793335 0.047777094 -0.18973574 0.07958681 -0.20171037 -0.06606925 0.121607386 0.025707839 -0.09481569 -0.06740912 -0.26525342 0.17738298 0.00553394 -0.10580641 0.14461328 0.022794224 0.20322552 0.030174287 0.2394983 0.06432056 -0.042311847 -0.039471094 -0.19140494 -0.015053434 -0.16824968 0.073288806 0.14704713 -0.05216345 -0.019903738 -0.1702548 -0.0010593263 0.002752328 0.11367929 -0.3803946 -0.14401704 0.114487685 -0.024328485 -0.0945595 -0.068890035 0.21310656 0.043197975 -0.083345234 -0.040649075 6.235773e-05 -0.08682664 0.17207265 0.2058047 0.18260814 -0.08574177 0.050124515 0.011060191 0.003976015 -0.058122437 -0.14258918 -0.10144609 -0.00011351035 0.19711962 -0.024172928 0.06238225 -0.15161791 -0.14699526 -0.092198774 -0.09976924 0.03393008 -0.2344574 -0.04331542 -0.05710705 -0.10095693 -0.141756 0.13916607 -0.013559565 -0.030233584 0.0039018118 -0.11834588 -0.15282616 0.010199233 0.16512692 -0.093632646 -0.07613085 6.4400054e-05 0.05572177 -0.03192527 -0.07496979 -0.09235811 -0.37000746 0.13157688 -0.060618516 0.1343853 -0.040919065 0.11615263 0.05565945 -0.13519892 -0.11860352 0.14512034 -0.05609769 0.020263018 -0.2503289 -0.20432615 -0.16375527 -0.040724464 0.1051058 0.33298793 0.108001016 -0.101266645 -0.036645483 0.009422962 0.045971483 0.01915085 -0.033814654 -0.21859081 -0.058073707 0.37121662 0.0025741735 0.046315577 0.09856301 0.11113695 -0.23498565 0.077936396 0.05081039 -0.0025547142 0.0946549 -0.18581736 -0.019913903 0.083178595 -0.047630735 0.012270048 -0.10616451 -0.04683947 -0.12276694 -0.12176404 -0.070985086 -0.08804658 0.033714555 0.06323059 0.17298347 -0.057179775 -0.09027299 -0.14450733 -0.14320308 -0.29585558 -0.028587982 -0.14818338 -0.079664886 0.119431265 0.11933989 0.2608852 0.08106338 0.11113059 0.009279074 0.06650275 0.16500089 -0.09085993 -0.12996045 -0.009912002 0.0372008 -0.050893214 -0.0042373296 0.15821393 -0.007492349 -0.21774587 0.04478423 0.10292833 -0.07634425 -0.037412517 0.18961696 0.23521894 -0.10324946 0.010903862 0.076798454 -0.04210895 -0.07599562 -0.15978488 -0.04050281 -0.07883628 0.15617006 -0.17091106 -0.014831332 0.16571881 -0.16188511 0.21253005 0.019198148 -0.25137323 -0.17764798 0.014267148 0.10360292 0.1557186 0.013383198 -0.06307052 0.09644056
舰队 0.11740953 -0.07988109 0.15549381 0.027316708 0.225707 0.055775434 0.030264739 0.00421596 -0.05414025 -0.06341606 0.0027584722 -0.054623943 0.19941542 -0.2745772 0.027577572 0.07411149 0.3455166 0.05432117 -0.29965064 0.44112068 -0.1410351 0.060475636 0.0013795065 -0.10994152 -0.2992286 0.12850188 0.10656379 0.056376792 -0.27318773 0.16749994 0.07075052 0.06853944 0.03772566 0.15253012 0.013691028 0.27121845 -0.0733706 0.0123234 0.062396184 -0.09497825 -0.3874802 -0.10047593 0.020591589 -0.013049336 0.30219075 -0.16377355 -0.04628045 -0.02700112 -0.10905821 0.076036036 -0.07835868 0.11488939 0.08976923 0.16433628 -0.2926394 -0.0071212146 0.22022198 -0.090181656 -0.09100869 -0.0708164 -0.13024765 -0.018224956 -0.13650861 -0.02673425 0.08937042 -0.02914293 -0.2756742 0.26488274 -0.12312098 -0.15979116 0.28086472 -0.2591036 -0.30544502 -0.14904536 0.18232788 -0.04975259 0.01755105 -0.13360749 -0.20312278 0.07265208 0.01784991 0.074855775 0.32939792 0.1118642 -0.041549686 0.4098265 0.09401315 -0.26767644 -0.0474109 0.006905772 -0.14762771 -0.22573586 0.08930691 -0.036402922 0.07495681 0.12128549 -0.34299922 -0.22795092 -0.03869893 -0.2059289 -0.3319661 -0.29395813 -0.13668056 0.119711034 0.036620114 -0.026188947 0.1182087 0.19377339 -0.034188762 -0.13357587 -0.20976569 -0.19711305 0.13787042 0.29805243 -0.06488488 -0.0996835 0.026002983 0.12975267 -0.052074667 0.06067371 0.14869954 -0.13468386 0.120049484 0.019333614 0.17617874 0.24574505 0.08679316 0.088306695 -0.23325138 -0.03584416 -0.019021371 -0.13257825 0.0932105 -0.09237453 0.10209461 0.01503676 -0.08296021 0.23264396 0.13330878 -0.03226299 -0.06306715 -0.03487867 0.3177747 0.24604777 -0.15041815 0.044854566 -0.029585727 0.18196428 0.2176132 0.11473388 -0.3201061 -0.13643502 -0.11431123 -0.21935381 -0.29666832 0.14518665 0.25312686 0.03945006 -0.13901609 0.19969214 0.1201518 0.102696404 -0.08904474 0.033724986 0.07603059 -0.039842762 -0.095484525 0.1021758 0.3584809 0.13310556 -0.13967851 -0.02605714 0.061868545 0.035423066 -0.24838474 -0.20677891 -0.008586411 -0.096806996 0.4566397 0.07475954 0.22828026 -0.03889702 0.023488257 0.18628187 0.20176536 0.123291716 -0.080865584 0.019944442 -0.19419044 0.19343449 0.07826166 0.05939925 0.030735958 0.16639978 0.068040386 -0.02369057 -0.02964673 -0.18912509 -0.19079664 0.016967423 -0.28385013 0.186403 0.17875095 0.00705708 -0.08113866 -0.10610604 -0.11382187 -0.040836897 0.020095468 -0.07091193 -0.10981106 0.20823719 0.15404445 0.07761857 -0.06168771 -0.03354607 0.14315455 0.060589768 -0.12256725 -0.09017424 0.013619844 0.15095982 -0.02257607 0.135304 -0.09931429 0.049472343 -0.0039729816 0.2884476 -0.064518 0.04286715 -0.033568107 -0.1493377 -0.03740245 0.24000593 0.10294825 -0.028527828 -0.17070629 -0.05105906 0.09142912 0.09741477 -0.17621885 0.02814024 -0.07445704 0.12875745 0.17255749 -0.034860726 0.21025798 0.13047194 -0.17523603 -0.13150091 -0.1701409 0.037088625 -0.098588645 -0.18732533 -0.06458222 -0.016632224
飞船 0.19742532 -0.091183 0.10768638 0.039453723 0.16209796 0.07732443 0.103879966 0.1437571 -0.042435996 -0.10245231 -0.12229834 -0.16982222 0.27668214 -0.35868263 0.0415219 0.044029467 0.40331998 0.005717746 -0.3952503 0.42648044 -0.036262136 0.10553204 -0.0006001441 -0.04624755 -0.38315862 0.2130386 0.040533356 -0.012285997 -0.24659793 0.23500186 -0.006293652 0.22102508 0.02920019 0.13147004 0.07481862 0.30806777 -0.14277375 0.025938708 0.1345873 -0.10980707 -0.43744963 -0.025759628 -0.09080788 0.010530011 0.46764764 -0.16683389 -0.2594548 -0.09756937 0.14461942 0.024035258 -0.13430335 0.052440338 0.04165458 0.30867183 -0.439305 -0.0016414117 0.041350357 -0.09747034 -0.21483818 -0.07244492 -0.11505672 -0.17430066 -0.027953375 0.0005265516 0.1772226 -0.15064882 -0.39028195 0.30772722 -0.16517569 -0.17020512 0.20345196 -0.21401176 -0.42940697 -0.14253482 0.24520443 0.022379398 0.09517473 -0.15865622 -0.3329799 0.053727064 0.044014987 -0.03562363 0.45906633 0.23610298 -0.03344956 0.42986196 0.1973581 -0.38113567 0.011774967 0.13901739 -0.16326094 -0.23213361 -0.017887354 -0.0211784 0.097029954 0.18204278 -0.40239793 -0.22114845 -0.03507298 -0.18639317 -0.26745287 -0.37826946 -0.21003786 0.16619244 0.041667446 0.023802338 0.16379361 0.1684597 0.06870471 -0.19215122 -0.04877734 -0.19733702 0.1925024 0.33004922 -0.077296995 -0.15455791 0.10306359 -0.016951853 -0.005702694 0.029187907 0.083488874 -0.14383984 0.12049207 0.0188389 0.2264198 0.27813688 0.08802652 0.053287536 -0.30246362 -0.082206085 -0.13111481 -0.055382624 0.18394326 -0.038223874 0.10763012 0.047623657 -0.17486873 0.42064247 0.32990935 -0.0066996464 -0.10707688 0.05882991 0.30808946 0.2129226 -0.29907897 0.055593263 -0.16263704 0.21265127 0.21342038 -0.049253874 -0.43926516 -0.11962049 -0.21874242 -0.33744714 -0.33973038 0.20589781 0.2282767 0.18638584 -0.07413954 0.25829482 0.18159218 0.03580379 -0.13384709 0.094399236 0.002007045 -0.058658604 -0.12678054 -0.015711341 0.54426175 0.10804393 -0.18133748 0.0759175 0.06293339 -0.049373433 -0.3400005 -0.17671798 -0.03591149 -0.07565236 0.4722615 0.14925513 0.19794595 -0.19785932 -0.021495273 0.17595911 0.14968672 0.111397944 -0.026332607 0.15760355 -0.22942086 0.32080606 -0.005319362 0.1368418 0.023519423 0.09608729 -0.020941438 0.061285786 -0.08441741 -0.15126386 -0.23909001 -0.018415885 -0.35126343 0.18695162 0.3810328 -0.19349638 -0.0015297532 -0.15477757 -0.11933764 0.0014572571 -0.059133448 -0.052988477 -0.082881294 0.28852254 0.2431522 0.09788337 -0.005547083 -0.11373313 0.25479037 0.0056824023 -0.1282039 0.06708562 -0.009988331 0.20945896 0.07497208 0.1811176 -0.0047604404 -0.0025212683 -0.1623519 0.45047298 -0.037656687 0.06548851 0.11754481 -0.25079685 -0.16738486 0.3011862 -0.01136974 0.027359836 -0.21182543 0.025675884 0.09178597 0.13374868 -0.18301219 -0.03289611 0.06275013 0.21937151 0.18562503 -0.010007556 0.23734458 0.10334194 -0.09715042 -0.17813697 -0.21548223 0.001570383 -0.064852804 -0.22371224 -0.06087677 -0.0850805
汪淼 0.12438715 -0.06767317 0.32412165 0.11777753 0.10709407 -0.08130197 0.15213113 -0.058204535 -0.15744561 -0.12103491 -0.08522261 -0.006138506 0.13289052 -0.12248229 0.12492154 0.086169556 -0.19610856 0.2573563 -0.07274798 0.12814514 0.21685886 -0.064392656 0.023535153 -0.15699793 -0.16527902 -0.21279976 -0.033987094 -0.022493042 0.06835906 0.20909981 0.09359117 -0.24359626 -0.031728465 0.08891199 -0.15040143 0.080851294 -0.032766 -0.016257202 0.10559041 0.16320463 -0.017486818 0.1207017 0.18510342 -0.07949867 0.02816931 -0.15800887 0.06536187 -0.05548555 0.0573423 0.18806139 -0.020164413 -0.29596114 -0.15170774 -0.05435267 -0.31086305 -0.0719442 0.002002938 -0.35327157 0.069447495 0.2923422 -0.121881224 0.100084506 -0.16115177 -0.050088868 -0.050167464 -0.1659685 0.038248114 -0.13097057 0.030681891 -0.176504 0.049992252 -0.14494644 -0.080438055 0.13717188 0.022268508 -0.1179246 -0.04206861 -0.24633762 0.12728576 -0.005498275 -0.11223885 0.10064839 0.031283032 0.2187845 0.04651907 0.19542609 0.037596844 -0.042420253 -0.02532275 -0.14765596 -0.016799377 -0.14126681 -0.011319256 0.16006663 -0.07355964 -0.04029197 -0.15015353 0.047079474 0.022236057 0.15428951 -0.30670097 -0.104548864 0.06942366 -0.034980815 -0.1068692 -0.062107727 0.18837592 -0.00042816802 -0.064375564 -0.021636046 0.045539696 -0.050500445 0.15979491 0.19404328 0.22604036 -0.081143424 0.041754268 -0.03970548 0.056197315 -0.08024735 -0.16938968 -0.12401425 -0.051070843 0.22006346 -0.022175044 0.04032745 -0.1644228 -0.17932749 -0.07952052 -0.053391974 0.0051698238 -0.20328894 -0.0088014295 -0.019604176 -0.09145766 -0.14136133 0.11862443 0.039126478 -0.018457452 -0.011525372 -0.12265274 -0.14407974 -0.014681404 0.09316719 -0.08262262 -0.07056602 -0.042388324 0.080943 -0.082958356 -0.13786079 -0.06486437 -0.32313478 0.09855585 -0.06019691 0.17575164 -0.053025242 0.07172055 0.048725374 -0.12099671 -0.12760939 0.11916688 -0.06355791 -0.02736459 -0.23236524 -0.23283398 -0.15555973 -0.056832813 0.04441724 0.35550034 0.08718647 -0.12656206 0.031610504 -0.028438037 0.032436762 0.04837391 -0.022144306 -0.23383094 -0.07612866 0.330768 0.05120617 0.0074367523 0.028703399 0.06366104 -0.2674576 0.052555423 0.03368164 0.024610223 0.13969441 -0.1849604 -0.008111812 0.043390706 -0.01437855 0.018403267 -0.1427396 -0.0735243 -0.11420741 -0.15742618 -0.061575297 -0.08120736 0.0471903 0.08054984 0.16518359 -0.02953383 -0.13647297 -0.111494 -0.16912784 -0.2452012 0.004494964 -0.17583354 -0.03349912 0.1463243 0.08109211 0.23352043 0.05963706 0.13894139 0.005577776 0.08469533 0.1211998 -0.08255346 -0.09714245 0.007481653 0.015763847 -0.031070974 -0.004217724 0.16969399 -0.04243506 -0.2562534 0.068031065 0.105243884 -0.08210115 0.028770892 0.19053283 0.22293156 -0.10409251 -0.026444457 0.049713716 -0.03120973 -0.032546222 -0.16802399 -0.03262616 -0.05252073 0.13351147 -0.13268878 2.9832481e-05 0.17866944 -0.1487669 0.21398436 -0.0011625921 -0.19641805 -0.15667123 0.047951795 0.11320143 0.16223735 0.0024178617 -0.06123128 0.10273269
时间 0.13362284 -0.10693215 0.24619865 0.0888722 0.1828811 -0.0029389793 0.11220479 -0.03634931 -0.09367568 -0.1246594 -0.06615203 -0.02994994 0.18784715 -0.20461197 0.11363869 0.069607906 0.12163082 0.14681676 -0.20153795 0.3119265 0.03164789 0.04454447 0.008948559 -0.15332389 -0.25059697 0.0012694967 0.024123667 8.759147e-05 -0.12526424 0.18966681 0.082578175 -0.089458115 0.03447908 0.13182741 -0.044043146 0.20579782 -0.07470466 -0.0035168785 0.09771762 0.030766869 -0.2434841 0.0063319774 0.0782192 -0.05249757 0.21143101 -0.17521611 0.0052431216 -0.062857896 -0.034349345 0.1350348 -0.07861788 -0.062810704 -0.016466644 0.070710935 -0.3515313 -0.031868834 0.12640767 -0.23486447 -0.045227848 0.0847329 -0.122298606 0.013818448 -0.15066236 -0.032211173 0.026497884 -0.111611366 -0.12768629 0.114388414 -0.049981948 -0.17461002 0.15473464 -0.24930304 -0.22707069 0.007823353 0.12393656 -0.057932727 -0.03398678 -0.18464558 -0.03124098 0.039928555 -0.044169866 0.08754538 0.19635688 0.19536257 0.006755815 0.37098712 0.070414804 -0.18841393 -0.03647066 -0.05632035 -0.103871666 -0.1915065 0.05930547 0.06666276 0.030304011 0.058098942 -0.27040377 -0.108936675 -0.026921375 -0.02780095 -0.36056387 -0.2710489 0.0035141995 0.034262657 -0.023669628 -0.049585264 0.18077964 0.11329866 -0.03694838 -0.09459143 -0.09944312 -0.13915591 0.16458683 0.27670297 0.047436465 -0.08038879 0.046634555 0.044723418 -0.01551463 -0.0031033452 -0.003270949 -0.13034706 0.06272332 0.11899812 0.08897102 0.16313073 -0.05469839 -0.028527379 -0.18471353 -0.07005274 -0.028349154 -0.18323621 0.056452904 -0.061748512 0.049036756 -0.057268687 0.00023894003 0.12954402 0.108324915 -0.027010234 -0.095093794 -0.11299464 0.18506317 0.20515388 -0.14195369 0.0023152067 -0.045126118 0.12202005 0.0863261 -0.0020190002 -0.23254599 -0.25958532 0.013847631 -0.15489769 -0.10239181 0.058557358 0.21772067 0.05687839 -0.13408202 0.06645483 0.14426634 0.038464025 -0.057417795 -0.055025112 -0.07515819 -0.09929881 -0.067500845 0.07797667 0.39416194 0.12655242 -0.13326849 -0.017685896 -0.00028746575 0.03651808 -0.14104325 -0.14740886 -0.10994803 -0.077376075 0.43679157 0.07808391 0.14582247 -0.002338869 0.038729552 -0.05280226 0.13376045 0.08050549 -0.059535217 0.10459937 -0.20577396 0.12941474 0.06951695 0.005874746 -0.0045352536 0.02144284 -0.010509024 -0.06936168 -0.09455974 -0.14478768 -0.15602031 0.006891493 -0.12786101 0.15181273 0.07745619 -0.06537151 -0.10559882 -0.15829784 -0.23005241 -0.042119965 -0.044717643 -0.060905658 -0.0013261521 0.18716209 0.23552261 0.09456175 0.020168161 -0.0123471655 0.123770855 0.08730054 -0.11724874 -0.08499213 -0.016943533 0.08535318 0.0012596358 0.066471376 0.04278573 0.01486988 -0.13150877 0.18493015 0.03490716 -0.037577983 -0.0044349153 0.010919183 0.10137472 0.058774967 0.053636644 0.057693537 -0.10347983 -0.037139792 -0.027657371 0.034368057 -0.117663294 0.06958742 -0.13310812 0.092574194 0.16786672 -0.105404295 0.20279402 0.06333175 -0.22387122 -0.14591283 -0.08309695 0.04397689 0.032081988 -0.110014066 -0.05404043 0.0011466247
两个 0.11193592 -0.070102505 0.26522768 0.12245291 0.18241745 -0.047005292 0.1280274 -0.07000852 -0.11287738 -0.15327746 -0.007322679 0.010365339 0.14529435 -0.15489216 0.1037216 0.063406825 0.05147188 0.15688129 -0.13508676 0.24918424 0.059111185 0.030423831 0.021835772 -0.17651775 -0.23681061 -0.06408082 0.0143099725 -0.0018284495 -0.12327631 0.20475616 0.08376321 -0.12646915 0.023747891 0.14567332 -0.05424438 0.17833197 -0.027385216 0.016047549 0.10028512 0.06255025 -0.20376155 0.03000126 0.12180058 -0.030301038 0.1421134 -0.13741766 0.043125633 -0.060152967 -0.058256228 0.14809744 -0.051296648 -0.07438384 -0.07139934 0.014914008 -0.3202205 -0.03416908 0.1208337 -0.2710129 -0.00905876 0.14818498 -0.102396935 0.030466473 -0.16533642 -0.04376034 0.005004157 -0.10687283 -0.078487694 0.06454016 -0.03169521 -0.14153442 0.12632245 -0.25298494 -0.15324079 0.024251292 0.08693449 -0.052122097 -0.058988627 -0.21204734 0.002345704 0.065534554 -0.06614062 0.1185633 0.15512432 0.19101453 0.0060945586 0.30347887 0.085515544 -0.15229034 -0.035189744 -0.11403244 -0.08257237 -0.18615386 0.06681509 0.07377691 0.016435778 0.021847418 -0.24435188 -0.081771 -0.011890552 0.006444275 -0.37963903 -0.22345085 0.00984367 0.025779022 -0.054929666 -0.07796596 0.19917932 0.08514647 -0.054011885 -0.07002531 -0.06635352 -0.12994172 0.15256901 0.24320242 0.065729186 -0.082821555 0.06456198 0.03692373 0.009198355 4.301356e-05 -0.0103796115 -0.09053458 0.06522774 0.11328425 0.07124036 0.115910105 -0.05408619 -0.03897453 -0.12658732 -0.084144466 -0.0025861058 -0.1986344 0.0077744573 -0.06945419 0.011668483 -0.06973855 0.012904731 0.08675617 0.056732304 -0.017924039 -0.113401905 -0.0908184 0.14993583 0.19651641 -0.13974577 0.012019585 -0.029109273 0.07407777 0.08403088 0.014462247 -0.1909391 -0.2635699 0.05469833 -0.13065073 -0.046721336 0.040899727 0.20659196 0.047088116 -0.12985297 0.037826348 0.1294598 0.020712387 -0.009746023 -0.09531802 -0.10373491 -0.083148606 -0.050669406 0.105262145 0.3698586 0.114936866 -0.103010304 -0.02019364 0.00076180504 0.0070061767 -0.10444668 -0.10918712 -0.13151029 -0.08124906 0.42549375 0.051616322 0.12240809 0.03943909 0.06328902 -0.040800434 0.09907001 0.0680284 -0.04700734 0.09753823 -0.21644548 0.098490454 0.07040764 -0.02166306 -0.0063094515 0.022581272 -0.005698615 -0.07578146 -0.10012077 -0.13802916 -0.13374572 0.026815027 -0.0969607 0.14497356 0.041239224 -0.04656062 -0.09239151 -0.11807919 -0.21169688 -0.038744256 -0.058058813 -0.07960343 0.03717249 0.16191675 0.21370272 0.076602094 0.043698948 -0.020321816 0.102759704 0.13232844 -0.13602237 -0.084694654 -0.034599837 0.067264006 0.01786496 0.054941483 0.071879946 0.017270321 -0.14696576 0.13132577 0.028918367 -0.0528839 -0.037380908 0.07546984 0.13155581 0.03525599 0.05023944 0.01702098 -0.10499807 -0.056644786 -0.03309449 0.0050692908 -0.12531343 0.097434424 -0.14726053 0.031089306 0.15470035 -0.129955 0.18552944 0.034844857 -0.23833328 -0.16769302 -0.10398889 0.058341388 0.07144098 -0.08265919 -0.07538587 0.03208469
前 0.11645346 -0.057686254 0.277719 0.13527821 0.16502549 -0.057127662 0.1536177 -0.06346325 -0.13382274 -0.16666433 -0.03408276 -0.013508588 0.16830103 -0.17160521 0.10357098 0.07442677 -0.009562977 0.18179314 -0.14122288 0.21832196 0.114189066 -0.00022716382 0.034230337 -0.15946826 -0.24363098 -0.10725498 0.007582667 -0.023578204 -0.07835912 0.20819205 0.080675505 -0.14169182 0.00045460073 0.12438108 -0.08391072 0.16505627 -0.036739208 0.020766411 0.10165348 0.08375913 -0.16123962 0.06597844 0.137203 -0.047962755 0.12973279 -0.13533704 0.02585845 -0.089407094 0.0027146991 0.16488981 -0.04651292 -0.13290247 -0.10596811 0.008556465 -0.3523834 -0.03634283 0.07894736 -0.307011 -0.010908519 0.19338998 -0.09651749 0.04201847 -0.16057093 -0.047564432 0.008651638 -0.14277054 -0.08140158 0.0076162363 -0.013626241 -0.17361099 0.101469226 -0.23414248 -0.17178462 0.06041883 0.08143887 -0.07052216 -0.042198222 -0.23637268 0.021349901 0.06182759 -0.06175025 0.111009724 0.16439933 0.20498946 0.025875472 0.2853382 0.09979622 -0.14588535 -0.027226182 -0.10846583 -0.055630088 -0.19467312 0.03895435 0.11080904 -0.0027471366 0.020305837 -0.23048729 -0.050737936 -0.004857187 0.036559936 -0.36922425 -0.2010015 0.009105181 0.0160925 -0.053976327 -0.07157575 0.20207027 0.065704964 -0.059955664 -0.07782441 -0.00376345 -0.115576684 0.1921284 0.24026516 0.122707084 -0.10875751 0.07409485 0.0040120343 0.023479607 -0.039669547 -0.053529624 -0.09364217 0.030542366 0.1368663 0.06921265 0.10526382 -0.07633975 -0.08235556 -0.12523107 -0.08986697 -0.0025254313 -0.2124955 0.011574003 -0.055493124 -0.017651929 -0.08271295 0.023860091 0.109969765 0.06524403 -0.020561699 -0.14490281 -0.075130984 0.119021736 0.1761487 -0.15302603 -0.016104793 -0.03878502 0.07022963 0.054865543 -0.043644793 -0.18765235 -0.28304642 0.041991226 -0.13494796 0.007231243 0.03008579 0.17534664 0.083106264 -0.107136704 -0.020345496 0.14076674 -0.025989546 -0.026364371 -0.12558219 -0.14851035 -0.108528204 -0.051378638 0.08326458 0.40655667 0.1075276 -0.13182484 0.007831221 0.006552679 -0.007434676 -0.08838863 -0.076486155 -0.16376019 -0.078709595 0.4223974 0.05627075 0.0733449 0.023878409 0.07035555 -0.08693686 0.0755536 0.06597856 -0.014181241 0.12551345 -0.22749127 0.09176882 0.057580736 -0.020161515 0.009718437 -0.027843615 -0.031707752 -0.0883006 -0.120951116 -0.12355699 -0.13302974 0.031728897 -0.068221346 0.16744402 0.05778372 -0.10107693 -0.0802892 -0.1277526 -0.21889186 -0.017548114 -0.11954434 -0.0807371 0.06969569 0.15346001 0.2397092 0.06407672 0.08625872 -0.030145654 0.11956091 0.13876398 -0.1374582 -0.054903373 -0.03331389 0.082544066 0.021663927 0.057240825 0.117147446 -0.011611081 -0.2085226 0.13829462 0.0551917 -0.04657029 -0.015570737 0.09445126 0.12950057 0.015776956 -0.002589554 0.025824003 -0.09903776 -0.04088981 -0.06809011 -0.0014647518 -0.1291955 0.11475841 -0.12877429 0.034209985 0.16271985 -0.13883083 0.21459566 0.034388825 -0.22149992 -0.19704697 -0.08505055 0.0579903 0.09442028 -0.058932424 -0.0699912 0.051429223
文明 0.13757607 -0.19690993 0.3260611 0.15147527 0.30353343 0.06609703 -0.0549817 -0.18122645 -0.055282675 -0.05728881 0.010944676 0.10302961 0.13503735 -0.21324682 0.118358016 0.04905019 0.3229359 0.1448718 -0.18442665 0.56353396 -0.24958166 0.17104338 0.039322834 -0.27206346 -0.2827384 0.16018605 0.20765533 0.06688384 -0.38720816 0.2231432 0.079074524 -0.15993516 0.05654411 0.25779012 0.0051049073 0.24391696 -0.039342023 -0.013846119 0.033603795 -0.07340404 -0.40110153 -0.24229313 0.04530716 -0.0015596612 0.29210433 -0.17104946 0.1348905 0.06324235 -0.33659768 0.20467328 -0.13566926 0.11802946 0.1285753 0.0039968863 -0.30160683 -0.052018903 0.4294604 -0.07231487 0.04064704 -0.057761904 -0.21354915 0.028853154 -0.21619503 -0.05726559 -0.044744965 0.07304321 -0.13482052 0.28104797 -0.11423228 -0.1052482 0.349571 -0.37050846 -0.21718961 -0.17796859 0.11769369 -0.056892768 -0.07901876 -0.116181076 0.0039083743 0.056637976 -0.038919277 0.19608921 0.13629076 0.123852216 -0.09016327 0.49196053 0.04474189 -0.1745905 -0.1032911 -0.14223105 -0.16747089 -0.26991284 0.24075034 -0.09587538 0.10438814 0.089065276 -0.32995844 -0.2836925 -0.0317 -0.16345832 -0.50754964 -0.3137845 -0.011152272 0.1057599 -0.020025479 -0.051304754 0.18054682 0.20585187 -0.13036925 -0.12541462 -0.42160693 -0.21929984 0.030719215 0.31555757 -0.059006367 -0.036151495 -0.016924229 0.2416594 -0.16369735 0.07810952 0.14044678 -0.18762754 0.17572127 0.12042322 0.07184696 0.28715944 0.021235252 0.15734164 -0.24887636 -0.08504865 0.06601515 -0.22941208 -0.00785029 -0.19001724 0.07316858 -0.06309848 0.037965044 -0.048219346 -0.022138245 -0.08284027 -0.021304222 -0.28033862 0.28360763 0.41191342 -0.07692771 0.07708327 0.06457852 0.17252502 0.18947755 0.29930326 -0.21755713 -0.33558187 0.102929905 -0.14672105 -0.3208005 0.057671312 0.39950722 -0.097623095 -0.30082968 0.2364977 0.0876644 0.19784574 -0.00840662 -0.022131177 0.12471175 -0.026783895 -0.033482533 0.20746031 0.27571538 0.18806347 -0.04763858 -0.20779999 -0.013771396 0.20818427 -0.16807993 -0.3686457 0.02727028 -0.0905753 0.53384525 0.05588159 0.32708853 0.11531275 0.07903185 0.13106263 0.2680366 0.12061926 -0.16288239 -0.11649946 -0.09337245 0.0348306 0.18133424 -0.081283435 -0.071943924 0.23484398 0.20290297 -0.08580867 0.065263405 -0.22627959 -0.19291516 0.0117057115 -0.21618548 0.13971709 -0.055594385 0.23468193 -0.2540879 -0.10932913 -0.28693226 -0.123090066 0.16101886 -0.03513496 -0.11514226 0.21034922 0.22130878 0.06792885 -0.16994274 0.04283091 0.0485828 0.13833493 -0.22159575 -0.33105794 -0.092938 0.033211354 -0.06029368 0.05758183 -0.13051257 0.24572906 0.12428563 0.12640998 -0.019426772 -0.022751302 -0.13067275 -0.008294615 0.17322433 0.1260609 0.28426304 0.04586987 -0.18593113 -0.14132753 0.05607899 0.071054906 -0.1081045 0.049716227 -0.2642638 0.096550606 0.17828226 -0.14415945 0.14777112 0.12752613 -0.4049495 -0.039615348 -0.13782142 0.053464293 -0.021926822 -0.15339878 -0.071279645 0.02309813
东西 0.12602574 -0.0976449 0.30692887 0.13090748 0.13535458 -0.05899411 0.14170289 -0.043310344 -0.1488067 -0.13147478 -0.088908985 -0.014918718 0.14826916 -0.1470679 0.122540265 0.08360035 -0.097967304 0.22431508 -0.09463151 0.19130558 0.15834725 -0.020583503 0.030105785 -0.17253336 -0.1873411 -0.14031897 -0.009619022 -0.023127757 -0.013973894 0.21155201 0.081306085 -0.19719836 -0.01837194 0.10572899 -0.11106407 0.12427313 -0.021610066 -0.020032581 0.1001117 0.105622225 -0.078883134 0.082512975 0.13949491 -0.05970733 0.08354293 -0.14527786 0.03777799 -0.050362732 0.027120868 0.1808403 -0.0452092 -0.21661606 -0.10361671 -0.035832524 -0.3193659 -0.07378502 0.0523609 -0.31091216 0.0503375 0.25409853 -0.12747905 0.06473026 -0.15967007 -0.034738872 -0.03546097 -0.13744216 -0.0035196422 -0.054573666 0.017125547 -0.16809702 0.07068486 -0.18778972 -0.11527621 0.0758132 0.06195222 -0.07852365 -0.04575921 -0.2394102 0.080004305 0.004700379 -0.09494064 0.09974813 0.05931457 0.21361996 0.02331969 0.24796584 0.067661494 -0.081169374 -0.041058507 -0.1282227 -0.04532403 -0.16102 0.035241038 0.12002682 -0.045311764 -0.012979988 -0.19337058 -0.023574898 0.0012781176 0.097970575 -0.3379342 -0.14955519 0.06481886 -0.007660094 -0.08415074 -0.049874537 0.18011348 0.044825926 -0.059258416 -0.049809746 0.0034932557 -0.1073164 0.16547799 0.21688202 0.15708552 -0.077452995 0.044020485 -0.010112083 0.028648272 -0.055379808 -0.13587704 -0.12550992 0.007264549 0.1966752 0.0104748625 0.09292223 -0.11875702 -0.11607874 -0.113784626 -0.0903344 0.015910577 -0.20474096 -0.0067030815 -0.048070036 -0.05810975 -0.12762688 0.09153378 0.051888164 0.014539604 -0.005093668 -0.116882265 -0.13933928 0.039184038 0.15926734 -0.11517618 -0.055789202 -0.030502163 0.09508574 -0.013740132 -0.07064671 -0.11933378 -0.3263556 0.09013925 -0.07976185 0.08696881 -0.021870695 0.13563985 0.049333353 -0.13255338 -0.06764116 0.13119185 -0.02992691 -0.012344215 -0.18776648 -0.19729586 -0.14125589 -0.06582627 0.06832963 0.35139802 0.10974815 -0.11479632 -0.010597286 0.0015316734 0.03568672 -0.011611465 -0.06427707 -0.19466648 -0.06368095 0.36178556 0.03675123 0.049962785 0.021407165 0.07664973 -0.18973316 0.07833468 0.045154385 -0.006826706 0.10327444 -0.18248564 0.017081534 0.05190775 -0.027882427 0.0062423483 -0.08290209 -0.039800297 -0.092476025 -0.12820284 -0.07990889 -0.1150933 0.042769037 0.012412776 0.17811991 -0.003969452 -0.11520264 -0.11990284 -0.14961256 -0.26653495 -0.010463333 -0.14222647 -0.053756125 0.10305953 0.12738016 0.25542557 0.07440176 0.0919685 -0.011315082 0.107080385 0.13195993 -0.09466318 -0.10567145 -0.006983732 0.04487098 -0.014153747 0.016668044 0.13355558 -0.004259807 -0.22014938 0.10325158 0.07973849 -0.06817166 0.0081582805 0.14269002 0.18704574 -0.05933633 -0.0035577102 0.06703334 -0.05983159 -0.056848347 -0.1293413 -0.014406053 -0.07823656 0.12724014 -0.13342302 0.015889335 0.16515067 -0.14831679 0.20833059 0.0046811174 -0.2273435 -0.16215645 -0.009467362 0.09476692 0.13784468 -0.031138081 -0.07193535 0.06915707
发现 0.15261286 -0.08890623 0.2857416 0.10795444 0.1442001 -0.03888174 0.14465739 -0.010775354 -0.14083877 -0.11954158 -0.10018076 -0.04207519 0.17312635 -0.18718 0.112652674 0.095496766 -0.044299554 0.18762773 -0.15814629 0.23356952 0.14546984 -0.0077854935 0.010531498 -0.14310457 -0.22994228 -0.1064417 -0.010533059 -0.015935441 -0.028036626 0.22007155 0.07660915 -0.13187678 0.0069197384 0.10550273 -0.09609419 0.1456422 -0.06696091 -0.023526318 0.103708684 0.09313264 -0.13122551 0.0749162 0.11016091 -0.045379464 0.14327568 -0.16986129 -0.007371389 -0.05046131 0.046173494 0.1552967 -0.05145544 -0.2020112 -0.09215294 0.030149372 -0.34724775 -0.06459714 0.042793166 -0.2935422 0.011359124 0.20466723 -0.13948593 0.030296894 -0.13310984 -0.03501476 0.0112528615 -0.1612999 -0.06509411 0.00071229006 -0.016624307 -0.1806544 0.0925657 -0.17114465 -0.17116803 0.047006402 0.07697657 -0.0948979 -0.03035915 -0.22085552 0.009853866 0.012313197 -0.09263517 0.064557135 0.1242918 0.22652969 0.019701002 0.2833033 0.08097063 -0.116586715 -0.020275766 -0.08142204 -0.06381966 -0.16703941 0.00048463902 0.109465756 -0.023507977 0.019100675 -0.21646807 -0.022254506 0.007094266 0.07169551 -0.32039484 -0.18332373 0.012872762 0.010271941 -0.0825573 -0.047112208 0.18411052 0.047188632 -0.043464433 -0.06640474 0.0034876522 -0.106538765 0.16569404 0.2339994 0.14037596 -0.08454697 0.0641726 -0.013194177 0.04338417 -0.040695053 -0.10512157 -0.14714932 -0.0044024047 0.17877017 0.03564757 0.12224106 -0.10365873 -0.10551921 -0.13650027 -0.06720031 -0.03426475 -0.16926508 0.024240367 -0.04200449 -0.031202326 -0.09615094 0.04000924 0.11562982 0.07417122 -0.012608555 -0.10847297 -0.11428963 0.08629734 0.1456235 -0.13360497 -0.04408342 -0.06402214 0.11315136 -0.00835921 -0.083516315 -0.15499175 -0.3020499 0.03576408 -0.118432105 0.028913988 0.0023218868 0.14358917 0.06395975 -0.12849523 -0.03602081 0.13028958 -0.0068484503 -0.05414017 -0.1397729 -0.17215668 -0.12689726 -0.0697156 0.054819558 0.39995575 0.10482194 -0.12002815 0.02210754 0.008490736 0.022230282 -0.062201556 -0.07147226 -0.1803167 -0.074425936 0.3930231 0.07569344 0.07286753 -0.024117773 0.050941747 -0.14976129 0.09715471 0.06526336 -0.00792506 0.13020164 -0.19891278 0.08096273 0.0334968 0.013533096 0.008504648 -0.06782401 -0.05469052 -0.07949216 -0.12858778 -0.10588075 -0.13210686 0.032993603 -0.03825797 0.15525402 0.06882231 -0.1378388 -0.09220446 -0.16395646 -0.23526907 -0.022027945 -0.13851944 -0.042078167 0.07578351 0.14991887 0.2602982 0.071006194 0.09431629 -0.018353006 0.12187454 0.09019555 -0.103400625 -0.08815254 0.007276121 0.05338538 0.0063784607 0.050492443 0.1256897 -0.019103466 -0.21868593 0.15684508 0.06451241 -0.066455714 0.052714396 0.08942684 0.13474035 -0.00807823 -0.017390186 0.06725176 -0.08275717 -0.026545353 -0.10199852 0.023084592 -0.09557331 0.09866668 -0.107509404 0.05297497 0.19106214 -0.13037388 0.21617815 0.014575481 -0.20275822 -0.14428689 -0.028538471 0.08702281 0.10722016 -0.05288211 -0.056222558 0.037547927
做 0.10431551 -0.09701197 0.32510644 0.13221572 0.15411924 -0.055121165 0.13089915 -0.085944325 -0.1908507 -0.1354831 -0.05938739 0.013653256 0.17411289 -0.1578201 0.12204877 0.090886936 -0.09810372 0.25041708 -0.07423368 0.21520974 0.12650162 -0.019077502 0.040417287 -0.20468865 -0.14009926 -0.15797858 0.00500339 -0.020867048 -0.036329724 0.19538864 0.13532734 -0.2434789 0.021439444 0.09628781 -0.115772985 0.13987486 -0.03365906 -0.03411874 0.047179144 0.10547803 -0.09579997 0.049529016 0.18927316 -0.08411511 0.061513048 -0.17383379 0.059073765 -0.058465622 -0.044841263 0.2054379 -0.042497728 -0.18682508 -0.09170743 -0.055168442 -0.34218046 -0.058571994 0.10141437 -0.33475494 0.076625064 0.28754836 -0.13181646 0.09563722 -0.1957645 -0.034012496 -0.06311672 -0.122586384 0.0244065 -0.061958473 0.03385872 -0.19450876 0.103207506 -0.23596326 -0.10704595 0.089359015 0.054981645 -0.0940602 -0.047727022 -0.27285114 0.14589867 -0.008913872 -0.115744606 0.1561205 0.062054936 0.19223681 0.018731555 0.27838373 0.07526889 -0.057838924 -0.050198838 -0.18615001 -0.036629077 -0.17542697 0.094672434 0.13716517 -0.027182095 0.008141725 -0.20131865 -0.037343726 -0.025365891 0.06882736 -0.40979496 -0.17108317 0.12575153 -0.017552637 -0.08085226 -0.06712485 0.2101189 0.06899872 -0.0866025 -0.047585472 -0.01887706 -0.10277234 0.19306532 0.22376281 0.14217547 -0.074521326 0.041339368 0.0376967 -0.031689215 -0.047755 -0.09840897 -0.11190316 0.014136042 0.19999622 0.0034888785 0.10097908 -0.13649362 -0.11492112 -0.14034432 -0.102904014 0.020932132 -0.21424736 -0.02318253 -0.05529888 -0.07721923 -0.1285187 0.10860232 0.018401563 -0.020487992 0.008916371 -0.08339699 -0.15494783 0.0529306 0.19806758 -0.086660035 -0.07005098 -0.016768955 0.08071913 0.024952346 -0.04536995 -0.14106743 -0.36249354 0.12109351 -0.08287069 0.07761623 -0.022614835 0.12701571 0.06783937 -0.13783388 -0.09208519 0.1520214 -0.02712161 0.01724594 -0.22475438 -0.18165994 -0.17261648 -0.05015544 0.12252905 0.3403127 0.13634841 -0.095507875 -0.044694263 0.032834828 0.055921476 -0.025019351 -0.049108207 -0.20569286 -0.06834215 0.40668812 0.011310893 0.07586281 0.08679454 0.10786778 -0.20220473 0.110821396 0.0858423 -0.012793804 0.08024561 -0.18864198 0.0039910516 0.09476972 -0.046613507 0.019961804 -0.08076322 -0.048370875 -0.123453826 -0.09181062 -0.07905507 -0.12847239 0.03454365 0.012711871 0.19459064 -0.03667657 -0.08729385 -0.1455201 -0.1458666 -0.297593 -0.027681734 -0.13606128 -0.081697255 0.098639704 0.15562743 0.26283595 0.10243189 0.09011087 0.008370687 0.076480344 0.14860392 -0.06774613 -0.14067808 -0.007288518 0.058450744 -0.07648509 0.006026287 0.12973797 0.0011161875 -0.20950195 0.07843994 0.072694175 -0.05513933 -0.04348537 0.15446824 0.2149056 -0.058399115 0.004693208 0.08848259 -0.044954363 -0.08623799 -0.13702886 -0.02095409 -0.08789168 0.14767395 -0.17597346 -0.011875236 0.17564975 -0.14477445 0.22633773 0.01794884 -0.24854432 -0.18416218 -0.0057788608 0.091595456 0.12773302 0.0067671007 -0.057810623 0.077600114
这是 0.13398303 -0.09042461 0.28886178 0.11680463 0.16929668 -0.027289283 0.1272218 -0.035714746 -0.13567768 -0.115465485 -0.07103072 -0.032085 0.17625606 -0.19026846 0.11792954 0.096723825 0.00012602369 0.18091711 -0.15163025 0.26751363 0.0827694 0.003946883 0.010080307 -0.18149424 -0.21493924 -0.08383189 0.013309509 -0.001709219 -0.071340345 0.20081848 0.087781146 -0.14165175 0.014468703 0.12877405 -0.08149513 0.16691783 -0.05117141 -0.029496519 0.08771659 0.066662714 -0.16796933 0.032078907 0.113990806 -0.048663903 0.1456607 -0.1795622 0.01348363 -0.0363694 -0.012287601 0.15950249 -0.06689559 -0.14651497 -0.06573884 0.021506842 -0.32928526 -0.041769978 0.0933413 -0.27226707 0.0086590815 0.18125871 -0.1467178 0.057911377 -0.15839897 -0.03757862 -0.01004856 -0.12970375 -0.0495793 0.02947448 -0.014267393 -0.17749448 0.12030702 -0.19732746 -0.16334008 0.024842512 0.083743826 -0.076633275 -0.037817016 -0.22870651 0.032680854 0.016063515 -0.08450954 0.106958 0.12913263 0.20728543 0.0004155245 0.30032817 0.07548221 -0.1169682 -0.04681527 -0.11049755 -0.07010593 -0.17942765 0.041558474 0.09229288 -0.010790411 0.027961893 -0.24402791 -0.047309656 -0.012655858 0.047080897 -0.36147374 -0.20291696 0.038509708 0.016693903 -0.062392436 -0.04367312 0.18434727 0.08856212 -0.055471238 -0.069636874 -0.055256836 -0.1341224 0.16512245 0.24410655 0.0965302 -0.0665085 0.040767048 0.032623146 -0.008085555 -0.014292234 -0.061876487 -0.1350006 0.032754935 0.16083887 0.053494796 0.14376242 -0.073846355 -0.06881561 -0.15909196 -0.074581355 -0.011837954 -0.18575859 0.025574943 -0.056057025 -0.021043492 -0.089255504 0.050814617 0.08694575 0.04875618 -0.0014462733 -0.09276043 -0.123670965 0.113874294 0.17518874 -0.12064247 -0.025498401 -0.041077934 0.1132005 0.04479061 -0.025713565 -0.16467239 -0.31289563 0.038825557 -0.1225467 -0.003843885 0.017441735 0.17349422 0.046949964 -0.14906895 -0.004192682 0.13216954 0.0060619186 -0.02807823 -0.13172305 -0.15093891 -0.12723063 -0.072416514 0.08662456 0.38305393 0.117238685 -0.113957755 -0.014519205 0.011203774 0.04529076 -0.08738277 -0.092177354 -0.15910593 -0.07021855 0.4080359 0.06463423 0.10353426 0.0124422675 0.056610823 -0.118847154 0.12685278 0.07450237 -0.01741667 0.08349278 -0.19117211 0.07689338 0.06106437 -0.0048744017 0.014567736 -0.01978663 -0.026750628 -0.08121705 -0.095327735 -0.102402486 -0.14275898 0.032996755 -0.053302668 0.16719824 0.04700477 -0.08678814 -0.12188802 -0.14509769 -0.24295288 -0.03202504 -0.10159541 -0.04326508 0.04988318 0.157784 0.250255 0.09350079 0.06405733 -0.015597022 0.108172126 0.10774076 -0.101871185 -0.12166322 0.012563987 0.070200846 -0.034261905 0.059941392 0.07664571 0.0009589046 -0.16858824 0.13773362 0.039190717 -0.058364622 0.007425007 0.07530063 0.15427703 0.020755893 0.018066876 0.04220669 -0.084782965 -0.05353209 -0.088802904 0.020572124 -0.11387252 0.115541056 -0.13195735 0.045169465 0.18464597 -0.13098091 0.22606052 0.030240698 -0.21723211 -0.14564258 -0.049181134 0.08773918 0.08051262 -0.07156561 -0.07137312 0.039351545
信息 0.16255699 -0.13177107 0.30018076 0.13432606 0.20471168 -0.010299075 0.067004606 -0.063358955 -0.08223789 -0.113106266 -0.08511767 0.012060905 0.19493961 -0.21524072 0.10847299 0.09993383 0.095665514 0.15011343 -0.1932253 0.35204557 0.04489503 0.06704807 0.048831623 -0.17546597 -0.2929277 0.022046128 0.091109715 0.026065657 -0.14635731 0.24126829 0.035419874 -0.14240474 0.013273736 0.13995224 -0.013439347 0.22406979 -0.08562812 -0.032878023 0.06385156 -0.0014993746 -0.21591139 -0.05380071 0.07112208 -0.05143247 0.21243232 -0.11862271 0.007848831 -0.008720349 -0.04088677 0.1413504 -0.11312694 -0.09020173 -0.008090012 0.029458662 -0.34254116 -0.08474699 0.17001626 -0.19067992 -3.036633e-05 0.10784715 -0.15435256 -0.033871442 -0.11669567 -0.038514156 -0.008011249 -0.093193896 -0.113246165 0.080597095 -0.071655415 -0.14639471 0.13260177 -0.23973063 -0.26388463 -0.041612178 0.11218093 -0.10664759 -0.002788936 -0.17364325 -0.03020046 0.06663644 -0.063911244 0.11385608 0.1708411 0.19208513 0.027814781 0.36459348 0.11952654 -0.14410949 -0.015472026 -0.05362528 -0.128482 -0.21423481 0.08042704 0.040409096 0.02381527 0.05644332 -0.27700147 -0.12730965 -0.047161616 -0.014098731 -0.37513676 -0.2191686 -0.023032054 0.045668624 -0.06984922 -0.06519539 0.19970779 0.108174995 -0.05424096 -0.11864015 -0.12142588 -0.13883741 0.13588928 0.26031408 0.065186955 -0.07905842 0.030330744 0.0660426 -0.05207244 -0.017644728 -0.02741506 -0.16745742 0.06701481 0.17460793 0.03649689 0.22245419 -0.06678283 -0.004487713 -0.18194573 -0.08791553 -0.019960845 -0.16380669 0.07848621 -0.058909 -0.0033050664 -0.08798237 0.013142848 0.07515701 0.055174753 -0.06348136 -0.08215506 -0.16185494 0.1720686 0.24616203 -0.14955603 -0.036909882 -0.07094626 0.14116263 0.0822683 0.051398076 -0.19597591 -0.30942824 0.08932098 -0.14121236 -0.105941944 0.038545467 0.19159897 0.05658086 -0.19913362 0.08148082 0.11207999 0.063681364 -0.05198089 -0.05663914 -0.08242197 -0.11390756 -0.060598157 0.080519214 0.36493933 0.17662226 -0.100928016 -0.034498226 -0.004296859 0.07660973 -0.078288056 -0.18630563 -0.12740156 -0.06551391 0.4494318 0.05720048 0.12792912 -0.03500787 0.049326606 -0.08413156 0.14021908 0.04062112 -0.06308497 0.05649642 -0.15349132 0.09121287 0.06140363 -0.021397972 -0.033033386 0.04965538 0.080552034 -0.058800265 -0.048541564 -0.1859097 -0.17325233 0.0267437 -0.109772936 0.16075166 0.05747988 -0.052094277 -0.1252777 -0.17355417 -0.2796503 -0.06632802 -0.045365088 -0.025027385 -0.007838511 0.22618584 0.26129898 0.03864764 0.03771426 0.009803857 0.14030592 0.092722766 -0.16760199 -0.13098466 -0.07149503 0.065265656 0.02034866 0.07154532 0.025698865 0.084575504 -0.13124694 0.1437979 0.01596635 -0.047565956 -0.008078237 0.04906525 0.10752836 0.046324983 0.056106914 0.100400776 -0.14338923 -0.035413723 -0.051596902 0.07488995 -0.11281473 0.06193149 -0.16671716 0.08477101 0.2376094 -0.12092505 0.18791303 0.043573536 -0.27836537 -0.13733757 -0.11330893 0.08766499 0.07319999 -0.097544745 -0.07580865 0.045703385
叶文洁 0.107746944 -0.09746738 0.30116504 0.12972961 0.1407778 -0.086100064 0.16090475 -0.060666844 -0.16991402 -0.1548904 -0.06914881 -0.0064382018 0.167681 -0.1299966 0.12492082 0.102476254 -0.1267303 0.24276301 -0.09003304 0.19171022 0.18003981 -0.034162305 0.02030841 -0.16453978 -0.16245653 -0.18622215 -0.023869209 -0.018519603 0.005521234 0.2163501 0.086412065 -0.2313895 0.0013760888 0.0777374 -0.13561493 0.13096423 -0.057376593 -0.031034146 0.069574855 0.12710667 -0.06744122 0.07828307 0.17926706 -0.0694284 0.029118499 -0.16791512 0.04176779 -0.0697445 -0.012116914 0.19514734 -0.035055757 -0.23748752 -0.10672229 -0.064838514 -0.3328671 -0.06783436 0.051754244 -0.33472708 0.06818498 0.28180364 -0.12815505 0.08444989 -0.18872546 -0.049455576 -0.051260162 -0.14437254 0.0049177357 -0.08018386 0.045081582 -0.21496616 0.06702568 -0.19161144 -0.10436983 0.10349334 0.05047891 -0.11276563 -0.05192456 -0.26614395 0.11748886 -0.016387857 -0.110650055 0.13458431 0.05848765 0.2063985 0.029957289 0.24350211 0.06797615 -0.035258107 -0.036831878 -0.16004872 -0.03012041 -0.16228269 0.039945662 0.15712902 -0.040196076 -0.024796525 -0.17439878 -0.0072523165 0.008035808 0.10417169 -0.35657763 -0.1289974 0.11093561 -0.018615546 -0.11590125 -0.07054106 0.1775652 0.050343946 -0.07223405 -0.04366409 0.020931259 -0.10202121 0.18209156 0.21117821 0.17108428 -0.06993641 0.03241875 -0.022348132 0.019842219 -0.056653153 -0.14106934 -0.123150446 -0.031184567 0.211898 0.016178489 0.101493664 -0.14674893 -0.120873116 -0.11154604 -0.08110766 0.00988271 -0.18497744 -0.01384635 -0.025594423 -0.06975716 -0.14871395 0.09662461 0.03769011 -0.018166432 -0.018771414 -0.108853124 -0.12669696 0.027933117 0.14043964 -0.08009928 -0.07375282 -0.038779594 0.08177466 -0.002996081 -0.07791393 -0.09957154 -0.34771743 0.112853415 -0.08202381 0.111934766 -0.03948985 0.10906868 0.049329095 -0.13881923 -0.11637601 0.15442465 -0.023855014 -0.005689921 -0.20791696 -0.2194118 -0.16436186 -0.055627525 0.10362593 0.34152007 0.13214843 -0.09596624 -0.015839601 0.0042727985 0.051572364 0.01692786 -0.035358008 -0.22749045 -0.0648512 0.38537216 0.025110228 0.046902206 0.044118874 0.07152187 -0.22631173 0.0674006 0.060681272 0.0097448975 0.09905359 -0.18208282 0.013239561 0.07335169 -0.028096396 0.014118568 -0.09051459 -0.05347631 -0.11662801 -0.113563694 -0.08269619 -0.13361345 0.05343543 0.03169235 0.18594147 -0.01938278 -0.119759604 -0.13481279 -0.1643128 -0.27632195 -0.013324819 -0.16046874 -0.065010235 0.11139186 0.14010613 0.27167434 0.07100155 0.12258224 0.002706012 0.09909295 0.10735398 -0.0818474 -0.12197824 -0.0019524263 0.05349724 -0.05182502 0.009455008 0.13301294 -0.014358597 -0.2375305 0.085858434 0.09355676 -0.09596761 -0.011737715 0.17131376 0.19148427 -0.07282026 -0.02524924 0.076330855 -0.05277326 -0.063467555 -0.15641962 -0.040499687 -0.08165989 0.14879026 -0.17279308 -0.004735236 0.20000796 -0.16161725 0.21090701 -0.00014696684 -0.22629844 -0.17201044 0.018285874 0.09803448 0.14315064 0.024540361 -0.042891137 0.06744983
智子 0.12400503 -0.105418846 0.28067327 0.12323607 0.19368775 -0.017632827 0.10353842 -0.044399783 -0.11747071 -0.10643015 -0.05292115 -0.0020280643 0.17966302 -0.18627097 0.102944426 0.08525035 0.06109914 0.17076209 -0.18094535 0.32085884 0.034721643 0.03589006 0.025568524 -0.19283016 -0.2326131 -0.026979588 0.04562568 0.020199858 -0.13175516 0.21137276 0.086966924 -0.11793865 0.018249959 0.14640258 -0.0585376 0.18389791 -0.037526388 -0.010923821 0.08353179 0.028179632 -0.2135054 -0.002008639 0.10874581 -0.04247703 0.19029665 -0.16566674 0.022006009 -0.029481076 -0.046496537 0.15853514 -0.07525728 -0.11216026 -0.04353604 0.035472576 -0.3303646 -0.05402295 0.14742784 -0.24038559 0.008151952 0.14193614 -0.14106567 0.03045254 -0.16156472 -0.033817414 -0.009162301 -0.08806097 -0.094918706 0.0697978 -0.03796991 -0.15663695 0.15764917 -0.2300366 -0.18536392 -0.019168474 0.110728666 -0.08232164 -0.030544186 -0.20252033 0.0090628145 0.045566402 -0.061786436 0.11728951 0.14536436 0.17936285 -0.0013219629 0.32885125 0.08262022 -0.14584517 -0.05475811 -0.09874969 -0.10267416 -0.18431294 0.07360967 0.051917605 0.009131564 0.032461748 -0.26454487 -0.106976986 -0.015600532 -0.0012237186 -0.37596384 -0.21189514 0.009211626 0.035557512 -0.06478839 -0.04743208 0.17995313 0.109552875 -0.05494577 -0.09025696 -0.10142887 -0.14333995 0.14719278 0.2706971 0.058055375 -0.08394154 0.02883255 0.06293285 -0.029687352 -0.008095235 -0.030239373 -0.13668211 0.0627813 0.14676829 0.0625153 0.16673438 -0.048939392 -0.039637696 -0.17736219 -0.07604801 -0.00061490637 -0.18684648 0.030619461 -0.067364596 -0.009730969 -0.0682925 0.03961386 0.08941553 0.048089944 -0.022777278 -0.09290119 -0.1382068 0.15249771 0.21914773 -0.12882608 -0.013550252 -0.028283054 0.12510368 0.084584296 0.023404028 -0.19241688 -0.2926838 0.030243676 -0.12770356 -0.06388612 0.029663233 0.20331323 0.028694648 -0.15891124 0.038669076 0.12642904 0.03487799 -0.04202681 -0.115144804 -0.090119466 -0.10207496 -0.072735764 0.10338044 0.3530698 0.1344249 -0.10871582 -0.03727394 0.007264504 0.0570409 -0.0980581 -0.14262645 -0.12829633 -0.086556464 0.43109888 0.05685876 0.14423841 0.02166867 0.068244845 -0.06984891 0.15104981 0.063852824 -0.047250915 0.059020627 -0.17640191 0.07261985 0.069294736 -0.0035454198 -0.0001703004 0.027070856 0.021279272 -0.086450726 -0.07525117 -0.14136122 -0.15124872 0.030787589 -0.0952625 0.17010948 0.031414542 -0.053113993 -0.13303123 -0.1327124 -0.2442158 -0.05248519 -0.056500793 -0.05783793 0.0274537 0.18639287 0.23776732 0.08084684 0.03197312 -0.00767786 0.12202536 0.1073838 -0.123924956 -0.12315373 -0.02806729 0.082495876 -0.014187729 0.058366686 0.048121754 0.035613805 -0.1393771 0.16134669 0.015149627 -0.0290358 -0.021896163 0.057543218 0.13553034 0.04861388 0.06638615 0.04939609 -0.10938636 -0.066211395 -0.040421054 0.02399433 -0.12426652 0.08506317 -0.13301262 0.05127687 0.18588741 -0.12441462 0.20774649 0.040683553 -0.25037393 -0.1577534 -0.07532634 0.076396674 0.05130264 -0.09042477 -0.07612031 0.04193379
计划 -0.0010197478 -0.12952784 0.28041247 0.070679985 0.27564847 0.0015998546 0.09177683 -0.12365944 -0.15707093 -0.09019456 0.08479464 -0.048419878 0.3087757 -0.18556274 0.03693413 0.23755778 0.0718126 0.22948846 -0.17396711 0.404697 -0.19205114 -0.060449086 0.028820626 -0.31637108 -0.05988414 -0.12517755 0.09897019 0.0559841 -0.14689523 0.08179942 0.26607037 -0.14887194 0.17548744 0.19983949 -0.12293453 0.29704124 -0.004592663 -0.07605295 -0.080883265 0.08545309 -0.24136956 -0.078911625 0.1843712 -0.052119926 -0.0024186745 -0.22869183 0.05074978 0.05230737 -0.2956963 0.10722567 -0.09127966 0.018453993 -0.0026265567 0.04660101 -0.23131198 0.07758092 0.25664714 -0.1939275 0.10367761 0.25353992 -0.1583689 0.27748975 -0.25799835 0.014531721 -0.1291929 0.047715936 0.09141722 0.042393416 0.09703717 -0.26950854 0.22905943 -0.34680945 0.020087283 -0.08878189 0.16480893 -0.023394402 -0.0031715329 -0.28439963 0.19159907 0.00337988 -0.115906425 0.26786253 0.08479098 0.032606285 -0.12100715 0.32798898 -0.021442637 0.026665196 -0.089251794 -0.25338042 -0.053120878 -0.12836254 0.25708452 0.06481439 0.08482023 0.024990113 -0.34840277 0.0033765738 -0.10662987 -0.04762469 -0.5760517 -0.14003101 0.33564025 0.0018640509 -0.016844079 -0.016276507 0.21994331 0.2271032 -0.19021444 0.040066406 -0.29228213 -0.24100497 0.209666 0.19904295 -0.051941752 0.017555386 -0.039444488 0.21915697 -0.21802951 0.08463633 0.13340963 -0.08197796 0.11623112 0.1814913 0.12433514 0.16474737 0.0100760115 0.009381408 -0.18346737 -0.07909348 0.10711958 -0.18242857 -0.0382004 -0.09536588 -0.05085044 -0.14226677 0.09029957 -0.10491896 -0.14200872 0.11606393 0.043734062 -0.18419726 0.15988715 0.23971277 0.02646373 0.04726145 0.10484817 -0.01130134 0.24115543 0.2602912 -0.08276086 -0.46361333 0.009302772 -0.06271802 -0.048783313 0.014884389 0.14200804 -0.078573294 -0.15121678 0.015614515 0.13924679 0.10984556 0.07690059 -0.2021854 -0.095616505 -0.11384941 -0.1629091 0.28825665 0.21597452 0.19784987 -0.02778265 -0.1626761 0.13498068 0.06328142 -0.2163096 -0.0055157808 -0.10347466 -0.08031775 0.47499013 -0.08637475 0.13446696 0.088898405 0.11298293 0.11623107 0.29233056 0.21473947 0.03581061 -0.16072579 -0.08552821 0.01994097 0.1920826 -0.0634095 0.05720362 0.19720629 0.020821048 -0.13268824 0.09998117 -0.08563422 -0.20045823 0.016360665 -0.09921787 0.2148922 -0.06261877 0.07046307 -0.16668847 -0.07550537 -0.30087146 -0.1477454 -0.037059665 -0.10042786 -0.010018951 0.18720248 0.19673368 0.23822658 0.075610496 0.015501629 -0.048413586 0.17906219 -0.02587109 -0.36071798 0.14275338 0.10639082 -0.3005524 0.090281546 -0.036138553 -0.046808276 0.026535163 0.0009926991 -0.09056151 0.026359502 -0.16601245 0.10426316 0.2532986 0.1487572 0.049101744 -0.13010854 -0.003816677 -0.18829949 -0.0374122 0.11641871 -0.27943397 0.222206 -0.23874925 -0.07175568 0.15282749 -0.104792126 0.2957053 0.04911383 -0.18373089 -0.11143906 -0.0896767 0.16616893 0.012221585 0.027978476 -0.13658033 0.029174445
一种 0.12596317 -0.109883465 0.31406388 0.13200301 0.14364341 -0.050016057 0.12957348 -0.06158503 -0.16837695 -0.13217509 -0.081820436 0.005518246 0.14722659 -0.14310735 0.1405851 0.0826137 -0.08649072 0.22976242 -0.100218974 0.21122776 0.12731943 -0.0030578454 0.020276744 -0.19838658 -0.17833006 -0.13194089 0.010453563 -0.012133417 -0.023284692 0.20896879 0.097511284 -0.20833407 -0.01019979 0.12299206 -0.11408869 0.12639578 -0.020427158 -0.02455743 0.08675321 0.11349828 -0.08515293 0.057841808 0.15238617 -0.056608118 0.084053844 -0.16542232 0.059007645 -0.046731755 -0.0063436767 0.19292119 -0.05019197 -0.20936243 -0.09025971 -0.04612932 -0.3207292 -0.069163844 0.08887051 -0.3207718 0.052382473 0.23409615 -0.14029707 0.07496826 -0.17099856 -0.04300786 -0.050785445 -0.1289149 0.015208567 -0.03445291 0.02088353 -0.17951854 0.09295138 -0.19688435 -0.11839857 0.067618065 0.06244329 -0.08441939 -0.05595175 -0.23257339 0.09543116 0.00890364 -0.099133335 0.11220656 0.06121758 0.2087582 0.013534527 0.2714785 0.056590263 -0.08181982 -0.04862762 -0.14930055 -0.04433677 -0.16491233 0.044907723 0.113531426 -0.036407266 -0.0076831216 -0.21008953 -0.026467057 0.004666379 0.094913915 -0.37584236 -0.17222902 0.06657776 -0.014389282 -0.08831439 -0.05740187 0.18651234 0.06015365 -0.07303418 -0.045488354 -0.038607955 -0.11660989 0.15897195 0.24148071 0.13536154 -0.06684854 0.047901794 0.023991628 0.016773008 -0.04349281 -0.11269176 -0.12993497 0.0086165415 0.20034276 0.008256014 0.109169066 -0.10884026 -0.09573148 -0.12402165 -0.0927949 0.015200357 -0.21321017 -0.00921543 -0.055459384 -0.054176673 -0.12072406 0.09817538 0.024504295 0.008615448 -0.011251883 -0.103684284 -0.16202769 0.049830534 0.17292838 -0.09980766 -0.061096523 -0.014625071 0.09534991 -0.008436246 -0.047420137 -0.11817933 -0.34198177 0.09911837 -0.08096021 0.08235664 -0.017093696 0.15565887 0.027316479 -0.1391471 -0.064492285 0.12914401 -0.012077972 -0.012424465 -0.1812266 -0.18059431 -0.13964415 -0.056996223 0.090203196 0.3510699 0.121679 -0.113331124 -0.033605896 0.0018422664 0.06544475 -0.022403833 -0.09262232 -0.18910041 -0.060982898 0.37669817 0.0467471 0.0780971 0.042848468 0.07637229 -0.20027329 0.09834695 0.04977598 -0.024053216 0.08422587 -0.18048555 0.009421044 0.05486135 -0.025459457 0.016676536 -0.069961786 -0.0433908 -0.100050084 -0.10859315 -0.087718286 -0.11424187 0.032426246 0.011255938 0.15887599 -0.025567394 -0.07519975 -0.1473731 -0.1455052 -0.27504334 -0.021596622 -0.12215348 -0.040737435 0.09542294 0.123956256 0.25470963 0.076454274 0.072149225 -0.00051020423 0.08647103 0.1352715 -0.098910324 -0.13922688 -0.008842613 0.0403706 -0.020275168 0.02775789 0.11676529 0.010899545 -0.17769176 0.08244789 0.07094477 -0.07230198 -0.012078935 0.14644898 0.20282313 -0.07186264 0.023961097 0.06722642 -0.054247275 -0.066182196 -0.13302869 -0.009251939 -0.07381881 0.12777393 -0.1551178 0.013190682 0.16229202 -0.15370697 0.20042144 0.011171103 -0.2555303 -0.1532052 -0.006019016 0.09961232 0.12791178 -0.030642144 -0.06588925 0.070661664
太阳系 0.16511035 -0.10689445 0.18245944 0.047191463 0.25651723 0.08809534 0.04062503 0.024475813 -0.034029193 -0.08043151 -0.05186376 -0.084513575 0.24500991 -0.31826377 0.05416836 0.1028087 0.39817378 0.024259318 -0.3671467 0.53908396 -0.14907289 0.08298467 -0.011858392 -0.14469637 -0.36622608 0.18226981 0.09005617 0.056143392 -0.30626577 0.2073808 0.0689176 0.099989116 0.07284357 0.19702502 0.044298485 0.30087942 -0.117212646 -0.0139633 0.11155313 -0.09018999 -0.46636346 -0.10905182 -0.022361277 -0.0006552675 0.41214266 -0.20736684 -0.10523569 -0.0023619693 -0.08718643 0.08905893 -0.1251335 0.10902521 0.089314416 0.2295819 -0.3678008 -0.014132556 0.23408373 -0.094858006 -0.12438309 -0.07729995 -0.19157825 -0.046322946 -0.124487825 -0.011650401 0.09787061 -0.058049057 -0.3077194 0.34172505 -0.14682627 -0.16630456 0.30049 -0.27516246 -0.3570196 -0.18738866 0.19379169 -0.048856016 0.016172577 -0.14182702 -0.23824331 0.061147343 0.0054829335 0.060380146 0.35083768 0.19341315 -0.06560639 0.48624957 0.10110717 -0.29182395 -0.038840733 0.027709486 -0.1870644 -0.2504104 0.072823495 -0.05691108 0.10569524 0.12560788 -0.38323247 -0.22531563 -0.0485134 -0.19920978 -0.3743175 -0.34398994 -0.1476065 0.15741213 0.026117608 -0.019308351 0.1527684 0.19417053 -0.022421006 -0.1519891 -0.24029222 -0.22493148 0.12490828 0.33076477 -0.094370574 -0.09373802 0.04068342 0.1156324 -0.056689736 0.068702444 0.14298867 -0.19424702 0.15283166 0.03676276 0.20010816 0.29733196 0.066471644 0.09635667 -0.28614104 -0.030429455 -0.0687341 -0.12900226 0.12854612 -0.102362946 0.11709416 0.025443053 -0.09257728 0.24697903 0.1796953 -0.037758667 -0.057870865 -0.07015959 0.35618436 0.27074426 -0.18628766 0.07837324 -0.056884468 0.20168945 0.22976732 0.13158715 -0.3455264 -0.18960984 -0.13950476 -0.2554116 -0.3515387 0.1544111 0.30798313 0.029018024 -0.19478486 0.2298733 0.13406618 0.1427053 -0.11319326 0.07270477 0.05649543 -0.051165573 -0.1313412 0.08547996 0.46456057 0.14806142 -0.14165993 -0.026473543 0.046623975 0.04653034 -0.31107423 -0.24107163 -0.017227659 -0.10366654 0.5422346 0.12501131 0.27293366 -0.09311134 0.0068144402 0.19635126 0.2547534 0.15197343 -0.10242318 0.025095921 -0.22232205 0.25009048 0.080979526 0.07730363 -0.009068694 0.20995764 0.07869959 -0.011000866 -0.042374 -0.20209852 -0.2302668 0.010161855 -0.33082953 0.17871511 0.20907427 -0.013491446 -0.08180594 -0.13731693 -0.1556404 -0.068414696 0.04785753 -0.034924444 -0.12688267 0.2356306 0.22038026 0.10252815 -0.07035663 -0.045461472 0.16842595 0.04724175 -0.15677927 -0.13261111 0.021471273 0.13589427 -0.015173526 0.1706909 -0.09425001 0.07111101 -0.032795627 0.3522715 -0.050696228 0.017988548 0.034513216 -0.16693176 -0.020956583 0.27074865 0.11510064 -0.011162698 -0.21384163 -0.038290296 0.098815925 0.14972876 -0.20526949 0.01716541 -0.07574276 0.17888154 0.20158626 -0.056967653 0.24248847 0.11912901 -0.21241085 -0.114560775 -0.1877969 0.031533048 -0.06789955 -0.22414581 -0.0741172 -0.043858018
很快 0.15993334 -0.092068434 0.2534213 0.09976246 0.120371304 -0.03981057 0.14255343 0.029319378 -0.11001966 -0.12017849 -0.12572734 -0.069178976 0.16610096 -0.18397854 0.108736746 0.079934604 -0.025806142 0.14910796 -0.19157779 0.22601369 0.1599973 -0.0039460054 -0.00536808 -0.116588175 -0.24682055 -0.07180183 -0.014048946 0.0037318254 -0.011386539 0.21431455 0.05542091 -0.077245966 -0.011096332 0.10067931 -0.068976685 0.14134093 -0.07091156 -0.015737575 0.12504566 0.06442867 -0.15311952 0.08482792 0.079445854 -0.03923471 0.1777566 -0.15994433 -0.03304319 -0.044413846 0.10069556 0.136817 -0.061801203 -0.19535993 -0.09277086 0.06990392 -0.33790347 -0.06710353 0.008333032 -0.28123936 -0.021640996 0.15875849 -0.12990738 -0.00086715625 -0.094444655 -0.040773656 0.03223004 -0.16888922 -0.09632983 0.029623449 -0.043942958 -0.1580459 0.079127796 -0.12923178 -0.20510338 0.037628297 0.088936135 -0.07817855 -0.021159867 -0.20770048 -0.039728764 0.0060129436 -0.06853395 0.02632925 0.15860097 0.23358394 0.026897859 0.27542752 0.08826583 -0.15247285 -0.023403585 -0.04022978 -0.07391144 -0.16223474 -0.038355425 0.09379421 -0.02950936 0.031118557 -0.22530392 -0.028026724 0.010421776 0.07113074 -0.27955723 -0.18366672 -0.031135565 0.010030727 -0.071971856 -0.035455164 0.16216817 0.048154593 -0.005758787 -0.071167804 0.019543825 -0.105303295 0.15419869 0.24168746 0.12783085 -0.08399519 0.063731134 -0.028791564 0.057306956 -0.03568213 -0.10529889 -0.15815596 0.006282143 0.15222026 0.054836575 0.1165876 -0.07933018 -0.10409102 -0.13905337 -0.054386437 -0.06318112 -0.15326445 0.05466662 -0.019603947 -0.017120827 -0.057463452 0.014360122 0.16397546 0.10844361 -0.014151463 -0.11702989 -0.08853482 0.09552139 0.11831834 -0.16023192 -0.032997124 -0.0886223 0.13553323 -0.0075356616 -0.10560358 -0.16756214 -0.25489977 0.0036015087 -0.13816676 0.021500543 0.025632389 0.14018759 0.06645094 -0.109894775 -0.009007638 0.12369865 -0.018010791 -0.08622975 -0.10471056 -0.16699433 -0.114869155 -0.066652104 0.014590136 0.4206117 0.09357913 -0.13867608 0.045041054 -0.00683311 0.023170728 -0.075518414 -0.07132422 -0.17498858 -0.069699615 0.37266663 0.10496388 0.07497245 -0.06631158 0.033600252 -0.14777634 0.096568026 0.043427005 -0.0060315384 0.13345693 -0.21010341 0.105270125 0.0014984166 0.047162227 0.025220549 -0.07295668 -0.058806613 -0.04031967 -0.15348548 -0.113415316 -0.13445598 0.021982748 -0.05450162 0.1486568 0.09839929 -0.16095012 -0.071963936 -0.17171077 -0.19239463 0.004630055 -0.13809833 -0.012320936 0.07146067 0.14283788 0.24547432 0.06518849 0.09593056 -0.030810233 0.15924494 0.06359213 -0.095718764 -0.055479843 0.01769785 0.06342898 0.029657796 0.06863959 0.1161838 -0.02472983 -0.21820576 0.18807137 0.053581264 -0.04891065 0.07890185 0.055898722 0.09643126 0.016907144 -0.021745037 0.064971596 -0.09907062 -0.008504099 -0.08698762 0.032202993 -0.09778958 0.08035463 -0.07228872 0.07113598 0.18089123 -0.11426945 0.22821793 0.009786701 -0.17031848 -0.14151958 -0.033927884 0.08500786 0.087802164 -0.08663675 -0.06465963 0.029526321
真的 0.10346656 -0.09945721 0.31736368 0.13546947 0.15741676 -0.058418747 0.13926826 -0.08423233 -0.17178033 -0.12727483 -0.061619516 0.0054547726 0.1569031 -0.15345408 0.12543918 0.08990747 -0.09281064 0.23324066 -0.0843653 0.21417743 0.12544753 -0.012934434 0.024193633 -0.20018184 -0.162554 -0.14042923 0.004534997 -0.021797111 -0.026817273 0.19588195 0.10720276 -0.21874587 1.6649918e-05 0.105558775 -0.1163631 0.13200799 -0.026994383 -0.024915457 0.07605187 0.11257366 -0.095283665 0.056585222 0.17331488 -0.06563944 0.06720669 -0.16853587 0.052612662 -0.04550109 -0.025138665 0.18543372 -0.036100917 -0.20180573 -0.09378013 -0.051126327 -0.3153083 -0.05710638 0.09328084 -0.31584078 0.06249602 0.25886944 -0.13065699 0.094350986 -0.17642845 -0.034510665 -0.05159924 -0.12180131 0.018103521 -0.052339472 0.030709289 -0.1807492 0.093711056 -0.20840843 -0.10159928 0.07548815 0.045851447 -0.08920505 -0.049805965 -0.24593468 0.12177273 0.008309061 -0.10679126 0.14106055 0.056700464 0.19878608 0.012638135 0.25437492 0.06738067 -0.06610325 -0.042965394 -0.16185477 -0.028221574 -0.16592543 0.06269973 0.11954521 -0.029953105 0.0004653703 -0.19943142 -0.019459091 -0.0010428439 0.07912056 -0.37451372 -0.1618128 0.095056 -0.0073204436 -0.085120894 -0.054640055 0.19095382 0.05473902 -0.086266205 -0.04477915 -0.026581164 -0.10448907 0.16908458 0.22159152 0.15008439 -0.07704958 0.043431357 0.020183219 -0.0063716345 -0.043098226 -0.10527061 -0.11688028 0.017006893 0.19064577 0.0131574925 0.08993394 -0.11584215 -0.11507468 -0.12437428 -0.09139602 0.02502699 -0.21087088 -0.025462903 -0.056471888 -0.06616575 -0.1326447 0.10129586 0.019183509 -0.019913167 0.0009830096 -0.097172156 -0.14250574 0.047547102 0.17103536 -0.08262778 -0.060765743 -0.0173161 0.07773011 0.0054623014 -0.043807883 -0.11358714 -0.35653177 0.09266354 -0.0735442 0.08015569 -0.021876784 0.1330385 0.048650943 -0.14166357 -0.0800264 0.1319687 -0.027634285 0.002986087 -0.20983379 -0.18634303 -0.14512458 -0.061203707 0.10665642 0.3378262 0.119293615 -0.09573708 -0.031627715 0.020659529 0.051452365 -0.023596521 -0.055553816 -0.19139102 -0.0671004 0.39159295 0.018226542 0.071890526 0.064261235 0.09765877 -0.184804 0.10167665 0.0714435 -0.012616985 0.077393025 -0.18268235 0.012282618 0.07306467 -0.035855774 0.015334811 -0.06687209 -0.038749438 -0.113128975 -0.10282126 -0.079323195 -0.10650631 0.03357667 0.016625173 0.17373475 -0.026348457 -0.08025533 -0.14157513 -0.13658655 -0.28047898 -0.027131716 -0.13000418 -0.058601763 0.09679723 0.13703972 0.25184792 0.09221006 0.09630288 -0.0015741498 0.08043677 0.14428072 -0.09487908 -0.13753794 -0.0007350117 0.052101497 -0.051138796 0.014008197 0.11850033 0.0012812044 -0.20159312 0.07339941 0.070644274 -0.0620131 -0.02588264 0.15550706 0.20052226 -0.0492019 0.006716305 0.060921703 -0.0533928 -0.06447609 -0.12690529 -0.020159438 -0.09731892 0.14033902 -0.16334833 0.0058446424 0.16811308 -0.14441973 0.21446776 0.021225542 -0.23587286 -0.16758782 -0.014210417 0.09415401 0.12436422 -0.011117573 -0.07002424 0.07706571
世纪 0.09187211 -0.047017667 0.27210513 0.17848383 0.20409189 -0.055014547 0.13847965 -0.13334548 -0.12660694 -0.20291924 0.0152826095 0.031954262 0.18825905 -0.14328866 0.11426044 0.04323415 0.020306103 0.17904449 -0.11823851 0.22747327 0.1068359 0.028873568 0.028151711 -0.17517643 -0.24381024 -0.05964734 0.03681938 -0.01743379 -0.10967695 0.15126447 0.05241766 -0.12594266 0.019683877 0.108736716 -0.043849897 0.15712897 -0.017598955 0.0450093 0.059049778 0.07156165 -0.17793489 0.027874267 0.17381743 -0.040256623 0.11252558 -0.11806842 0.069777586 -0.13245873 -0.050637804 0.15168582 -0.034159523 -0.06486627 -0.07654435 -0.030733436 -0.35456768 0.0131978 0.1400974 -0.31528148 -0.011916938 0.20018865 -0.06569977 0.06664764 -0.19201176 -0.079260066 -0.016692484 -0.12821381 -0.09031938 0.03712751 -4.043688e-05 -0.1410215 0.10447262 -0.29191098 -0.17458132 0.04334646 0.100830674 -0.01735649 -0.06040731 -0.20567936 0.042020336 0.10916617 -0.049262952 0.1330687 0.19289204 0.15258536 0.04746704 0.25015086 0.11296574 -0.16169374 0.001968996 -0.14003485 -0.04876088 -0.2008921 0.08940623 0.074725434 0.012416999 0.053161595 -0.2400524 -0.08405325 -0.021555204 0.019976392 -0.40540555 -0.22182465 0.029065792 0.028004507 -0.032822452 -0.06221919 0.2354466 0.10606851 -0.09972643 -0.07325529 -0.03302363 -0.14688937 0.22047015 0.2310087 0.1100831 -0.12584025 0.079824604 0.047191583 -0.01175719 -0.052679528 0.0029380703 -0.041288033 0.053259768 0.07086391 0.08872921 0.10040405 -0.05617513 -0.07396366 -0.10147295 -0.08828423 0.011297984 -0.25377458 -0.019896803 -0.08024518 -0.005773814 -0.08229718 0.013110231 0.0808694 0.054803323 0.008985251 -0.17509444 -0.061270997 0.112590306 0.20358889 -0.16220315 -0.022448814 0.013566337 0.025985658 0.07716916 0.0132358065 -0.18189514 -0.26176977 0.035050202 -0.14667204 -0.024215024 0.046302214 0.20719221 0.06460423 -0.06614874 -0.022013163 0.13116628 -0.007626421 -0.005937618 -0.10572984 -0.115946084 -0.080704466 -0.04929539 0.1124327 0.35664624 0.115042396 -0.12416331 -0.05494462 0.02731889 -0.03322578 -0.1264947 -0.08295002 -0.10837081 -0.0984719 0.43822634 0.03375544 0.07263482 0.08919781 0.097606614 -0.021636073 0.083302625 0.0766895 -0.029726926 0.09105314 -0.25137374 0.09808035 0.057725776 -0.063920155 -0.014412511 -0.015592606 -0.004729991 -0.09320377 -0.097395025 -0.11985008 -0.10122588 0.043878067 -0.104455784 0.16294947 0.032729827 -0.045543984 -0.07383275 -0.07659495 -0.19664928 0.00052182324 -0.072528385 -0.10514128 0.07239897 0.18280467 0.22292979 0.060237486 0.034681138 -0.03144362 0.11242584 0.18048598 -0.17058879 -0.069047704 -0.053312693 0.14935464 0.05223333 0.046366606 0.10475762 0.00044202822 -0.17565678 0.09692901 0.033415683 -0.050168373 -0.07744584 0.099609785 0.10700018 0.007748187 0.049693435 0.025503246 -0.11117369 -0.0734123 -0.041963164 -0.03965293 -0.13507648 0.10173516 -0.14818686 0.008645447 0.1608707 -0.1554036 0.18737198 0.05415385 -0.2308271 -0.24852413 -0.13362354 0.008000534 0.07827066 -0.0848441 -0.07429998 0.013134452
