1319 256
中 0.1656238 -0.1750629 0.16105007 0.15840147 0.054336634 -0.048155665 0.1522814 0.025211833 -0.13125196 -0.072595425 -0.061835755 -0.061130323 0.035276864 -0.07072465 0.13872924 -0.05854798 0.062156335 0.14912036 -0.084167466 0.0933668 0.06379971 0.086552314 0.00011567307 -0.10028228 -0.092422046 -0.029265394 0.05692023 -0.029378297 -0.038195234 0.17833889 -0.052962933 0.030935125 -0.020330766 0.090486854 -0.13725765 -0.003543925 0.0247765 0.01921634 0.06894217 0.012973692 -0.18206438 0.027702382 -0.022255858 0.0061272816 0.082600996 -0.13710494 -0.012875462 0.013810485 0.08987034 0.12356797 -0.07045057 -0.16651215 -0.14158644 -0.034603186 -0.1613341 -0.03131302 -0.07107662 -0.1612801 -0.01992102 0.056990795 -0.04360659 0.004394878 -0.032131474 -0.12784381 -0.054959383 -0.1339022 -0.06299288 0.072304726 -0.037319217 -0.03487657 0.034165878 -0.02665976 -0.033229515 -0.04297219 0.01099518 0.015858226 -0.06278982 -0.19707966 -0.054358754 -0.025594516 -0.04494933 -0.039299957 0.037486218 0.14668204 -0.056481276 0.13401918 -0.0024481472 -0.19123013 -0.10141593 -0.03482429 -0.049184225 -0.1333574 -0.0032478345 -0.007134148 0.03185882 0.08622049 -0.13946687 -0.038480964 0.1136929 0.1140863 -0.2541262 -0.14548805 -0.033537578 -0.027357643 -0.004310035 -0.010935603 0.09912003 0.035668038 -0.021074492 -0.058113374 -0.06438575 -0.18863502 -0.009963835 0.23677294 0.14230993 0.012595535 0.08305538 0.010369828 0.08905822 0.052216608 -0.028178578 -0.053090006 -0.003835641 0.06993243 0.017811678 0.022987979 0.02983576 0.030650632 -0.09869499 -0.05625987 0.031353086 -0.13977729 -0.1098321 -0.10682615 0.082711786 -0.013615439 0.017102655 0.13980407 0.10872571 0.05444632 -0.002510145 -0.11058693 0.04879461 0.07539848 -0.033227302 0.024650091 -0.043185562 0.10412272 -0.08595343 -0.08530183 -0.029808784 -0.20756984 -0.027670216 -0.09033846 0.05580767 0.09694176 0.21590543 -0.051797044 -0.09497751 0.05971652 -0.033166133 0.02401921 -0.052324843 -0.052280355 -0.020812811 -0.0012914033 0.08903762 -0.06554692 0.27204487 0.045759775 -0.1714087 -0.027852744 -0.0049558063 0.06518051 -0.16493613 -0.18492326 -0.09518218 0.052880332 0.16998154 0.11344203 -0.031987175 0.027884383 -0.034944594 -0.018839985 0.06288756 -0.0033790218 0.020464536 0.051739708 -0.114254616 -0.038762696 -0.0497614 0.0102036325 0.054322887 -0.079685755 -0.07910597 -0.036571257 -0.08388023 -0.12366064 -0.15024208 0.03235437 -0.055366527 0.05321531 0.06169949 -0.0107895965 -0.046904698 -0.008362689 -0.087440684 -0.017393883 -0.12810646 0.086916655 0.03831696 0.07056416 0.182413 0.018518655 0.036050793 -0.06271868 0.13473521 0.11916721 -0.19656043 -0.021168226 -0.12371159 -0.031039968 0.05451121 0.005862469 0.13409176 0.021382367 -0.04676374 0.09102515 -0.011317691 -0.08717687 0.09093825 0.07109461 0.02454254 -0.006476841 0.05009214 0.043989774 -0.045548692 0.03429931 -0.08277539 -0.047173735 -0.10951699 0.0041861436 -0.054481443 0.04184334 0.027774854 -0.10015528 0.09231687 0.0111141335 -0.14943667 0.0018331299 -0.058771342 0.050782997 -0.024474235 -0.085948616 -0.07045051 -0.07478951
程心 0.054661453 0.007793815 0.116729684 0.055554904 0.09395122 -0.14968239 0.13599476 -0.108578146 -0.15882583 -0.019463591 -0.031317078 -0.013680864 0.10612023 -0.065130465 0.13620383 0.11695549 -0.04327969 0.10906972 -0.051727653 0.18819314 0.14055227 -0.1635361 -0.017085807 -0.008517402 -0.017346371 -0.10478114 -0.02187429 -0.079139665 0.057796586 0.12025659 0.0042835367 -0.043002494 0.019909563 -0.031253718 -0.12794757 0.059220567 -0.025640352 -0.03012494 0.020727098 0.118077 -0.18691602 0.046688482 0.18941134 -0.012367349 -0.059903204 -0.16389914 -0.05099512 -0.13776992 -0.0006683707 0.023634477 -0.060142115 -0.13529278 -0.15883884 -0.004474364 -0.27582228 0.0048154844 -0.15369906 -0.25739184 -0.03575739 0.21204554 0.13308065 0.061636772 -0.14066753 -0.010603407 -0.07322029 -0.08297034 -0.04749988 0.080279596 0.029686524 -0.26362383 0.008663096 -0.18334739 -0.18535979 0.10251579 0.050724395 -0.11679057 -0.10522733 -0.3090955 0.027908888 0.051687174 0.028097002 -0.0058061485 0.07721914 0.09759545 0.14822096 0.049521867 0.12992887 -0.2654053 0.031189747 -0.072069034 0.025086524 -0.13294059 0.11181773 0.093849264 -0.037107166 0.08763893 -0.013843564 -0.05319314 -0.06102138 0.05513672 -0.2557433 -0.049239494 0.032630146 -0.06049853 -0.029015295 0.08322402 0.14753664 -0.03790188 0.09045646 -0.18113129 -0.08516198 -0.10453682 0.11918785 -0.0012016032 0.1716772 -0.17285463 0.03184657 -0.04842252 0.050269008 -0.033063278 -0.06311426 -0.015985074 -0.15112852 0.028321952 0.042682525 -0.08820623 -0.08409843 -0.15026973 -0.03865508 -0.025981072 -0.090473145 -0.1454381 -0.087275974 -0.031439535 -0.13816199 -0.08321951 -0.038985573 0.14235117 0.118744075 -0.042815033 -0.12870975 -0.03302588 0.11653275 0.024665948 -0.09530384 -0.03339986 -0.0461479 -0.04795641 -0.04310155 -0.086676985 -0.1353413 -0.049609028 -0.02758232 -0.13295221 0.11745684 0.051840574 0.006171545 -0.030039158 -0.028163865 -0.09520799 0.041893944 0.10258876 -0.0074487333 -0.1548302 -0.046664905 -0.063021384 0.013453664 0.10547677 0.31694174 0.14333148 -0.19925514 0.067488335 0.044488303 -0.049496476 -0.09800268 0.030162418 -0.22508569 0.004719115 0.36196265 0.027286338 -0.02534195 0.029314807 0.1035168 -0.08304834 0.08102591 -0.03254258 -0.06613279 0.17892456 -0.20111763 -0.03607366 0.04762243 0.15109931 0.08257165 -0.12675287 -0.09269862 -0.08073828 -0.13702981 -0.25425112 -0.14190882 -0.050134543 -0.016283063 0.028108103 0.06275106 -0.13491037 0.09505566 -0.037115403 -0.0880142 -0.07839654 -0.16418022 -0.10543657 0.12523888 0.12103654 0.08984632 0.016736005 0.19799341 0.15184869 0.092443176 -0.01921185 -0.19367181 0.04862222 0.09311128 0.10120912 0.15092385 -0.010510916 0.064522326 -0.07526747 -0.20128913 0.12892519 0.052934688 -0.065827824 -0.016772805 0.163869 0.01715927 0.0069009257 0.1190133 -0.018091701 0.001862626 -0.015427431 -0.05036813 -0.010368739 -0.074154496 0.087582245 0.009896499 -0.022779431 0.06943765 -0.054040205 0.06486276 0.07127086 -0.07359754 -0.105853334 0.041682325 0.10198787 0.030347476 -0.09171644 0.06852826 -0.07712703
罗辑 -0.032986697 0.032870907 0.16447143 0.0797746 0.13007358 -0.042699877 0.07729934 -0.1787716 -0.15150431 -0.05690851 -0.063278176 -0.08248252 0.13777043 -0.13221839 -0.00024260404 0.14971332 -0.0044031315 0.20224462 0.045071363 0.18274154 0.10879424 -0.22392349 0.06213299 -0.15197064 -0.05148353 -0.14569908 0.11411493 -0.07788181 0.044952583 0.10262844 0.06070242 -0.117601186 0.017743671 0.1480351 -0.1980294 -0.002883953 -0.017637273 0.06322209 0.045055717 0.16049676 -0.018396711 0.031936966 0.07841596 -0.044956494 0.019732269 -0.20689325 -0.00930879 -0.10595255 0.041543625 0.08066064 0.014507047 -0.29701453 -0.22419676 0.079901 -0.27177787 -0.038490888 -0.10467096 -0.2587081 0.0042364113 0.2741956 0.12666063 0.22851562 -0.1026837 -0.030954126 -0.16524908 -0.10174164 0.0021898423 -0.09159621 0.038843915 -0.27470103 0.109675735 -0.24303786 0.031599507 0.09512263 0.04368072 -0.06888314 -0.08798371 -0.27606922 0.13426721 0.093358964 -0.0625254 0.07175091 0.1200109 0.14802396 0.054787897 0.010772244 -0.08048757 -0.18765154 0.0037706785 -0.16466141 0.033964653 -0.17912875 0.084751464 0.068539955 0.013565905 0.02885791 -0.101247944 0.1467437 -0.008579621 0.10473386 -0.23252033 -0.05845903 0.056218576 -0.08736176 0.0109413 0.066388845 0.2219976 -0.06751257 -0.1360443 -0.108039446 -0.12164152 -0.035872012 0.092198856 -2.6924725e-05 0.20666721 -0.087929524 0.14618164 -0.028734531 0.0002923569 0.0038510703 -0.062044453 0.021938408 -0.10602683 0.13718078 0.036198243 -0.11617951 -0.1682865 -0.14655225 0.037163407 -0.013113034 0.05005654 -0.3118894 -0.0037601732 0.013191087 -0.16799375 -0.09716462 0.15053819 -0.009792574 -0.051976852 0.014969057 -0.14980018 -0.1344566 0.03347674 -0.02947173 -0.04742727 -0.0066505554 0.044239026 -0.14903705 -0.0572541 -0.0580806 -0.02390314 -0.26669714 0.025562093 -0.060032185 0.2297512 -0.07493489 0.053641528 0.04022342 -0.12586701 -0.04260639 0.050029323 0.00070505583 0.0032702056 -0.23484315 -0.0790472 -0.09555905 -0.08682184 0.09542203 0.38655287 0.08554047 -0.13487197 0.046959266 -0.030828737 -0.063542925 -0.023860997 0.020766197 -0.17935762 -0.03783722 0.28582272 0.09267768 -0.092007436 0.03363676 0.109590165 -0.10369503 0.0944786 0.086438335 0.019756101 0.1302244 -0.21699435 -0.066381186 0.059813 0.045876063 0.07829456 0.021468215 -0.031850684 -0.17487203 -0.14240353 -0.12170416 -0.10105958 -0.032320432 0.06115047 0.077900276 0.017544286 -0.044503797 -0.032366477 -0.10356249 -0.12214972 -0.113708474 -0.14814147 -0.034264892 0.1179862 -0.046326376 0.18023904 0.036452673 0.12174649 0.0056832484 -0.028687444 0.11574547 -0.19508606 -0.1843552 0.022282777 0.034826882 -0.030208161 0.07330792 0.15618595 -0.03701729 -0.27990228 0.08741244 0.12771994 -0.048992388 -0.021584596 0.19395545 0.27545235 0.00093427993 -0.011689146 -0.14741088 -0.019792967 0.0022334312 -0.12629719 0.04976715 -0.08339695 0.118842885 -0.075666025 -0.04098791 0.042302866 -0.1036558 0.11724012 0.22187912 -0.016457897 -0.120550625 -0.052411858 0.16903195 0.1679998 0.051951867 -0.09397118 0.01662587
世界 0.020603836 -0.14325526 0.25360152 0.18017067 0.10768742 0.0017268849 -0.053394362 0.011812522 0.011303686 -0.06487722 -0.13316377 0.015263238 0.02586094 -0.106608324 0.020947982 0.06256099 0.17087834 0.08514254 -0.06686371 0.2580848 0.103732966 0.06386399 0.07395969 -0.18944506 -0.25246176 0.09913277 0.090715125 -0.067025356 -0.18596455 0.20095296 0.0057584345 -0.14818808 -0.12495319 0.17210847 0.016968375 0.059851594 -0.030827338 -0.12982975 0.2065514 -0.07131806 -0.21435244 -0.05481121 0.045024388 0.048034634 0.25074804 -0.0443982 0.15092485 0.03211654 -0.06850007 0.14127368 -0.05893024 -0.21678263 -0.04834913 -0.075615555 -0.138691 -0.064613886 0.20117849 -0.12209467 -0.03686041 0.059380546 -0.118013956 0.030656623 -0.16440073 -0.16241993 -0.009413614 -0.007826228 -0.0885399 0.047651842 -0.0720364 0.041441552 0.07312187 -0.24425225 -0.05954275 -0.061447136 -0.04821522 -0.09717217 -0.08205488 -0.06438906 0.014431642 0.029681597 -0.13017944 0.09744785 -0.05784169 0.21511078 -0.0015878589 0.113626346 0.04737544 -0.19121279 -0.005281832 -0.10851112 -0.033981476 -0.20945545 0.041665025 -0.1065067 -0.008556935 0.0479438 -0.16860512 -0.08763004 0.06406562 0.10406157 -0.24101368 -0.13156939 -0.1920919 0.020475503 -0.019479057 -0.028204057 0.06768881 -0.086352736 -0.12080664 -0.1914099 -0.25949144 -0.1454849 0.029352339 0.15075342 0.13078558 -0.07689961 0.1219171 0.04796759 -0.07969788 -0.05730942 -0.06766821 -0.10945758 0.08492084 0.119881734 -0.008534781 0.07304116 -0.014276454 -0.02117677 0.043207996 -0.017588282 -0.03282413 -0.1762396 -0.057001606 -0.1194411 -0.1383984 -0.0137910005 0.086066805 -0.053354204 -0.07676066 -0.04688271 -0.2416678 -0.20314148 0.032659106 0.14463186 -0.077322416 0.09618185 -0.0029904523 0.008571951 -0.034424674 0.04408653 0.05054718 -0.13694404 0.004742198 -0.005542975 -0.08647418 -0.06717424 0.36465222 -0.0739842 -0.33783048 0.025862066 0.051807635 -0.006370401 0.04023399 -0.12639177 0.006883547 0.026016759 -0.031803 0.050195772 0.25781047 -0.04551992 -0.027760845 -0.08343486 -0.019834567 0.06390541 -0.091608874 -0.2466131 -0.053658124 -0.09137711 0.21566662 0.090227395 0.10893684 0.2019568 0.09834485 0.043129697 0.12257333 0.08327269 -0.071815826 -0.11833141 -0.23153798 -0.10254578 0.03619847 -0.010708972 -0.19322422 0.07817554 0.17261232 -0.1718778 -0.11250515 -0.13785537 -0.115356356 -0.034375105 -0.068788424 0.06637353 -0.08615727 0.120760225 -0.083762355 -0.031872667 -0.1760287 -0.06777503 0.04981131 0.04408334 0.0869164 0.021985447 0.19882666 -0.052863043 -0.07625204 0.05745849 0.07835921 0.0975266 -0.22664034 -0.17147976 -0.07426466 -0.009879677 0.14150219 0.055928107 0.022588076 0.2224425 0.015514461 0.025345255 0.032108784 -0.07662007 0.1156868 0.09286472 0.16251695 0.023314595 0.21083005 -0.04068312 -0.20283286 -0.009442955 -0.054120395 0.040830914 -0.05186061 -0.027362864 -0.16138816 0.05182344 0.082818456 -0.09862864 0.0016056891 0.10998854 -0.24688877 -0.014690884 -0.019629128 0.07829834 0.10726404 -0.14253284 -0.01906569 0.036041923
三体 0.04523894 -0.12611626 0.3112159 0.18519597 0.28775918 0.095982365 -0.07415967 -0.035019036 0.038591795 0.042677037 -0.015770838 0.0027835816 0.08331645 -0.2544513 -0.0047718557 0.06105882 0.14968984 0.15135373 -0.20180386 0.36480233 -0.04873626 -0.018684648 0.04735288 -0.23614861 -0.26244372 0.03743436 0.047244933 -0.028568601 -0.1948358 0.1839229 0.062310986 -0.19486879 -0.10517718 0.18129745 -0.056117672 0.09790812 -0.2097998 -0.10708618 0.17572008 -0.03989245 -0.323951 -0.033935145 0.076839395 -0.041598093 0.26793993 -0.040365566 0.13496171 0.15821195 -0.14891617 0.19185914 0.09659694 -0.047457088 0.010340291 -0.09596207 -0.051878985 0.10808237 0.22688618 0.010208971 0.0269097 0.09239297 -0.2910248 0.20241404 -0.27366075 -0.057438042 -0.022764428 0.017661238 -0.015233296 0.1224616 -0.12663016 0.031348523 0.09125131 -0.22969082 -0.14471005 -0.03891908 -0.03958904 -0.24116695 0.0031182198 -0.08742716 -0.07894933 -0.059285816 -0.15980333 0.18164182 -0.085623376 0.22701173 -0.04301211 0.10282626 0.10243104 -0.102453485 -0.07266933 -0.15328075 -0.017176159 -0.30308643 0.06756215 -0.13409589 0.03496915 -0.06137522 -0.23207016 -0.15486786 0.127289 -0.09578007 -0.24425143 -0.17676777 -0.16792145 0.07590727 -0.010761321 0.016060578 0.033056322 -0.07357962 -0.104373425 -0.16045433 -0.32141396 -0.10346325 -0.009901578 0.22942446 -0.01054772 -0.13360068 -0.06230651 0.12189597 0.006447122 0.08046076 -0.017501168 -0.14638723 0.2185236 0.0935575 -0.054773346 0.15814942 -0.01669698 -0.061578367 0.07476249 -0.050566748 -0.12499108 -0.17590088 -0.08189332 -0.057354648 -0.09803222 -0.10141766 0.07530425 -0.0669022 -0.0038352236 -0.030364843 -0.16523112 -0.151249 0.17197484 0.26041597 -0.08351664 0.07954752 -0.11199364 0.12929377 0.015489771 0.14212087 0.039365236 -0.0982715 -0.11816361 0.030974463 -0.21853292 -0.06763031 0.3689456 -0.033369668 -0.4358195 -0.028611254 0.1108218 0.017102703 -0.019374859 -0.20611338 0.10439026 -0.013417799 0.016808834 0.05289645 0.2797465 0.007685893 0.00033423034 -0.16554391 -0.04072159 0.086569756 -0.1398143 -0.24707094 -0.066054 -0.13010773 0.3745035 -0.013429376 0.19129992 0.2524336 -0.022453988 0.17807573 0.2407699 0.026464105 -0.14004219 -0.15595305 -0.24195744 -0.14806597 0.0513978 -0.055681195 -0.08693449 0.17819801 0.21476328 -0.29182252 -0.04698841 -0.1715027 -0.122646265 0.020650016 -0.13320595 0.17068374 -0.17924264 0.23997761 -0.06239974 0.10892503 -0.2286601 -0.16365154 0.037794217 0.034728993 0.0018209717 -0.032562777 0.22726007 -0.13423099 0.048704468 0.01050155 0.0324186 0.18084611 -0.23250395 -0.20678365 -0.14901724 -0.034966793 0.10327152 -0.022713626 -0.023433937 0.20928966 0.07525694 0.06412434 0.023513282 -0.160553 0.009394824 0.024204532 0.08137365 0.16354543 0.24454066 -0.024935253 -0.26590383 0.008689232 -0.0063924775 0.10087389 -0.0702977 0.012238403 -0.11314997 0.067878775 0.07330385 -0.028889991 0.10324744 0.1723392 -0.32071328 -0.053613167 -0.013854025 0.15025148 0.036358755 -0.15098827 -0.1444886 0.047451794
号 0.23401381 -0.011198043 0.11346821 0.44816467 0.20629728 0.07277618 0.19642234 0.012798971 -0.18836501 -0.22511446 0.019551326 -0.028033292 0.18013154 -0.20266642 0.048879232 -0.20213246 0.27967706 0.098440215 -0.12735619 0.23872666 0.26301405 0.24021201 -0.01531832 -0.09702917 -0.2866249 -0.089963 -0.0036359227 -0.07330471 -0.29126272 0.21215463 -0.10038066 0.10872272 -0.21295695 -0.13633093 0.34394345 0.18627653 0.018050885 0.12691143 0.2613541 -0.1950718 -0.13569899 0.07348919 0.22607139 0.10676107 0.29865643 0.13062328 0.03876548 -0.27624616 0.011613029 0.07877525 0.09442082 0.05819993 -0.052295804 -0.1525489 -0.2806457 -0.0039547905 -0.062318027 -0.036458477 -0.0346 0.03719324 0.024961837 -0.21430212 -0.07158641 -0.120581895 -0.0021466706 -0.10565785 -0.24687213 0.19595581 0.02888905 -0.094799235 0.060470264 -0.2376041 -0.35743916 0.10396579 0.1257639 -0.0932156 -0.139317 -0.127245 -0.17090827 0.08032938 0.0073098512 0.14018533 0.33210644 0.19757353 0.13333082 0.21061435 0.2945999 -0.08329895 0.055193465 0.0933008 -0.1544953 -0.3267564 -0.11628151 -0.10708102 -0.024399236 0.2992796 -0.22291584 -0.23263028 0.086485386 -0.14140162 -0.16901714 -0.3840782 -0.13608527 0.11967993 -0.029012145 0.0275932 0.27487054 0.15402067 0.01312859 -0.12113262 -0.047148984 -0.1135396 0.10205834 0.28077954 -0.023464926 -0.16470294 0.08994683 -0.021427367 -0.047934096 0.10557537 0.16282086 0.19015466 0.16955352 0.10507919 0.24754055 0.01707692 0.18161914 0.08825194 0.040304445 -0.1508246 0.05683795 -0.12802854 -0.13681865 -0.1225357 -0.007403653 -0.08319289 0.13420692 0.27376652 0.07982794 0.17694706 -0.10056746 0.19317983 0.18420798 0.19311683 -0.35332125 0.031011174 -0.14948435 -0.02510807 0.16419743 -0.16477509 -0.39610127 -0.0833313 -0.12335837 -0.2441014 -0.34628934 0.18014285 0.2601711 0.2938732 -0.0066930577 0.149359 0.10373607 -0.1631332 0.23022912 0.012355165 -0.052860506 -0.050540563 -0.12360465 0.03154532 0.353111 0.19744037 -0.17289977 0.102700755 0.031549506 -0.14092657 -0.11839417 -0.15714955 -0.037706614 0.0643679 0.3200285 0.126399 0.01526757 -0.01864703 0.12002354 0.21267699 0.03149991 0.15826909 -0.07205478 0.19091518 -0.2896393 0.20641577 -0.09584875 -0.13630587 0.14985324 -0.119947806 -0.07447691 -0.039159518 0.01930672 -0.19470441 -0.026188686 0.19663809 -0.19866648 0.1705398 0.27164966 0.01916635 0.12665902 0.0061729723 -0.06282197 -0.03176917 -0.09126118 -0.21209423 0.09963817 0.07640477 0.21415962 -0.104741976 0.023585677 0.10525774 0.229621 0.105755 -0.2930603 0.27749455 -0.12709007 0.19398715 0.1472076 0.1693955 0.020118052 0.05040791 -0.075596526 0.21290694 0.093528725 0.13666044 -0.0054894383 -0.13412952 -0.19222382 -0.05901336 0.13799323 0.1451278 -0.1583925 0.12798126 0.09098625 -0.063010104 -0.12634625 0.08525021 -0.13683924 0.07012417 0.09925096 -0.15045239 0.18292332 0.04483468 -0.1708898 -0.29856563 -0.24232404 -0.13217056 -0.15616727 0.0913181 -0.22057192 0.10449551
时 0.11041954 0.026556239 0.09947379 0.05782442 0.1521312 -0.009963044 0.08843052 -0.028421365 -0.0703417 0.002604399 -0.06381366 -0.0013953837 0.039672583 -0.10209378 0.012915618 0.057125486 0.06006844 0.107391715 -0.07749362 0.16435286 0.093401015 -0.064695075 -0.04251458 -0.0736555 -0.062292937 -0.0768251 -0.00017364681 0.007083588 0.02188475 0.12809984 0.08256298 -0.08552796 -0.017396359 0.076309934 -0.033030946 0.064528316 -0.06829278 0.008813144 0.06536668 0.045556307 -0.16692497 0.036794335 0.13111937 -0.005058847 0.04614722 -0.10894209 0.05384029 -0.100958705 -0.044385254 0.04471813 0.005284848 -0.13020784 -0.08739666 0.02445687 -0.2022584 -0.0075333086 -0.0048595644 -0.17477767 -0.004403091 0.04954966 0.013317616 0.12516138 -0.14280233 -0.06472582 -0.00899736 -0.08156655 -0.075663835 0.070974305 -0.024688574 -0.1718041 0.12057175 -0.1427986 -0.120304875 0.08694593 -0.020497637 -0.10350931 -0.116500884 -0.16503045 0.0022258398 -0.001962436 -0.005066715 0.02763344 0.10975361 0.108741984 0.048129696 0.17443696 0.04114394 -0.13019998 -0.066962674 -0.044895805 0.011841988 -0.18994664 0.048105307 0.04444376 0.0074835443 0.04670423 -0.14918953 -0.068150274 0.018080067 -0.022379134 -0.19947253 -0.115736574 -0.023775728 0.028395344 -0.049570248 0.053616084 0.031813297 0.032894388 -0.015198597 -0.045776412 -0.091265365 -0.05354238 0.12698717 0.11898657 0.06625294 -0.0751077 0.063656695 0.044960916 0.026098525 0.018547708 -0.03129765 -0.047272578 -0.019942205 0.015200734 0.052753296 0.024565415 -0.056562014 -0.010069132 -0.04199802 0.024603065 -0.10748512 -0.108086914 0.010685951 -0.053690907 0.012480202 -0.08067914 -0.005512668 0.10177326 0.07889865 -0.014489509 -0.028451722 -0.063413374 0.11270251 0.070245184 -0.067104824 -0.0014157295 -0.10247497 0.04213429 0.00980215 -0.11247184 -0.1513301 -0.10569879 0.0012412329 -0.12225845 0.014582638 0.029777057 0.1827823 0.061353344 -0.11536569 -0.004214306 0.09780517 0.044524744 -0.026572878 -0.077358484 -0.008590031 -0.04143243 -0.04678479 0.15100518 0.29511172 0.055001043 -0.06731355 0.01887698 -0.044868372 0.06768413 -0.046472527 -0.059903137 -0.069802046 -0.040315017 0.28251404 0.0733394 0.055360995 0.13977353 -0.017188545 -0.05021855 0.13040917 0.07786385 -0.04016922 0.09904043 -0.12007636 0.05221133 0.013436432 0.008631549 0.067311324 -0.059265506 -0.02826334 -0.112583935 -0.13701427 -0.17477043 -0.07974244 -0.011433063 -0.08246092 0.07214008 0.016464638 0.017323244 0.020453852 -0.083142154 -0.08738321 -0.04241977 -0.09555421 -0.063461654 0.0014782265 0.041684963 0.15764518 0.045024864 0.07454621 0.089626096 0.0075097117 -0.0076656044 -0.111105874 0.022423038 0.020275112 0.046813555 0.04194416 0.0639696 0.034526393 -0.03923683 -0.10563931 0.15480846 0.07199303 -0.055533793 -0.034159943 -0.014622608 0.12048734 0.0036427702 0.04200046 -0.006289736 -0.02539641 0.054963436 -0.041647013 0.029836453 -0.034161005 0.0971135 -0.055880614 0.045341846 0.09441737 -0.0801586 0.086654685 0.0766142 -0.12293885 -0.06979818 0.067958 0.002463921 -0.036479738 -0.01440543 0.024784194 0.009958981
地球 0.047597475 -0.1754239 0.2783934 0.15494408 0.20664205 0.003705244 0.08064866 -0.041866258 0.0901694 -0.042698726 -0.076630294 -0.06976504 0.12454368 -0.17872693 0.07306287 0.058504228 0.118486255 0.01946518 -0.17876254 0.32535452 0.03053342 0.058772676 0.08468108 -0.118652865 -0.2540618 0.09583283 0.073270686 -0.029466614 -0.064730674 0.09820575 -0.050203208 -0.0923443 -0.0060944334 0.12001786 -0.0878431 0.05984258 -0.071727484 -0.12520856 0.1437168 -0.05530974 -0.3743466 -0.057816654 0.075902306 -0.0035306478 0.18926333 -0.055425618 0.09538841 0.0512809 -0.110427976 0.11215268 0.047319885 -0.0046455036 -0.009655565 9.1990674e-05 -0.14081109 0.07318679 0.120111555 -0.059593745 -0.043988355 -0.029866792 -0.2139466 0.11821818 -0.15729293 -0.042567603 -0.035097938 0.01812004 -0.09537356 0.22226466 -0.11274447 -0.0036554816 0.105395764 -0.15352343 -0.2050593 -0.040854037 0.011793551 -0.13174284 -0.11089242 -0.21898116 -0.08280165 -0.057260014 -0.12671314 0.12428329 -0.024277266 0.11430408 -0.00852347 0.12258499 -0.035406616 -0.21377614 -0.097033076 -0.10140648 -0.13191026 -0.19050266 0.06933843 -0.0943103 0.07214725 0.022023324 -0.19502977 -0.1382317 0.15204379 -0.123853594 -0.16616991 -0.11239952 -0.077139705 0.012591264 -0.0029714084 0.02359976 0.05434125 -0.08332018 -0.0037291201 -0.13714077 -0.27331644 -0.23393331 -0.0055834474 0.19474342 0.05616031 -0.054145157 -0.073299825 0.08583617 0.075972594 0.030858073 0.0310253 -0.13750789 0.09135338 0.08462844 0.029547555 0.0344657 0.0158837 -0.0131824985 -0.040873386 -0.07676805 -0.06896253 -0.18314117 -0.102824 -0.022193028 0.016261527 -0.14115933 0.04606043 0.059230685 0.072671495 -0.07441627 -0.07614629 -0.13637488 0.16763748 0.17332119 -0.101358294 0.022699932 -0.0748583 0.07446362 0.06349947 0.1665623 0.013812091 -0.038865596 -0.100579105 0.030024057 -0.18142687 -0.016662829 0.34735432 -0.13826704 -0.33850816 0.011400734 0.048475523 0.06727746 0.0462621 -0.102739796 0.025548393 0.026586417 0.07662479 0.06414266 0.25147223 0.05780515 -0.13004045 -0.077804446 0.023931738 0.05739859 -0.13072152 -0.18170099 -0.05828518 -0.020760657 0.30990818 0.06505175 0.08370206 0.07158454 -0.027987923 0.1331054 0.1375615 -0.012381924 -0.11155465 -0.05625381 -0.23721726 -0.07976486 0.080806054 -0.002532075 -0.05775925 0.14449368 0.14527348 -0.21349265 -0.0236108 -0.29640055 -0.12584467 -0.049625568 -0.123377904 0.09399136 -0.039032307 0.10219264 -0.113477916 0.07979269 -0.10908059 -0.117361 0.07647206 0.10790915 0.010236093 0.048837315 0.27565995 -0.04270058 -0.03057075 0.0301608 0.19321188 0.102956116 -0.23924299 -0.12147704 -0.019202992 0.042550247 0.112267956 0.029130876 -0.017826738 0.14973757 0.0253283 0.06695109 -0.04609911 -0.10208068 0.02943815 0.06809975 0.008787347 0.1925356 0.23074205 -0.1108836 -0.14662357 -0.02445275 -0.042891473 0.058986656 -0.03193461 -0.011053086 -0.16102234 0.111034706 0.031073857 -0.009804836 0.09101955 0.11661992 -0.25510803 0.023243355 -0.10752866 0.12408988 0.021452297 -0.15551609 -0.09685144 -0.03682063
太空 0.15848655 -0.17176028 0.22464146 0.032107886 0.07352736 -0.016055012 0.07448907 0.16866232 -0.14057846 -0.064481 -0.11373014 -0.10741753 0.17263608 -0.09832698 0.13656323 0.045217447 0.045685142 0.16207598 -0.23980004 0.2529329 0.0016169719 0.035735283 -0.06873964 0.043166954 -0.17962421 -0.08447827 0.040765062 0.017007524 -0.068413086 0.2848093 -0.021143073 0.16430768 -0.1422688 -0.0041921632 -0.12217747 0.049104754 -0.07979879 -0.09174698 0.16059366 -0.086794734 -0.4329729 0.18289627 0.08794751 0.022081645 0.17362668 -0.075344495 0.038457036 0.009137308 -0.02109959 0.11406297 -0.14030696 -0.030348372 -0.07389445 0.07908131 -0.16752973 0.113152385 -0.12642652 -0.059084952 -0.04457863 0.02570641 -0.07277152 -0.034818497 -0.089871496 0.009217047 0.12596703 0.0036862495 -0.22271399 0.2527341 0.051408883 -0.18331055 0.039190292 -0.034555867 -0.23997058 -0.06627607 0.060566146 -0.105273865 -0.05844242 -0.24688093 -0.25067392 -0.0735801 0.0016329709 -0.057875767 0.08274585 -0.008182887 0.007355609 0.20296577 0.09969146 -0.2731042 -0.11190368 -0.07931435 -0.14652024 -0.09375435 -0.033898935 0.0039265906 -0.026395189 0.14102493 -0.12437868 -0.14754228 0.14402843 -0.09462975 -0.3011265 -0.18933468 -0.04171628 0.051503457 -0.031635407 0.09997859 0.0038328518 0.02495137 0.15520069 -0.09171333 -0.16894415 -0.2723395 0.017456584 0.24876669 -0.03804902 -0.022643229 -0.067849986 0.04774687 0.2643339 0.12675025 -0.016222395 -0.079860255 -0.028111195 0.10063312 0.09320696 0.059415165 0.19419739 -0.008793126 -0.13863604 -0.043441117 -0.059149332 0.0857983 -0.16525991 -0.16136123 0.0778793 -0.037454642 -0.06813796 0.28063133 0.13551715 0.008413769 -0.04497367 0.027317131 0.23510781 0.191497 -0.10871251 -0.07138376 -0.090102956 0.17533 0.021927003 0.008044505 -0.2547698 0.033065043 -0.13667253 -0.152366 -0.07324133 0.24869668 0.25962144 -0.25992003 -0.08045605 0.07464557 0.00018922584 0.085577875 -0.07207106 -0.1443572 0.024618259 0.021801045 0.08824834 0.04983853 0.14393221 0.12242178 -0.24893342 0.02940979 0.14310028 0.042635456 -0.2649843 -0.2291656 0.05791918 0.05151788 0.21311873 0.084197745 0.17066158 0.0003068758 -0.049427785 0.17499036 0.06713078 -0.011378231 -0.03505471 0.0990026 -0.10400259 -0.07099714 -0.07745912 0.2711866 0.18629766 -0.0943016 -0.21744694 -0.04557579 -0.15223633 -0.3315667 -0.24421476 0.010190964 -0.0807918 0.14757206 0.23179728 -0.119725496 -0.07989982 0.057193454 0.033295028 -0.041081063 -0.16276301 -0.051859368 -0.047871716 0.1355873 0.02187717 0.016716368 0.087440446 0.119371206 0.29405388 -0.005026677 -0.11181585 0.13466646 0.1225134 0.03448765 0.027913796 0.10285174 -0.028859897 -0.06199902 -0.026989207 0.2186866 -0.17165859 -0.033860054 -0.040337864 0.0438262 -0.1775266 0.13001098 0.24167864 0.044339582 -0.015419863 -0.027761018 0.07528431 -0.112014115 -0.09211257 -0.036821086 -0.012304229 -0.014011557 0.042970642 -0.0009476324 0.10493285 -0.13383281 -0.11966312 0.0017781281 -0.041531168 0.093549006 -0.20682068 -0.22062473 0.052019037 -0.13731377
人类 -0.011185834 -0.26497725 0.2732608 0.20049709 0.1321166 0.025751458 -0.025544006 -0.07612577 -0.055200063 0.0273833 -0.05124497 0.0019463964 0.14352936 -0.2059701 0.12090759 0.032161977 0.14408308 0.19977193 -0.06788105 0.29696715 -0.093024105 0.18133163 0.046134464 -0.236962 -0.13116774 0.04765088 0.18562883 -0.0595215 -0.25759503 0.23224898 0.06459382 -0.14887455 -0.03991812 0.15335542 -0.13764678 0.041329622 0.07907017 -0.050516367 0.0601423 -0.07582847 -0.2346423 -0.11269383 0.016125033 0.017783407 0.17262864 -0.080374695 0.18652569 0.050369933 -0.11732895 0.18583243 -0.031652346 -0.06498112 -0.06971368 -0.13221155 -0.13047786 0.059382357 0.18121956 -0.047635183 0.0057652253 0.09139281 -0.1894327 0.107974365 -0.16583031 -0.114016525 -0.06201046 0.073305674 -0.022692693 0.101750456 -0.06330491 -0.028358687 0.125221 -0.2778372 -0.021293024 -0.02072077 0.051737215 -0.010091276 -0.09986315 -0.15448755 0.04405814 0.05718923 -0.16581562 0.13814475 -0.050161757 0.13054541 -0.12562917 0.16789912 -0.020094082 -0.15142675 -0.13254206 -0.22760658 -0.11458563 -0.09153916 0.17681451 -0.11411417 0.06219389 0.08132413 -0.22861314 -0.16522777 0.15364113 0.0026779738 -0.33661637 -0.21754058 0.0775494 0.04775628 -0.026598169 -0.006323656 0.1199961 0.047914784 -0.06391037 -0.14846802 -0.3298559 -0.21752037 0.0316479 0.27617782 -0.019276064 -0.012235351 -0.016653685 0.18326831 -0.019548476 0.03579012 0.008541749 -0.08962922 0.08704692 0.14531703 -0.012030045 0.10507396 0.15594654 0.065922655 -0.06627477 -0.1206366 0.13314131 -0.16231355 -0.113703884 -0.15226506 -0.03292419 -0.059929542 0.121336095 -0.0649595 -0.02324099 0.044304043 -0.14457828 -0.24191935 0.010348558 0.25451446 -0.08040792 0.029760957 0.047474496 0.04325604 0.020132435 0.1493028 -0.02956447 -0.20799929 0.0035987347 -0.00890715 -0.08439687 0.00026439974 0.40732813 -0.19239704 -0.27034393 0.035574682 0.05266889 -0.010809428 0.06511584 -0.19903164 0.06265141 0.035146434 -0.008303593 0.09454452 0.16034196 0.017951103 -0.09950279 -0.1540367 0.026816426 0.13810216 -0.14588903 -0.30418345 0.08142814 -0.031178633 0.23251414 0.012989965 0.15517394 0.23681673 -0.0014134813 0.17606235 0.15157351 0.0891452 -0.1175404 -0.1634856 -0.117993765 -0.15643442 0.03372696 -0.08248289 -0.037905633 0.06890825 0.06227172 -0.2035567 0.05523069 -0.14838877 -0.19770513 -0.118166804 -0.058445223 0.11637301 -0.08467132 0.1962258 -0.2453643 0.100385636 -0.1966844 -0.11461203 0.009965384 0.03125524 0.019502474 0.08359235 0.22196248 0.06754921 -0.12461714 -0.029486777 0.113048166 0.20246145 -0.2129519 -0.26835364 -0.12832998 0.014091429 -0.0015622618 0.012289744 0.04863083 0.2224353 0.13537613 0.00036362806 -0.020142244 -0.15810172 -0.093856074 0.15127619 0.136643 0.12863755 0.220013 -0.090133555 -0.095263615 -0.08248961 -0.010029201 -0.007915723 -0.077652015 -0.06631683 -0.1695536 -0.05791876 -0.026666516 -0.09931333 0.002904049 0.11141025 -0.34534857 -0.05565721 -0.10734052 0.10155325 -0.041029777 -0.15391372 -0.06704754 0.0033912372
宇宙 0.29488337 -0.30473524 0.22470883 0.25209075 0.06280675 0.12809516 0.01214878 -0.049709477 -0.12441912 -0.033788733 -0.29835114 -0.062215064 0.061814714 -0.17883128 0.24669062 -0.14960894 0.1899709 0.115215 -0.048104145 0.30142277 0.07211036 0.27626333 -0.066225804 -0.1756963 -0.18808532 0.16888057 0.0771073 -0.16703121 -0.23387116 0.2097873 -0.0564425 -0.10673114 -0.011902899 0.09343632 -0.019719161 -0.10393845 -0.103611685 0.09852553 0.121432334 -0.002623397 -0.12695822 -0.10560626 -0.19233482 0.10372581 0.4452465 0.02514359 -0.057397652 0.027839102 0.031515773 0.22068179 -0.08883998 -0.092639856 0.05522991 -0.10611028 -0.239533 -0.0848541 0.12153168 0.038948845 0.028647454 -0.0052777943 -0.0954219 -0.11264587 -0.016258456 -0.18161458 -0.06354309 -0.1690542 -0.027714027 0.119359 -0.10826219 0.034079064 0.026415002 -0.067808 0.031713944 -0.0864593 -0.15886627 0.085298605 -0.050693166 0.013153519 0.11949479 -0.12540561 -0.005883605 -0.030959517 -0.2610589 0.14996585 -0.11267478 0.16483815 0.025995856 -0.16761273 0.052832764 -0.037851978 -0.14625295 -0.18434814 0.15145566 -0.048332144 0.102262266 0.09962138 -0.032719165 -0.10454614 0.069989786 0.07539885 -0.20304082 -0.14128502 -0.07702927 0.041091677 -0.07405058 0.06634968 0.16038525 0.09059611 -0.03357403 -0.143213 -0.16762784 -0.14504755 -0.069701426 0.15893479 0.07155219 -0.004260653 0.024852717 0.01829469 0.04505315 0.011874943 -0.10909624 -0.093581915 0.10733444 0.25144324 -0.15062864 0.06175892 -0.013017602 0.12849672 -0.12192382 -0.10212145 0.036861222 -0.06349705 -0.032954972 -0.25699317 -0.013831416 -0.19493598 0.030300155 -0.04252243 0.13844027 0.05079362 0.04775617 -0.25161862 -0.11797766 0.27265716 -0.04061732 0.032221086 -0.05816092 0.044882875 -0.22049679 0.07307757 0.0356361 -0.41691184 0.007874971 -0.11179619 -0.24727182 -0.00053695554 0.3785791 -0.122848764 -0.20629533 0.09693212 0.09230584 0.058739357 0.045184724 0.009631812 0.054328013 -0.043944407 -0.048746955 -0.024524735 0.20459878 0.013687935 0.047272615 -0.21035448 -0.0881974 0.08839498 -0.121141404 -0.3234983 -0.109883435 0.10638523 0.12534744 0.03430152 0.030894838 0.08016669 -0.0046769674 0.023050452 0.09935767 0.116515964 -0.21570788 -0.011685327 0.012456127 -0.1338431 -0.011219979 -0.082537636 -0.088494994 0.004213076 0.12002427 -0.12271686 -0.085482985 -0.0705511 -0.13782912 -0.057483554 -0.058243856 -0.023494087 -0.037384644 0.10831146 -0.1912765 -0.12536663 -0.3973425 -0.068359874 -0.103617266 0.074434705 0.029122215 0.0709715 0.23878889 -0.037280165 -0.15301374 -0.06088937 0.11996414 0.09365717 -0.23365505 -0.20204361 -0.29826882 -0.084555924 0.05188143 -0.058277305 0.11139566 0.11895429 0.019574516 0.15444389 0.2313058 -0.0774672 0.110433504 -0.06844354 0.13946348 0.008557853 0.16548632 0.29601112 -0.036544334 0.1074181 -0.10780168 -0.06726824 0.08422705 -0.0771179 -0.20436145 0.18812263 0.041702326 -0.15472141 -0.04484257 -0.0067412094 -0.25977626 0.037069302 -0.16167733 0.0015477809 0.120894246 0.07379135 -0.07311838 0.026321841
太阳 0.19279158 -0.17377675 0.18510087 0.036041427 0.16547397 0.046843678 0.21642774 0.1637348 0.066475265 -0.07497436 -0.20407806 -0.11035678 0.16838965 -0.10767861 0.20343384 0.14337038 0.16948159 -0.14268439 -0.15775548 0.290866 0.12624185 0.031838343 -0.060224354 -0.056868978 -0.27558434 0.12266324 -0.1294736 -0.07469531 0.12078078 0.07393842 -0.03934979 0.011469503 0.14490399 0.13435672 -0.090165846 -0.032888018 -0.2515958 -0.053183943 0.21429223 0.060895868 -0.32374126 -0.0683453 -0.051155917 0.15205194 0.26346752 -0.24671604 -0.12458046 0.06929745 0.010363337 0.060719304 -0.044632945 -0.14107563 0.03993091 0.19034472 -0.18019463 -0.09910915 0.019573553 -0.09019443 -0.02110162 -0.017149065 -0.19436368 0.08948979 -0.12588397 -0.08614111 0.068173885 -0.27360514 -0.11172322 0.2795502 -0.1767373 -0.08750219 0.073022954 -0.008856036 -0.20254958 -0.20122018 -0.19779652 -0.09037524 -0.101090156 -0.23244114 -0.11469208 -0.20874782 -0.11067406 -0.057464987 -0.14871056 0.19448511 -0.08564312 0.121007904 -0.08818517 -0.16896658 -0.007408686 0.05063225 -0.07162338 -0.20756118 0.01379011 -0.017508537 0.07231145 -0.06390371 -0.08512472 0.1698887 0.053696115 0.06182373 -0.16953255 -0.07638329 -0.13986786 0.0033711886 -0.11718382 0.08462783 0.011554257 -0.030741671 0.03330224 -0.04390972 -0.042317107 -0.16681075 0.044865686 0.062244575 0.085809104 0.08465434 -0.004054489 -0.066394545 0.16369054 0.028968217 -0.10587594 -0.18654862 0.10309775 0.107396975 -0.08899932 0.014977148 -0.17908461 0.049778324 -0.12318112 0.049268417 -0.29382783 -0.065689124 0.08638729 -0.11953445 0.11925214 -0.126182 -0.19925943 0.15679659 0.17960943 -0.101724915 0.15475 -0.11732862 0.12687711 0.027767204 0.035406485 0.12023061 -0.14788616 0.20015086 -0.03375528 -0.032206163 0.06613008 -0.21957411 -0.07980826 -0.06488999 -0.21548644 -0.02845618 0.3013884 -0.17347167 -0.29451475 -0.0052145533 0.16021164 0.22983155 -0.025343655 0.122923255 -0.12780128 -0.017125828 -0.08647294 0.12553652 0.44528157 0.052746184 0.035497617 0.0024704267 -0.047872674 0.08025839 -0.1210063 -0.08151622 -0.1255447 0.04706021 0.3198303 0.22917083 0.07914029 -0.059879962 -0.16790323 -0.0060830708 0.18980186 0.1813961 -0.060853716 0.08861317 -0.11430331 0.029208878 0.084279746 0.08120895 -0.115947396 0.11067491 0.04850899 -0.21350415 -0.1322334 -0.27664763 -0.12060162 -0.058298122 -0.15104504 -0.09168344 0.0506212 -0.036727842 0.049107734 -0.1629458 -0.19702289 -0.048553515 0.0055642673 0.18002881 -0.011070563 0.11982761 0.31742844 0.011752121 -0.048314 0.05805589 0.12646015 -0.13437898 -0.15264043 -0.046213623 0.015179253 -0.01920465 0.13256471 0.08297736 0.06897859 -0.11331966 -0.053568866 0.22772402 0.052210025 -0.2544414 0.27698162 -0.18426703 0.11276032 0.16989708 -0.009276639 -0.011550205 -0.05827289 0.10939421 -0.16495244 0.1392442 0.0471856 -0.046587713 -0.2120894 0.23849152 0.19450516 -0.12833177 0.03409116 -0.046915285 -0.14793064 0.19614881 -0.009560613 0.10522925 0.080963925 -0.0066752117 -0.04152563 -0.15205114
想 0.05211482 -0.034979038 0.15469566 0.15912262 0.032142375 0.04563476 0.020410324 -0.14377771 -0.18921404 -0.05675792 -0.10962231 -0.0048990576 0.008969841 -0.16662645 0.098752834 0.02478764 0.041170403 0.12444632 0.07112537 0.26024914 0.0130522 -0.030466102 0.009812828 -0.10003378 -0.029380696 -0.047632925 -0.009877263 -0.15187396 -0.09209041 0.14227489 0.1262254 -0.13877013 -0.022153202 -0.02049927 -0.1466192 -0.020364601 0.007092989 0.009685554 0.07577959 0.032604285 -0.009202021 -0.060711678 0.07934863 -0.06285387 0.11606944 -0.1216446 -0.034002654 -0.10639297 -0.024894802 0.18194734 -0.03045845 -0.15484062 -0.023414709 -0.0878921 -0.20493755 -0.015518556 0.030499408 -0.104414135 0.0823196 0.22354387 -0.015636958 0.08027838 -0.19112909 -0.002294593 -0.071669646 -0.06828747 0.0125352135 -0.09771437 0.07634489 -0.19057833 0.15679136 -0.14498225 0.024675827 0.113493524 -0.060182985 -0.012662618 -0.079326734 -0.19644028 0.14551753 -0.105036266 -0.11178383 0.1305727 -0.061135132 0.10118594 0.0036193929 0.06137206 0.026353067 -0.03212932 0.003294852 -0.18524614 0.030809615 -0.11046945 0.15875809 0.079861164 0.027432257 0.046154678 0.01074218 -0.008305243 -0.013769297 0.036395386 -0.20121905 -0.10367149 -0.0131206075 -0.039228104 -0.024049882 0.07799832 0.14080107 0.0014344961 -0.044196066 -0.16395006 -0.08815466 -0.056373157 0.037954044 0.033120275 0.09135316 -0.08268367 0.060350582 0.0059512756 0.08318948 0.052953634 -0.14506696 -0.008684265 -0.0023526305 0.13627796 0.04522883 -0.023059046 -0.10287894 -0.020516522 -0.08503686 -0.115730986 0.014188335 -0.10548173 -0.1102002 -0.08758561 -0.21920465 -0.19713472 0.18203175 -0.03310285 -0.045782533 0.04880411 -0.07119106 -0.15116303 -0.0777168 0.1685067 -0.025843875 -0.049735136 0.110238 -0.041057665 -0.06961672 -0.014408702 -0.05268003 -0.23798248 0.10644389 -0.077280305 0.085165866 -0.010475144 0.07836194 0.08565394 -0.11370981 -0.13243002 0.1517487 -0.07503932 0.13054404 -0.19973414 -0.057092607 -0.17098479 -0.162784 0.1095662 0.16612661 0.02701077 -0.009128858 -0.13431557 0.06784128 0.04647006 -0.036568347 -0.06554412 -0.13704668 0.021660473 0.25561792 -0.08633638 0.11652785 0.19103955 0.10802952 -0.11853383 0.07019426 0.17773451 -0.05797596 -0.031627603 -0.14950964 -0.1532306 0.14625189 0.024274169 0.057154138 -0.041723005 0.029456671 -0.18549839 -0.11641248 -0.0019575525 -0.06299725 -0.063488476 0.039912835 0.20663628 0.0018661878 -0.02515264 -0.13717316 -0.033720884 -0.17703786 -0.014643575 -0.14732878 -0.032699257 0.021152303 -0.0004299736 0.1404031 0.045533337 0.005072873 -0.020906113 -0.013439465 0.06470802 -0.013211901 -0.124558926 0.033613626 0.027214529 -0.09940695 0.008933974 0.11704568 0.029778603 -0.17818339 0.09541896 0.23813562 -0.050655384 -0.0937323 0.027680073 0.19798864 0.0044625984 -0.0029045893 0.10347377 -0.033900306 -0.018617023 -0.088662066 -0.001347858 -0.07998914 0.0764457 -0.097640604 -0.043205585 0.062485244 -0.14352635 0.04188062 0.188364 -0.07474926 -0.111354835 0.03497353 0.04081559 0.13228174 0.07014285 0.067030564 0.056349635
舰队 -0.010598038 -0.07637125 0.21160723 0.043726236 0.24137612 0.0633318 -0.006842223 -0.011769134 -0.103910424 0.05530893 0.12100152 -0.21057014 0.020077681 -0.27015093 -0.20297636 0.18978447 0.09403133 0.15673889 -0.2801527 0.37104598 0.0030747775 -0.086124964 -0.033237357 -0.032141123 -0.21957253 -0.13708527 0.08376218 0.16427583 -0.087894596 0.051399622 0.15247883 0.0047492324 -0.17295694 0.062638044 -0.036823004 0.1810348 -0.08629035 -0.115135536 0.044406373 -0.13690273 -0.40780336 0.14252637 0.35325164 -0.066456236 0.073063 0.028833581 0.26310936 -0.02014727 -0.21664447 0.047141705 0.16141097 0.072410434 0.030596688 0.028428594 -0.015955798 0.13315518 0.15788089 -0.077656396 -0.01162451 -0.095409706 -0.10756455 0.2925286 -0.26181814 0.041262783 0.07064072 0.10958842 -0.264645 0.23580024 -0.0051760506 -0.25948155 0.31935263 -0.31444627 -0.29461172 0.07280573 0.11181496 -0.29585624 -0.14460061 -0.3017321 -0.2732206 -0.07355477 -0.08295303 0.11951762 0.23900779 -0.02963786 0.1345872 0.2579863 0.120971836 -0.22664079 -0.2057151 -0.049850736 -0.04757292 -0.27611625 -0.040757097 -0.043594737 0.005583613 0.14976962 -0.35637504 -0.2180761 0.15402389 -0.42070425 -0.18924247 -0.20455727 -0.16355182 -0.0068354197 0.06809263 0.07876783 -0.025753101 -0.013398454 -0.08813173 -0.124639876 -0.34889796 -0.21326348 0.12928365 0.22145553 0.06629189 -0.17112258 0.018339409 0.30428854 0.043402884 0.042729825 0.108284116 -0.03684144 0.012772951 -0.0088403085 0.23182593 0.08393564 0.19963576 -0.003988558 0.06168562 -0.045805227 -0.06914329 -0.12521704 -0.22453994 0.012173824 0.002946256 -0.18393289 0.13746063 0.25872043 -0.038604014 0.13330407 -0.16611405 0.008586956 0.37015188 0.19663909 -0.056256477 -0.07470494 0.0047478876 0.15812315 0.2698649 0.06593031 -0.27389497 0.1281278 -0.2613173 -0.03253324 -0.08636901 0.09917876 0.33447915 -0.01011386 -0.2904926 0.05880753 0.0325843 0.005906106 0.074976146 -0.27436432 0.14638487 -0.089230455 -0.0118056005 0.27506453 0.16435125 0.14021519 -0.21704917 0.05941406 0.19201323 0.038062207 -0.12411376 -0.03733441 0.02787912 -0.07006039 0.38173005 -0.04563986 0.08445303 0.20323831 9.868921e-05 0.24085128 0.16443978 0.1667661 -0.0028150817 -0.047824483 -0.29222316 -0.13282114 0.12969115 0.10986031 0.2314038 0.1496113 0.09583162 -0.19901292 -0.0325561 -0.40597495 -0.08250125 0.08615234 -0.1361138 0.27204835 0.11165363 0.11035207 -0.046299085 0.052527018 0.1353891 -0.11806183 -0.11845726 -0.1195258 -0.07142161 0.05590708 0.16198847 0.0143415965 0.11204971 0.1335703 0.08527417 0.08341086 -0.08846309 0.03877399 0.29568148 0.18243146 -0.07795218 0.15231635 -0.09713892 -0.083863184 -0.014716151 0.17639755 -0.044682868 0.14436883 -0.19882144 -0.084834196 -0.08031386 0.241344 0.19537345 -0.23133834 -0.04417512 0.07788011 0.020216886 0.04325317 -0.23776393 0.11767132 -0.10172566 -0.04512342 0.06323523 0.055366397 0.27472946 0.20434193 -0.123108536 -0.20218107 -0.042723183 0.15015121 -0.3215415 -0.026182208 -0.18746509 0.09643017
飞船 0.21092986 -0.1430463 0.13713633 0.20590696 0.13635774 0.18405923 0.05513656 0.019318009 -0.060831785 -0.041662183 -0.11859431 -0.15513037 0.14473167 -0.20030943 0.03807403 -0.06838845 0.2838326 0.09393858 -0.2747572 0.2954724 0.062298935 0.11242907 -0.013060187 0.014315727 -0.14053153 0.07826132 0.02699144 -0.05636088 -0.1784696 0.21650183 0.051207125 0.1317425 -0.100356765 -0.0824649 0.17727377 0.17215869 -0.032063667 -0.00878242 0.14004475 -0.08945101 -0.3048667 0.029112618 0.032817725 -8.899149e-05 0.35135716 0.0020090323 -0.056171477 -0.08458567 0.022094622 0.037917484 -0.06188005 0.10308497 0.084821194 0.018403431 -0.27068612 0.06575999 0.00415307 0.11398272 -0.011763261 -0.00083159964 -0.057848815 -0.18789746 -0.058522232 0.033093974 0.086624905 0.03443474 -0.18938605 0.26376045 -0.124187864 -0.2369725 0.13177755 -0.18578096 -0.31349242 0.030747743 0.1768728 -0.11391042 -0.016640507 -0.14503905 -0.15706438 -0.11518934 -0.010623042 0.013689791 0.15318309 0.098034956 0.0074111507 0.26263154 0.20603865 -0.19098015 -0.003513718 0.1226618 -0.05765357 -0.21330224 0.051420234 -0.080330014 0.07316648 0.18963209 -0.20891745 -0.21742374 -0.014329627 -0.18875067 -0.12057286 -0.2170737 -0.09364181 0.103866614 0.07003414 0.16524595 0.10190487 0.11975026 0.15100999 -0.08714588 -0.12095185 -0.17625357 0.07660835 0.18982115 -0.0036576176 -0.12133726 -0.031264655 0.058036 0.060617417 0.098822325 0.040743172 -0.049040332 0.08735033 0.15374188 0.07978832 0.14086474 0.16295376 0.120106 -0.17400157 -0.15015763 -0.043810494 0.0032501998 -0.0020560438 -0.091944344 -0.05528703 -0.15038519 -0.021589631 0.2876099 0.21818924 0.121300995 0.028947717 0.010548494 0.11821202 0.2973289 -0.23860085 -0.047363315 -0.08878589 0.10005854 0.15939489 -0.108253874 -0.3659363 -0.09241653 -0.11531174 -0.18558465 -0.26479363 0.1422659 0.19331852 0.09998479 -0.019978153 0.17571197 0.20920299 -0.006606309 0.122456096 -0.10926599 0.021736607 -0.14898272 -0.10362397 0.1045407 0.2456204 0.17802209 -0.14824797 -0.016824134 0.10746797 -0.006883795 -0.16484763 -0.13170364 -0.053018987 0.06184929 0.27608186 0.00471085 0.09408165 0.06306383 -0.067071475 0.15212311 0.10868677 0.16515481 -0.06108415 0.1887996 -0.10736844 0.0016387905 0.008422775 0.04133322 0.115099505 -0.03108404 -0.042365957 -0.019624116 -0.035413336 -0.24645878 -0.13914074 0.047140345 -0.15668023 0.18807893 0.2735369 -0.0454839 0.00048368744 -0.027031 -0.21248765 -0.06670367 -0.17488141 -0.10471034 -0.0044804635 0.10926914 0.21737379 0.022880534 -0.031489912 0.16145998 0.14850527 -0.02967598 -0.15671045 0.15131341 0.0064607724 0.10250025 -0.010622857 0.10893482 0.053579636 0.052220687 -0.026185121 0.27775076 0.043339193 0.07748214 -0.08704103 -0.262321 -0.12591474 0.14135364 0.10796486 0.20924146 -0.011418534 0.09425382 0.015549458 0.07107601 -0.05744052 0.013074485 -0.00018686261 0.04063409 0.10445312 -0.028080285 0.12223064 0.06697032 -0.14080201 -0.0670007 -0.07614751 -0.024497034 -0.11638997 -0.0035953645 -0.06050315 -0.0048089875
汪淼 0.18439552 0.036119357 0.16932155 0.007173408 0.024731562 -0.034568653 -0.0051943487 0.013207755 -0.0989725 0.031718425 -0.11442492 -0.025720028 0.14275594 -0.13009816 0.089589626 0.109126925 0.027733615 0.15782483 -0.011040864 0.14272065 0.08520356 -0.17020294 -0.07076074 -0.032035936 -0.09303781 -0.10431403 -0.048255194 -0.04479529 0.15111564 0.22393878 0.09247864 -0.20330457 0.0531194 0.120250024 -0.13426025 0.0047758976 -0.15651557 0.012092253 0.11504572 0.18952164 -0.051786263 0.025314312 0.098875344 -0.0130653465 0.09936634 -0.13789624 -0.0059335507 -0.0012989568 0.012762091 0.15153389 -0.042751458 -0.34798932 -0.10437873 0.07753206 -0.20172219 -0.18590076 -0.028147057 -0.1446596 0.078773946 0.18070158 -0.057802092 0.14038354 -0.088825 -0.04442636 0.010401035 -0.16585056 -0.018821489 -0.1401569 -0.019289516 -0.17840244 0.10884573 -0.05646257 -0.011799161 0.0687275 -0.09668028 -0.13949823 0.0107095055 -0.14026257 0.044499233 -0.07171659 -0.05938736 0.0493023 4.8240807e-05 0.11831909 -0.0041723102 0.13053112 -0.06992808 -0.113414764 0.00813198 -0.08808436 0.02594856 -0.11289066 -0.026914118 0.14797677 -0.04953223 -0.097140655 -0.088211186 0.14094648 0.03746127 0.14847006 -0.19691089 -0.0351047 -0.08094748 0.030527575 -0.14278574 0.024136033 0.064811 -0.009094692 -0.08116747 -0.027192092 -0.010430357 -0.00938462 -0.0050454154 0.06329647 0.246073 -0.043521583 0.04105996 -0.049738295 0.101446785 -0.027249161 -0.16966906 -0.100826025 -0.11387915 0.18049511 0.0135914525 0.02441945 -0.27669173 -0.06431381 -0.089561395 0.05337837 -0.095929295 -0.11543472 0.11451193 -0.06477762 -0.024543043 -0.14027636 0.047565486 0.103499286 0.0060262484 -0.05276083 0.03812418 -0.16123803 -0.06116874 0.0059496593 0.060497783 0.061733685 -0.096145704 0.09437681 -0.13611831 -0.18168476 -0.001098687 -0.24494962 0.119578525 -0.13764821 0.11536544 -0.048949216 0.08499009 0.039964568 -0.18284544 -0.027824957 0.07208282 0.10151219 -0.14778547 -0.13368656 -0.09737732 -0.113577306 -0.094351284 0.06956764 0.32365113 0.027126484 -0.027600126 0.030004887 -0.08090118 0.043146797 0.049596526 -0.06500486 -0.16240135 -0.0764703 0.25147793 0.13894661 0.03692832 0.072262295 -0.06275281 -0.13798869 0.102074765 0.1238059 0.0742411 0.17280132 -0.054462727 -0.027451959 0.048203547 0.058975182 -0.012696832 -0.045275304 0.00395793 -0.1995625 -0.2216624 -0.058710452 -0.09717536 0.065597944 -0.040832296 0.13341585 -0.0022936254 -0.098528996 -0.018230671 -0.21253651 -0.12696671 0.026529739 -0.17026009 0.0110676745 0.044249274 0.036671773 0.14062348 0.058531567 0.08941602 0.021293145 -0.04806834 0.06435718 -0.061730146 -0.080901295 0.0006983316 -0.089695476 -0.0799741 0.0070110755 0.13416593 -0.1011031 -0.20079643 0.21213205 0.13878186 -0.09096294 0.10655084 -0.0076256315 0.25956732 0.04493528 -0.046043243 -0.0047204676 -0.06680076 0.045789942 -0.0978626 0.039332245 0.009117344 0.066255316 -0.040492535 -0.0076932386 0.23055683 -0.13218695 0.09026509 0.016183484 -0.016884709 0.013409173 0.09805513 0.07003617 0.14989798 0.033859637 0.03806144 0.051747903
时间 -0.010509585 -0.051465653 0.0972491 0.07728674 0.19941017 0.087097205 0.11942063 -0.1091931 0.06601134 -0.11363587 -0.095857024 0.0010234452 0.044062037 -0.06750305 0.06422397 -0.050061125 0.16422601 0.040103145 -0.12322138 0.18932094 0.069044076 0.051502608 0.03811883 -0.05030543 -0.10421173 0.032401558 -0.06007286 -0.0692926 -0.044596598 -0.04436448 0.117624484 -0.13126986 0.09948369 0.09953815 -0.08348055 0.13600814 -0.083265245 0.04389828 0.17520171 0.02532494 -0.24922167 -0.02538261 0.14487632 -0.10135946 0.15559503 -0.049454134 0.12238326 -0.19320288 -0.077460766 0.092752635 0.032918483 0.12984037 0.033864003 -0.044594385 -0.29457557 0.06958019 0.122101024 -0.17545609 -0.046728794 -0.10108269 0.06177795 0.056489803 -0.20796949 -0.041757595 -0.011548926 -0.08233034 -0.09124423 0.14242378 -0.08488068 -0.07117795 0.1545081 -0.30448365 -0.1882213 0.21093547 0.043367956 -0.078000955 -0.19459364 -0.076962754 0.11673321 -0.0015568528 -0.027433084 0.05896125 0.0127497455 0.12494773 0.13305873 0.23322022 -0.03396996 -0.21009015 -0.013004034 -0.04340338 -0.05970623 -0.21965276 0.09448653 0.07172167 0.1488125 0.047864288 -0.11286906 -0.075447105 -0.11717017 -0.08043 -0.17788985 -0.25325304 0.0061326916 -0.06700285 0.12067012 0.0404075 0.121982776 0.001015237 0.0060700853 -0.04508797 -0.1416338 -0.036128778 0.13500676 0.17420925 0.020084072 -0.12436235 -0.03080537 0.1427118 0.042349096 0.0064746635 -0.01283365 -0.025592959 0.14637394 -0.0062013185 -0.013020089 -0.07736527 -0.11266766 0.030686835 -0.0582334 -0.0927943 -0.06989793 -0.3110115 0.00048105317 -0.0017748163 0.093007654 -0.16331337 -0.027864207 -0.002955832 0.23831517 -0.06833878 -0.043107085 -0.13633034 0.24396455 0.2169404 -0.06939314 0.017688565 0.017324118 -0.054139476 0.047382493 0.020989174 -0.2079514 -0.044501178 0.032684065 -0.08249709 -0.10587334 0.098151915 0.3192892 0.05201363 -0.07992538 -0.07330754 0.2131873 0.009750041 0.053868346 -0.036196146 -0.013114898 -0.10041618 -0.05498174 0.03685354 0.2879403 0.043566216 -0.112768896 -0.18448776 -0.045414407 -0.05932048 -0.109825745 -0.1619899 -0.06725097 0.03309645 0.26287416 -0.009125447 0.058486857 0.21594888 -0.032744855 -0.14019981 0.13934979 0.11480572 -0.22643195 0.20211366 -0.32862777 0.04351885 0.06970963 -0.0210543 -0.03571838 -0.0134061575 -0.02406662 -0.18326041 -0.13437048 -0.23395415 -0.035537448 -0.10502999 -0.083214924 0.061681565 -0.06361522 0.088156536 -0.072957 -0.066060364 -0.24897867 -0.115697 0.0060862736 -0.04789299 -0.01840224 0.004117963 0.18274902 0.12066059 -0.087575264 0.14407423 0.044195645 -0.016360166 -0.1584197 0.08067982 -0.06909671 0.031658366 0.1223316 0.037134554 -0.004918257 0.03286394 -0.15433115 0.08173601 0.19515449 -0.03574149 -0.13993941 -0.083637156 0.11960237 -0.008712156 0.10638668 0.13882746 0.08368264 0.09523786 0.0044832863 0.01188995 -0.010376932 0.008228176 -0.1922347 0.145941 -0.020276073 -0.056289032 0.041992195 0.22204846 -0.2912672 -0.12922613 -0.0015219817 -0.07065039 -0.029619168 -0.06616134 0.044219 -0.058785286
两个 -0.059372734 0.05130858 0.18371467 0.18270436 0.21007653 -0.10384114 0.16460104 -0.020466018 0.020163944 -0.2148425 0.015371767 0.00836845 0.056439117 -0.024139399 0.04955572 0.044900183 0.168888 0.061567657 -0.04446112 0.17011757 0.09639408 -0.010211226 0.08489797 -0.09842245 -0.21854226 -0.09622043 -0.07020406 -0.0072990498 -0.14322345 0.09392662 -0.023838632 -0.07967071 0.018479504 0.12653823 -0.1303498 0.054182727 0.012980789 0.02921242 0.24736233 -0.018852755 -0.2609966 -0.014415823 0.15154468 0.06986435 -0.013218686 -0.08830615 0.1037832 -0.10804 -0.06415058 0.06640435 0.018289905 0.0065095294 -0.1524136 -0.05172736 -0.19815002 0.035238344 0.029295882 -0.17836049 -0.04180642 0.17127296 0.020965211 0.04532575 -0.19427663 -0.10761256 -0.021100016 -0.09766223 -0.123250954 0.11515611 -0.07057073 -0.02952488 0.08990328 -0.30707175 -0.05934566 0.013774638 0.022298295 -0.1098712 -0.1511898 -0.18593794 -0.05250073 0.123461984 -0.15136822 0.12822065 0.026012927 0.20434149 0.03977745 0.046743967 -0.0132301925 -0.16724968 0.026399925 -0.120783776 -0.05037434 -0.19815207 0.08744432 -0.003954273 0.099513665 0.024656424 -0.084309414 0.047564726 -0.008239742 0.020749144 -0.29877356 -0.15815866 -0.053147186 -0.03324779 -0.022903262 -0.036434073 0.14584953 -0.1281558 -0.033048604 -0.08476451 -0.08557793 -0.16398317 0.058978632 0.1398579 0.06300342 -0.062078122 0.09175204 0.008299803 0.07149166 0.034716975 0.067491196 0.052879736 0.11880793 0.016278554 0.0682627 -0.16625737 -0.076807305 -0.036269832 0.09133464 -0.031198854 -0.008116134 -0.26411128 -0.0980465 -0.091407396 -0.03648116 -0.07513028 -0.0516836 0.014670501 0.038666133 -0.017862352 -0.19569848 -0.028579298 0.20743702 0.09001687 -0.11894598 0.14587303 -0.0032450594 -0.12805659 0.11454879 0.08832193 -0.059962865 0.017181354 -0.014643178 0.00815295 -0.09821846 0.1133033 0.3131688 -0.024193514 -0.14276353 -0.04376241 0.1401513 -0.042718463 0.12593493 -0.046302292 -0.11781039 0.048576467 -0.027372235 0.119887985 0.3504342 0.0009930504 -0.06207857 -0.05980327 -0.035174925 -0.16558984 -0.15265007 -0.12754467 -0.14147498 -0.09061104 0.34096345 0.05098586 0.06584476 0.08500088 0.06395003 0.1494209 0.035651952 0.17774586 -0.13996051 0.08295196 -0.41985863 0.08577332 0.061907765 -0.012053089 -0.08694691 0.1032213 0.0027086101 -0.22208327 -0.11081467 -0.2223883 -0.11995938 -0.0155710885 -0.1291897 0.061645184 -0.025770772 0.049994238 0.019081617 0.059488438 -0.060274303 -0.11643083 0.04610113 -0.053656556 0.04825692 -0.048672076 0.11819666 -0.07409488 -0.04638463 -0.0064539453 0.067434 0.06336771 -0.28129843 -0.032467358 -0.07801063 -0.06285867 0.22778228 0.0099025 0.036703512 0.058748107 -0.1594871 0.050769273 0.06555044 -0.13485718 -0.033128884 0.1626397 0.096337885 0.06683522 0.122321405 -0.16845587 -0.103919476 -0.007075559 0.07624718 0.006792343 -0.14003533 -0.0063192034 -0.17647555 0.012879939 0.0053280545 -0.07473867 0.0059954617 0.1570148 -0.23849776 -0.141561 -0.11291261 0.041760776 0.097140945 -0.115534894 -0.044377465 -0.08705576
前 -0.08153527 0.102426894 0.1287871 0.1360543 0.18310757 -0.13742475 0.17206183 -0.099006034 -0.035118744 -0.18439272 0.049533784 -0.029866962 0.12808456 -0.04289092 0.0044187447 0.13452831 0.08550616 0.07644935 -0.056168754 0.15376525 0.10229493 -0.09238645 0.084896065 0.0009853747 -0.13774295 -0.19759025 -0.0685895 0.026258474 -0.073549084 0.102392994 0.0259243 -0.10302254 0.07109691 0.025629712 -0.14581615 0.08052546 -0.038848024 0.01978847 0.12913565 0.008827114 -0.22203328 -0.021805022 0.19034114 0.010557378 -0.11461751 -0.08261255 0.10787158 -0.16181062 -0.08268065 0.07827332 -0.0179381 0.027371306 -0.13602056 0.0019895395 -0.20832765 0.029959828 -0.026321936 -0.17495799 -0.008149076 0.18106182 0.060324237 0.063403994 -0.184051 -0.03989629 -0.00074678345 -0.06541833 -0.14467551 0.04633645 -0.011071226 -0.18255402 0.11592885 -0.26429424 -0.14075056 0.09588266 0.06360954 -0.1545798 -0.133016 -0.22988282 -0.032740798 0.090495296 -0.11597407 0.13237546 0.13914439 0.08354012 0.06325166 0.03373423 0.02088904 -0.11777333 -0.009992139 -0.10853608 0.00076068804 -0.18449956 0.07122069 0.06459145 0.06276531 0.05501299 -0.06103628 0.05827749 -0.04110642 -0.025591103 -0.31634137 -0.09116965 0.0008681178 -0.032652374 -0.00087477954 -0.014655026 0.12139731 -0.07476844 -0.043439742 -0.053029474 -0.005073287 -0.16090569 0.08621657 0.09757528 0.1089902 -0.06867941 0.05541193 0.060791157 0.08961907 7.1008926e-06 0.0490962 0.07721451 -0.029939547 0.019036027 0.1453918 -0.11964239 -0.0881144 -0.027032925 0.03145824 -0.024534076 -0.003614564 -0.21952747 -0.048152544 -0.05144485 -0.04196896 -0.10513908 -0.053804625 0.039475184 0.05764272 -0.057279155 -0.1590554 0.013378528 0.20607345 0.116643734 -0.10836041 0.07359475 0.0016786647 -0.11278618 0.19411299 0.04946706 -0.121420234 -0.00029321434 0.025546098 -0.04442053 -0.030189758 0.12343196 0.20342737 0.044000708 -0.055531565 -0.11750954 0.12950051 -0.037413225 0.07739752 -0.087264344 -0.12935933 -0.027178159 -0.004187583 0.17752457 0.31808951 0.07741739 -0.09608122 -0.046249725 0.048459526 -0.13639635 -0.11289248 -0.031101985 -0.1040601 -0.040998466 0.35770327 0.01047949 0.039221343 0.0945095 0.019051146 0.115012705 0.015661694 0.22204328 -0.07091439 0.12853698 -0.32373118 0.09459349 0.104158305 0.00434578 0.019566586 0.042316545 -0.02405738 -0.21539252 -0.07507612 -0.23460738 -0.17826839 0.021488275 -0.1361451 0.118976295 0.0662017 -0.0148951225 0.019123605 0.043875195 0.0024033526 -0.0935069 -0.048478294 -0.078566745 0.018448075 -0.0007584627 0.10952497 -0.04559747 0.043471284 0.033863124 0.025142448 0.033511296 -0.23039281 0.016959399 0.034648795 0.0026104648 0.11262576 0.04527675 0.081731945 -0.033180337 -0.1850448 0.049557213 0.027246444 -0.08347542 -0.12655331 0.12920497 0.048802026 0.09621897 -0.007637538 -0.15029418 -0.06489389 -0.024589555 0.029829357 0.033269033 -0.18250602 0.05100672 -0.12583357 -0.084666826 0.06833618 -0.08059634 0.07306371 0.15195958 -0.17364769 -0.15358381 -0.067611925 -0.0007894888 0.048282064 -0.045591854 0.04676971 -0.060976133
文明 0.12813033 -0.29247016 0.3264867 0.2688882 0.13645718 0.11445359 -0.12462774 -0.12982252 -0.0125862835 0.009580934 -0.14387906 -0.018143618 0.061849684 -0.285098 0.14361304 -0.0403151 0.19942561 0.10774248 -0.072260514 0.41880935 -0.049641825 0.18841581 0.04638537 -0.2648793 -0.29194823 0.11672281 0.18172497 -0.16971764 -0.23853205 0.20421657 -0.08120377 -0.18350238 -0.09165904 0.2055292 -0.15766376 -0.036763437 -0.053986654 -0.07872655 0.11502156 -0.0017459939 -0.23237641 -0.17794949 -0.08219749 0.09201233 0.3084775 -0.025972042 0.032419167 0.10995958 -0.117444165 0.23218846 0.013006238 -0.12174724 -0.012818315 -0.18064047 -0.15795946 0.0021242618 0.1847541 0.012390651 0.010894882 0.030072566 -0.23241521 0.06507772 -0.14596263 -0.2026954 -0.057462484 -0.06846124 -0.046522617 0.12802441 -0.13953333 -0.0010499049 0.066013165 -0.21296309 -0.042347115 -0.13961278 -0.17814258 -0.03518778 -0.08272288 -0.111957826 0.028511621 -0.08106726 -0.15788673 0.11716521 -0.25312805 0.21459903 -0.103026636 0.15657763 -0.0031690383 -0.19059739 -0.00665592 -0.15749876 -0.15019424 -0.21785806 0.14204234 -0.16328086 0.144506 0.07910474 -0.12099615 -0.12543991 0.13774587 0.033047535 -0.24896337 -0.12883113 -0.12907472 0.023207126 -0.024445012 0.0049928236 0.15255775 -0.055753946 -0.11774125 -0.24326237 -0.38276222 -0.23964895 -0.04818755 0.21230939 0.13735078 0.010645835 -0.013351408 0.10655327 -0.028943276 -0.046962846 0.0040240497 -0.1850504 0.09649694 0.24519145 -0.12618682 0.076218754 0.03354359 -0.015806962 -0.028334549 -0.15059242 0.07580371 -0.18445793 -0.14579141 -0.18349716 -0.082529455 -0.19765583 0.11840644 -0.16456854 -0.033099677 -0.005972325 -0.15770347 -0.35490933 -0.030234518 0.30585802 -0.105519585 0.063911825 0.0071205357 0.00798318 -0.14455982 0.2507441 0.14081238 -0.30003643 -0.018969126 0.014461261 -0.2613051 -0.057141393 0.45013717 -0.19249356 -0.4244235 0.057340708 0.063549116 0.010384294 0.054641612 -0.1336617 0.11181674 0.012190363 0.07941047 0.035066266 0.25217035 -0.021546649 -0.055424016 -0.22029267 -0.0271845 0.14928243 -0.08908591 -0.37110668 -0.042948328 0.036075827 0.23364253 0.038117748 0.04241875 0.13526084 0.052997995 0.16246383 0.15366584 0.03876218 -0.1947412 -0.1933814 -0.11463146 -0.24207225 0.104512215 -0.09408302 -0.17971967 0.17122385 0.25142568 -0.23849016 0.061783165 -0.18473528 -0.14970091 -0.1271408 -0.075169004 0.025920244 -0.10222557 0.2582013 -0.22532542 0.014113708 -0.27270257 -0.17193279 0.030095154 0.15269811 0.090013295 0.040645126 0.2759631 -0.08025167 -0.10521942 -0.06836618 0.15374197 0.21751791 -0.38988307 -0.34609926 -0.2948104 -0.07022365 0.058117077 -0.07662777 0.05579885 0.2795228 0.09888561 0.028803159 0.1371562 -0.13275419 0.08422386 0.083180636 0.12551486 0.15247984 0.2758895 -0.030111996 -0.1463632 0.0141154975 -0.07628408 0.029726576 -0.00051733817 -0.07120363 -0.25003368 0.12995367 0.013931902 -0.13883421 -0.034530733 0.16847877 -0.38257852 0.04131312 -0.12060725 0.1651671 0.14035048 -0.040546697 -0.10302761 0.018880013
东西 0.13448845 -0.065065525 0.102735534 0.12437043 -0.0013291216 -0.005112645 0.04393283 0.05476654 -0.08460497 -0.061067816 -0.16570345 -0.060383882 0.05868059 -0.05322668 0.13506784 -0.044980764 0.10509951 0.1412723 -0.019852098 0.12363436 0.06800434 -0.018094651 0.036833055 -0.05902612 -0.106783226 -0.027859155 0.0013256688 -0.0965983 -0.095180705 0.26033098 0.027103562 -0.06878745 -0.10343774 0.08040479 -0.0762179 0.023744134 0.13159794 0.0204119 0.15466699 0.086377494 0.025622027 -0.00017836672 -0.05597923 0.0033979476 0.13177408 -0.08375884 -0.03941805 -0.06748601 0.107999414 0.15082085 -0.119254604 -0.17446968 -0.071968764 -0.082958184 -0.20851068 -0.15230255 -0.03617028 -0.07720427 0.09867732 0.26921576 -0.049663473 -0.04963559 -0.09892775 -0.042462595 -0.025170831 -0.049724784 -0.04373908 -0.054076586 0.02070745 -0.110160224 0.0370459 -0.16287422 0.048304837 0.048733484 0.09094542 0.017489996 -0.04943882 -0.14212242 0.02111143 -0.048890494 -0.0150015745 0.01936331 -0.04856766 0.15438378 -0.03348274 0.1258091 -0.021786315 -0.111978784 0.015791856 -0.06461029 -0.018016957 -0.09216125 0.087425455 0.045697782 -0.039125547 -0.017294778 -0.065862305 -0.023842337 0.013907234 0.14006904 -0.16932648 -0.046229485 -0.026312223 0.031605218 -0.057167243 0.080388926 0.037371475 0.047556415 -0.01330575 -0.085115865 -0.04940991 -0.15687002 0.0036319124 0.13485591 0.08966376 -0.05594304 0.06024289 -0.08930097 0.13447416 4.643378e-06 -0.18301176 -0.07544061 0.02117594 0.20244583 0.05565164 0.05365585 -0.0653642 0.05489971 -0.114144176 -0.09964125 0.09045023 -0.11397291 0.0077708405 -0.14285529 -0.121667 -0.15898326 0.10173692 0.09779991 0.021229789 0.024472903 -0.0772888 -0.15682437 -0.13916583 0.18421493 -0.07247284 0.029900484 0.06154533 0.019012518 -0.12361962 -0.061740614 -0.0772672 -0.21321572 0.107954115 -0.07324191 0.09187341 0.010005156 0.14512877 0.01224299 -0.0661759 -0.029718062 0.13461147 -0.028409148 0.032764584 -0.123144016 -0.10689662 -0.10798027 -0.118224405 0.004918414 0.18598717 0.007888833 -0.0666104 -0.033461057 -0.0073172706 -0.019770935 -0.045689322 -0.16718242 -0.13252684 -0.06632627 0.14568171 0.010643403 0.032548472 0.020318514 -0.015048659 -0.03964611 -0.015494067 0.08676131 -0.031840824 0.11135011 -0.107128665 -0.09273232 -0.033502292 -0.028725956 -0.023814742 -0.041388396 -0.0045851767 -0.0747909 -0.17532752 0.04135711 -0.11698169 0.03204213 -0.013935835 0.21472892 0.04658766 -0.10584202 -0.13148023 -0.065639585 -0.22191954 0.073441856 -0.18020621 -0.028069865 0.047545325 -0.040698193 0.16981214 0.014818134 -0.048963174 -0.06961323 0.069203675 0.12699603 -0.05420384 -0.10071982 -0.063287176 -0.07667503 -0.014496509 -0.007676574 0.14281544 0.042890646 -0.1558464 0.2097684 0.15769406 -0.07363764 0.020166174 0.07186606 0.1755844 -0.066953234 0.06098032 0.103818014 -0.053652912 0.001276023 -0.04838353 -0.005230527 -0.03142495 0.07835346 -0.010516421 -0.03487615 0.049768165 -0.13260908 -0.021783464 0.06495123 -0.14332241 -0.031006863 0.001440376 0.020161187 0.17325523 -0.0535674 0.00079077424 0.00665199
发现 0.14803605 0.004953779 0.15329722 0.09653754 0.08311527 0.047443107 0.014133004 -0.022362977 -0.17569141 -0.024368322 -0.14784066 -0.025246844 0.16421829 -0.18328564 0.0438664 0.13566972 0.096968494 0.08217149 -0.055988867 0.18520449 0.091561735 -0.101538844 -0.0790228 -0.055639584 -0.0657768 -0.032065637 -0.0375339 -0.08779454 0.024503184 0.16281292 0.061605822 -0.05454308 0.12665796 0.03607876 -0.056864962 0.07742024 -0.16061956 -0.04334999 0.00082148786 0.07979157 -0.04010258 0.01119299 0.08809381 0.032768372 0.09134904 -0.12469428 -0.0683651 -0.034175783 0.0074955956 0.08252695 -0.011242712 -0.18127494 -0.05152294 0.049817823 -0.25368166 -0.13456774 0.028229538 -0.07203873 0.03110221 0.19284481 -0.011728949 0.027308036 -0.07488745 -0.024664478 0.03416944 -0.10990492 -0.0054999096 0.013026713 0.0017763126 -0.22145076 0.036344673 -0.10127929 -0.07820982 -0.011776023 -0.06118001 -0.18905798 -0.0076173986 -0.0916863 -0.021940753 -0.026769016 -0.120738246 0.027874934 0.03074933 0.058273356 0.033736803 0.10801972 0.05962675 -0.11809605 0.06295446 -0.041850246 -0.008135449 -0.12150543 0.057430778 0.05080674 0.023602882 0.034997195 -0.042099524 0.07175818 -0.054043755 0.006812333 -0.22469978 -0.05649995 -0.050639648 0.033857588 -0.062822305 0.04502949 0.12670724 -0.025691388 -0.020559605 -0.046515156 -0.03259115 -0.050834253 0.045092877 0.019049237 0.16278517 -0.0019354448 0.075500675 0.013781893 0.036946163 0.014298885 -0.051528737 -0.06769839 -0.08284181 0.1312138 -0.008459686 0.04955934 -0.13173349 -0.03667117 -0.030216124 -0.040453654 -0.09374556 -0.0682079 0.00985758 -0.09095552 -0.05282747 -0.1604727 -0.055039674 0.035805516 0.0875301 -0.030996824 0.033214938 -0.11223032 0.046837673 0.08459934 -0.058091555 -0.0007987277 -0.08060521 -0.010916822 -0.064800225 -0.051394034 -0.07142481 -0.20752142 0.096608885 -0.11403598 -0.033778057 0.0039564176 0.119334556 0.059348203 -0.13026011 -0.041239776 0.07676772 0.11520761 -0.062694535 -0.03643902 -0.057462662 -0.08303017 -0.05247294 0.13625228 0.2160826 0.07832487 0.023282288 -0.04189305 0.08424186 -0.03234883 -0.06611208 -0.012532042 -0.11943699 -0.0027491748 0.24788693 0.06840465 0.020680094 0.07784774 0.0051207026 0.009541316 0.1443597 0.16267397 -0.043544855 0.11621078 -0.09562621 0.008159645 0.039638642 0.04355112 0.004265371 -0.045448698 -0.02079246 -0.13349955 -0.07095442 -0.13054617 -0.07410177 0.03944647 -0.08341907 0.042346217 0.08601665 -0.009635412 0.05122425 -0.08677466 -0.12735638 -0.12298876 -0.12998545 -0.07322233 0.032869544 0.09703158 0.15551081 -0.014328629 0.06176702 0.04455042 -0.050171416 0.014564241 -0.11644716 -0.04196343 -0.009459398 -0.022567928 0.037727762 0.037529744 0.084149905 -0.019146586 -0.09666273 0.12192701 0.08593871 -0.02235937 0.01169138 -0.081557386 0.10018199 0.06350307 -0.027427558 0.09751964 -0.00565942 0.07484767 -0.02853282 0.09121816 -0.053704977 0.028869687 -0.095159926 -0.017889613 0.14266805 -0.101135746 0.014313648 0.041688304 -0.078100584 -0.023094648 -0.010233336 0.013218863 0.1058714 0.0690842 0.03743783 -0.016375298
做 0.08350051 -0.10029125 0.13093586 0.1830636 0.047869988 0.10347094 -0.07683932 -0.14454362 -0.26224756 -0.050241124 -0.14883958 -0.015528015 0.09124015 -0.23171923 0.065249346 0.052433837 0.03878525 0.10111685 0.003532011 0.27135086 0.03845937 0.016828299 -0.004523811 -0.12867932 0.024633704 -0.007052767 -0.0030679428 -0.12171619 -0.11838927 0.16219382 0.14077398 -0.12207075 0.037110705 -0.08150051 -0.04315759 0.05839847 -0.052702542 -0.05455863 -0.036171623 -0.0446413 -0.004321124 -0.09586597 0.09768516 -0.10705424 0.19602746 -0.07647221 -0.085900836 -0.064893395 -0.052958887 0.18269847 -0.03003468 -0.088821255 0.023961538 -0.055975787 -0.23220734 -0.0447391 0.082964614 -0.053921465 0.124165274 0.19337581 -0.051999655 -0.031178461 -0.071331225 0.028837238 -0.085293144 -0.03119266 0.04031942 -0.07687535 0.07246516 -0.17180729 0.124711215 -0.12509505 -0.05672267 0.07123069 -0.025587734 -0.09356569 -0.026289787 -0.15507202 0.16802588 -0.1544436 -0.1681882 0.17428377 -0.087219715 0.022329226 0.04766237 0.08216101 0.123987205 -0.010196478 0.02051968 -0.1646557 -0.0002826295 -0.11593372 0.16229305 0.02148612 0.052409288 0.13167605 0.00061947317 -0.10070168 -0.07905052 -0.049614247 -0.17441253 -0.08158774 0.0022754231 -0.05910571 0.013308905 0.04925451 0.12793839 0.010968138 -0.037673123 -0.16439554 -0.054549396 -0.0070921183 0.04128908 -0.0061406777 0.021755937 -0.064845756 0.00974911 0.08354942 -0.0439247 0.021013157 -0.050480682 -0.05537101 -0.03072669 0.21205053 0.0020879833 0.089793086 -0.061262157 0.016663192 -0.16710082 -0.15559731 0.0058672135 -0.03405253 -0.08184956 -0.0562516 -0.22821486 -0.18009722 0.18812335 -0.034407914 -0.039084435 0.06052674 0.064264305 -0.1700757 -0.016709661 0.24935582 0.0014209163 -0.14402209 0.039781056 -0.04054821 0.011181278 0.015752502 -0.16724923 -0.2679013 0.1711159 -0.10768501 0.033857483 -0.019350696 0.025722113 0.18749088 -0.13593236 -0.14287235 0.10031375 -0.06209316 0.16450234 -0.20717889 -0.062280077 -0.27601954 -0.11950431 0.150178 0.07041083 0.1550042 0.03696612 -0.22210121 0.14351471 0.06332178 -0.037563954 -0.028319929 -0.09422323 0.08085315 0.2410671 -0.10766012 0.08603774 0.24284291 0.14028454 -0.1830122 0.1105359 0.24669838 -0.07235739 -0.019194974 -0.097912975 -0.15995453 0.17722805 0.020522851 0.08970237 -0.100169286 0.023437297 -0.16428456 -0.034332108 0.007111822 -0.0938916 -0.04386038 0.033362955 0.23636305 0.03767746 0.018956741 -0.119792975 -0.035825808 -0.2282598 -0.040316127 -0.16333775 -0.06871717 0.057098974 0.058476333 0.15916567 0.047887668 -0.0012360982 0.06967449 -0.0053414525 0.010721498 0.04130476 -0.09383934 -0.008902216 0.07542457 -0.16826871 0.02435678 0.113460615 0.07259386 -0.15262222 0.0728457 0.16708422 0.08269467 -0.14337185 -0.078701936 0.14069581 0.06984239 -0.008201606 0.2831709 0.017419549 -0.016223425 -0.09842171 -0.01851549 -0.051535897 0.060845535 -0.1636829 -0.053223908 0.06461871 -0.15930042 0.041382764 0.122690275 -0.07802054 -0.13196005 -0.007167099 -0.011479663 0.10790435 0.18066981 0.0564426 0.055161446
这是 0.065402426 -0.06686983 0.14659785 0.11667449 0.13727573 0.030060964 0.0832995 -0.027646687 -0.10080209 -0.03235985 -0.072320856 -0.06809406 0.09889175 -0.1354594 0.108603776 0.06629478 0.077191904 0.07519934 -0.069015324 0.20610191 0.0155933 -0.004785152 -0.0073026703 -0.13685013 -0.094112605 -0.040842783 0.018352516 -0.047216095 -0.080596745 0.14112084 0.048207767 -0.01582661 0.004094378 0.07603715 -0.06766849 0.040557437 -0.006107229 -0.0119943125 0.05734773 0.027299661 -0.1373422 -0.017860482 0.037082534 0.009672486 0.120278016 -0.14237043 0.007954445 -0.044529807 0.009251412 0.072810516 -0.05974882 -0.072900034 -0.05679018 0.0068101115 -0.17481092 0.024963995 0.0039252476 -0.077827044 -0.0005208733 0.1182991 -0.051753495 0.061524183 -0.09425898 -0.041503325 -0.042911533 -0.077683024 -0.029664535 0.08181452 0.008313879 -0.13856228 0.071103156 -0.11227408 -0.09228365 0.0030713722 0.011236482 -0.047406998 -0.069367416 -0.20523293 -0.0022807494 -0.028042791 -0.08554788 0.07927435 0.02239338 0.118107535 -0.014130448 0.08843115 0.029217724 -0.11065038 -0.042893074 -0.084145695 -0.02441605 -0.11562616 0.06620072 0.0013258284 0.0043765185 0.06540873 -0.13013813 -0.0061436356 0.00022316579 0.020982904 -0.21864122 -0.117802195 0.012361394 -0.01377317 -0.016382085 0.076514445 0.115165606 0.06980832 -0.009042465 -0.08875418 -0.09123029 -0.14572726 0.061950244 0.099281736 0.013131705 0.0055165193 0.025899863 0.06138531 0.05168187 0.065715045 -0.028498298 -0.008413479 0.045683924 0.08938672 0.06537677 0.050484885 0.031626657 0.04088502 -0.107773006 -0.06079544 0.022944348 -0.09538737 -0.013325268 -0.058635212 -0.05263242 -0.07464042 0.059434325 0.075229235 0.034600474 0.04848253 -0.016502542 -0.098192975 0.040785376 0.13883217 -0.07073091 -0.00438135 0.037161455 0.030188246 0.029219152 0.0002942343 -0.07272659 -0.17772596 -0.019951299 -0.09324544 -0.014825695 0.033164006 0.17363353 -0.044431824 -0.11696901 0.0007559076 0.080319256 0.0010739389 0.06859236 -0.07955646 -0.06373296 -0.08211645 -0.082876764 0.07480533 0.21205546 0.0643557 -0.08218508 -0.04478498 0.038330406 0.026592528 -0.11827249 -0.091181196 -0.046184033 0.017319724 0.2397881 0.035501007 0.06001253 0.07503541 -0.024810469 -0.002792475 0.09291123 0.10947108 -0.018893968 0.029096764 -0.10990697 -0.010936524 0.016162224 0.025717856 0.07098484 0.023550954 -0.03262957 -0.09093699 -0.015800595 -0.10219106 -0.130832 -0.02853881 -0.025294164 0.112473994 0.07297989 0.0035181832 -0.0673579 -0.00961425 -0.10209714 -0.052965283 -0.07741325 -0.006973277 0.003669594 0.044597708 0.15100725 0.05258609 -0.036293134 0.020700756 0.05926857 0.017362755 -0.09621599 -0.05757058 0.014527157 0.07470834 -0.019959543 0.089008294 0.049771283 -0.035050727 -0.04895129 0.09204292 0.021845203 -0.075456105 -0.033035114 -0.018036682 0.08668558 0.047506865 0.050766822 -0.023132334 -0.017064227 -0.0159588 -0.051679224 0.009748654 -0.078499444 0.039133254 -0.06895706 -0.010582243 0.07582019 -0.09845571 0.05010433 0.044270057 -0.101179086 -0.040368028 -0.048438672 0.046060536 -0.006795126 -0.02777635 -0.054207753 -0.04033337
信息 0.12762813 -0.2117266 0.22685562 0.31841296 0.24266416 -0.0793833 -0.1370876 -0.1445993 0.015535978 -0.14677233 -0.1698445 -0.017604724 0.37037778 -0.22423932 0.050468173 0.14011925 0.15145983 0.048516065 -0.22887155 0.20233655 0.27198824 0.039558053 0.24803983 -0.23298983 -0.2739397 0.026229983 0.15821293 0.018152665 -0.09075912 0.30434436 -0.1541427 -0.17265736 0.012778622 -0.0383912 0.20665874 0.27363157 -0.17325935 -0.1512151 0.045096714 -0.04447529 0.03958216 -0.15355667 0.037472587 -0.06460321 0.17946248 0.20718633 -0.0056518107 0.06422938 -0.021490192 0.02764362 -0.08795362 -0.15659253 0.0068250983 -0.12469931 -0.25051156 -0.19430044 0.08762707 0.070664 0.026812525 0.22112004 -0.091964394 -0.2341004 0.05170979 -0.09825878 -0.17906971 0.00848652 -0.009411111 -0.100158155 -0.008471585 -0.1070673 -0.2641391 -0.14582622 -0.37119773 -0.07892132 0.098982215 -0.3151323 0.09942096 -0.006938908 0.04180739 0.13573216 -0.17490122 0.2556535 0.03938261 0.09326827 0.20955107 0.05746258 0.2621878 -0.015411132 0.12077693 0.020790147 -0.22117905 -0.27589893 0.12520619 -0.0002527647 0.047545735 -0.033720993 -0.12390537 -0.14180735 -0.06184678 0.040873498 -0.11841425 0.12671053 -0.09804137 0.0064458908 -0.18702942 -0.23055351 0.26500356 0.07526637 0.0028922062 -0.24190748 -0.1204134 -0.111749046 0.011167401 0.06280964 0.098912194 -0.08270915 -0.07426057 0.027173279 -0.21867453 -0.16237395 -0.00081004394 -0.055400606 0.009187062 0.27099308 -0.069046184 0.3577444 -0.14469622 0.0086725475 0.060155 -0.16525388 0.00245796 -0.049703475 0.17504801 0.08950111 -0.20503537 -0.19467226 0.07481351 -0.23307908 -0.02168793 -0.14977884 -0.174293 -0.2181844 0.11471269 0.2859156 -0.19870143 -0.15404673 -0.25942355 -0.12865208 0.05087021 0.28322598 0.009681607 -0.2842084 0.2545408 -0.12021177 -0.1488134 -0.088688634 0.07267673 0.16867602 -0.33036652 -0.020636534 0.073270805 0.0025499084 -0.003886952 -0.051309973 -0.114227064 -0.16336267 0.12063769 0.035585836 0.10205791 0.35986504 -0.020236788 -0.18497351 0.0031229204 0.027836496 0.130825 -0.1528003 -0.22111021 0.043254443 0.24872187 -0.094400935 -0.15610525 -0.018882645 0.066822834 -0.05266037 0.006268385 -0.10417304 -0.07924763 0.027337076 -0.0315722 -0.018205028 0.01926337 -0.18332599 -0.16818607 0.08992171 0.4083582 -0.09039929 0.14815715 -0.33320057 -0.21403112 0.064535186 -0.046433024 0.063838795 -0.009708461 0.104960226 -0.033849586 -0.027990364 -0.3302452 -0.23989028 -0.021305256 0.010708422 0.14991184 0.29710698 0.3619187 -0.24454843 0.097110786 0.16824834 0.1990059 0.05776995 -0.3406735 -0.06292931 -0.371585 0.036619 0.09512564 -0.027405394 0.12209999 0.25362834 -0.09911855 -0.10197841 -0.082775 -0.13710791 -0.075284556 0.17183016 -0.03927178 0.1294735 0.0981069 0.23700471 -0.21802005 0.18090527 -0.12645568 0.15342076 -0.11942962 0.014804226 -0.29086813 0.005569861 0.262481 -0.13102399 0.028080104 0.0049983026 -0.39657316 -0.09086361 -0.24519318 0.1903945 0.19283055 0.06130965 -0.1220771 0.04619905
叶文洁 -0.040835112 -0.107082404 0.014145229 0.08582804 0.06525843 -0.24280526 0.13970053 -0.06195148 -0.06110978 -0.20116886 -0.046088703 0.011665693 0.21759653 -1.6209204e-05 0.054354664 0.21624564 0.03888507 0.049505204 -0.0016985399 0.22553909 0.1758381 -0.068246596 0.04781726 0.04770502 -0.018805271 -0.18433964 -0.07232521 -0.04126389 -0.047530845 0.24960846 -0.05118072 -0.14184898 0.14291333 -0.13868532 -0.19300392 0.09390808 -0.19830805 -0.07816492 0.021200009 0.04762396 -0.02815466 -0.14417538 0.08534566 -0.033174235 -0.15956996 -0.13169965 -0.08485384 -0.15141846 -0.13896488 0.19721502 -0.097623445 -0.15851052 -0.015260397 -0.023742538 -0.23061493 -0.08985606 -0.07276591 -0.14463983 0.119230345 0.20777799 -0.0053162808 -0.016988337 -0.25606117 -0.049992036 -0.13124919 -0.057659194 -0.13724335 -0.0668479 0.16566853 -0.2712684 0.041038807 -0.08247009 -0.07623209 0.054444764 -0.01524341 -0.18575084 -0.08427233 -0.22435634 0.09171076 -0.12282841 -0.15563269 0.14221624 -0.018207818 0.039275225 0.042905 0.005608622 0.03426745 0.055818956 -0.012236716 -0.18350285 -0.023217265 -0.13083446 0.14252725 0.15661353 0.07668128 0.0143218385 0.07823537 -0.06404916 0.048949875 0.08269678 -0.22638422 0.154001 0.08756151 -0.0019316671 -0.24658222 -0.090681896 0.0012142889 0.016702555 -0.047067285 -0.16493288 0.049543593 -0.06463895 0.063213386 -0.0053598597 0.08036067 0.019495599 -0.039560977 -0.080840364 0.10695424 -0.071048394 -0.12870465 0.032447476 -0.2554676 0.1289623 0.12922004 0.1415709 -0.24524228 0.1017865 -0.07654173 -0.049844846 -0.031867944 0.06815132 -0.024032883 -0.03235853 -0.12209085 -0.23989756 -0.044030633 -0.054218072 -0.06741588 -0.21728699 -0.07250153 -0.07272762 -0.026329402 0.08599551 0.05209566 -0.09921961 -0.10520813 -0.056618515 0.15279973 0.095576204 -0.029942498 -0.17648995 0.27231956 -0.14048538 0.056896176 -0.00019813533 0.052623432 0.06703232 -0.19908471 -0.30983788 0.19499815 0.095343366 0.06945667 -0.11139854 -0.16780238 -0.19436128 0.06177501 0.3375481 0.08908664 0.21659233 0.1285151 -0.23624854 0.050732784 0.08357838 0.09048289 -0.008042042 -0.1745671 0.004766063 0.3229603 -0.08737041 0.074696496 0.124603026 -0.03534762 -0.14922468 -0.05985223 0.19410248 -0.031617295 0.022217674 -0.10858398 -0.022938883 0.22842936 0.00839399 -0.039430693 -0.07328587 0.042974405 -0.22351032 -0.09089335 -0.14467238 -0.3227386 0.0022530495 -0.03350328 0.18247698 0.028153112 -0.06400951 -0.18374823 -0.08709179 -0.12657166 -0.022837618 -0.12659574 -0.04033493 -0.014979427 0.15909185 0.22564672 -0.024396272 0.083945915 0.08939396 0.08462784 -0.1545414 -0.054251805 -0.070686646 -0.032733236 0.053992465 -0.047148492 -0.051974453 0.13576524 0.02629557 -0.22498545 0.08762343 0.07186705 -0.29597616 -0.15756634 0.17487547 0.101919375 0.102823876 -0.102836356 0.10677293 -0.12035703 -0.042264063 -0.15184732 -0.11296029 -0.106529504 0.114548296 -0.31916153 -0.12599719 0.21070518 -0.22923341 -0.11386491 0.053478945 -0.114735655 -0.064907506 0.051798616 0.031441696 0.087289594 0.23014371 0.22118959 -0.109713785
智子 0.05982545 -0.11482034 0.21912244 0.22893624 0.25383946 -0.061806124 0.0058877044 0.050807334 -0.13118674 0.0147235105 -0.0425543 0.013104072 0.16752136 -0.12309039 0.014512038 0.056561332 0.017648056 0.15064047 -0.20440142 0.22796969 0.04668742 0.038973767 0.14178714 -0.21909027 -0.18703136 -0.024928527 0.12808587 0.04732813 -0.14140964 0.2080444 0.022923404 -0.0144826025 -0.10707937 0.12361789 0.020367667 0.10240162 0.06679398 -0.0072379103 0.13490906 -0.08282321 -0.18212554 0.06372612 0.14142558 -0.0035728985 0.2621437 0.012307556 0.04506775 0.052454475 -0.04059678 0.054710273 0.027407154 -0.19109695 -0.17457421 -0.027356468 -0.1406339 -0.02073414 0.108674675 -0.035513487 0.019774951 0.16876334 -0.03784433 0.03130229 -0.08144992 -0.05237707 -0.08687446 0.042219423 -0.10253206 -0.011007509 0.022296159 -0.02351163 0.016221743 -0.16046172 -0.17075492 -0.016858293 0.107853875 -0.2166174 -0.020172888 -0.16988796 -0.00617257 0.19875947 -0.070391394 0.20943725 -0.016416123 0.09387691 0.12814093 0.07060884 0.14054239 -0.10756119 -0.055743326 -0.06514242 -0.17216797 -0.1267549 0.07754334 -0.045977376 -0.039610483 -0.005345062 -0.1805494 -0.14239137 0.040813338 0.0073163332 -0.15543425 0.010271497 -0.07609327 -0.010174645 -0.09607209 -0.047245912 0.088661745 0.022985797 -0.0065756254 -0.19257326 -0.14052148 -0.096097596 0.025422217 0.17551334 -0.019259587 -0.1692732 -0.018716183 0.07703968 -0.077481546 -0.01773742 -0.04684009 -0.06357225 0.067645125 0.15853554 0.085648015 0.0873857 0.04894386 -0.104374275 0.03263828 -0.03953564 0.04135669 -0.11428073 -0.017001731 0.0043337294 -0.148394 -0.011372842 0.13039048 0.031632185 -0.043416172 0.01639122 -0.22154652 -0.113184616 0.16742288 0.17658308 -0.099843115 -0.043923456 -0.016954439 -0.016812978 0.0120431045 0.12334453 -0.114291236 -0.029854646 -0.09730961 -0.015200434 -0.013081187 -0.0051811207 0.1761172 -0.05040571 -0.25573173 -0.00831807 -0.03334664 -0.06887347 0.028740106 -0.17096452 -0.028428037 -0.028350143 -0.08244215 0.08412889 0.12727061 0.14604758 -0.09461637 -0.057386793 -0.013321515 -0.029329447 -0.07734027 -0.17192382 -0.07748847 -0.10973538 0.24183771 -0.017054863 0.043782007 0.09227754 0.10259104 0.035341136 0.091645285 -0.05170155 -0.13413444 -0.057207838 -0.19505358 -0.113161705 -0.01173261 0.031172782 0.027740296 0.15094343 0.13998513 -0.14199315 -0.055523984 -0.23854643 -0.11193372 0.03422944 -0.01513122 0.14513995 -0.10944671 0.05240246 -0.034649096 0.036435626 -0.09965649 -0.16561723 -0.019806137 -0.09434807 0.07711564 0.11601085 0.16878034 -0.12638812 0.026430866 0.08080672 0.13054825 0.12278161 -0.16138084 -0.010309008 -0.1259192 0.052086335 0.11723878 0.025670651 0.07259865 0.037925567 -0.13934298 0.083426945 -0.060165256 0.060443956 -0.050721996 0.17040902 0.043774523 0.061661433 0.25250566 -0.0003838258 -0.10635092 0.04325243 0.011469134 -0.035800386 -0.17320232 0.006959139 -0.049336493 0.0029560698 0.082120284 -0.047406767 0.048954062 0.019493354 -0.20570299 -0.20898165 -0.07030081 0.16939378 -0.04095988 -0.03940766 -0.17089851 0.09039102
计划 -0.099928625 -0.3038513 0.2606998 0.15996313 0.28366783 0.13295427 0.023702843 -0.11896296 -0.21277508 -0.01778097 -0.08894877 -0.2694576 0.280385 -0.26490274 -0.013866319 0.319752 0.053880863 0.11308722 -0.20424722 0.4442672 -0.14460109 0.008358515 -0.030136617 -0.43728057 -0.060155854 0.006850298 0.09075225 0.029520819 -0.12568377 0.022196231 0.2268871 0.13710754 0.13242269 0.18439285 -0.18669489 0.1470406 0.021069702 -0.07294159 -0.122191705 0.02635396 -0.19125728 -0.049245104 0.0060816864 0.02285538 0.13608083 -0.17746039 -0.02927115 0.079473116 -0.020483142 -0.07611482 -0.04659185 -0.0123493085 -0.057587385 0.16678363 -0.09898264 0.2265465 0.08104966 -0.069501534 0.006075904 0.23264213 -0.089869246 0.29405662 -0.07618135 0.037826445 -0.18246907 0.011506134 0.14521682 0.12437099 0.10735365 -0.21276101 0.13892008 -0.33857167 -0.016756082 -0.08786748 0.1928634 0.08796121 -0.08028945 -0.3799184 0.019521162 -0.022687374 -0.24121617 0.19572935 0.037204403 -0.063268214 -0.07778134 0.060255952 -0.097066 -0.09598306 -0.11839734 -0.21152475 -0.04921119 -0.013087216 0.25281534 -0.06280716 0.11406763 0.13492638 -0.37143758 0.07050749 -0.119282156 -0.07156176 -0.50681627 -0.19580778 0.32099214 -0.11568338 0.06777345 0.14736374 0.355982 0.18467747 -0.10729685 -0.048640776 -0.29771444 -0.34398317 0.139703 0.040656216 -0.15060039 0.14967783 0.017197223 0.320715 -0.16318275 0.074026234 0.11616666 -0.02419943 0.12381908 0.2007103 0.13835426 0.118519016 0.28623387 0.04080203 -0.14388514 -0.11648366 0.21516801 -0.03993807 -0.07784557 -0.062209547 -0.12757581 -0.12268777 0.15987194 -0.0045431172 -0.08780516 0.33214456 -0.034712892 -0.18739313 0.12631938 0.18455817 -0.024144707 0.018340996 0.21791981 -0.16564244 0.2461302 0.29173803 -0.07948944 -0.4287163 -0.17374527 -0.055040766 0.015377003 -0.034789965 0.24553677 -0.21964215 -0.15214652 0.093666844 0.13860345 0.02195326 0.2706316 -0.15576446 -0.07300983 -0.10322928 -0.27579415 0.17059997 0.16594976 0.24183773 -0.061572667 -0.117832206 0.2648892 -9.367712e-06 -0.32750762 0.002550063 0.1775008 0.1415725 0.3579993 0.02772988 -0.060396582 0.07773991 -0.061726935 0.22890754 0.24917477 0.35957748 0.0026778732 -0.17986177 -0.06688703 -0.11289157 0.09729216 0.047444638 0.20986891 0.22157393 -0.081359856 -0.1351758 0.26786828 -0.22166623 -0.23436777 -0.16938175 -0.03969192 0.10805528 0.16491735 0.12487924 -0.16918534 0.0383319 -0.105446465 -0.26162013 -0.041759875 -0.007872527 0.03626662 0.22134732 0.19135019 0.1950259 0.048095208 0.06092516 0.04101768 0.109553576 -0.10205283 -0.30388406 0.25660983 0.26185063 -0.17599075 0.20556986 0.10668379 -0.15964876 0.16755337 -0.03956307 -0.1612389 0.001582791 -0.15834306 0.010899131 0.16347788 0.25584248 0.06588815 -0.33136886 0.14477645 -0.1418437 -0.06297869 0.17611763 -0.30567837 -0.005293892 -0.24014217 -0.23822697 -0.0042099087 -0.12741372 0.18947384 0.11463381 -0.056797553 -0.07500118 -0.30378634 0.24630405 -0.12894152 0.07829334 -0.30380866 -0.106967956
一种 0.09821912 -0.11920552 0.09855232 0.09931118 -0.00895634 0.038687974 0.03787953 -0.04715304 -0.22076438 -0.03867944 -0.13038121 0.045546066 0.02061588 -0.09643049 0.21433562 -0.10653586 0.06424391 0.13204162 0.009447168 0.115428045 -0.012969216 0.04453652 -0.07338513 -0.19627725 -0.10171845 -0.034496024 0.11770976 -0.15991715 -0.10036203 0.22623695 0.034642886 -0.020551175 -0.06795064 0.1760179 -0.15319784 0.011945775 0.1197424 0.03522344 0.034922864 0.10748521 0.025109183 0.013286194 0.0014603441 0.061883558 0.09168095 -0.23267397 -0.054390486 -0.09119752 0.11737209 0.15763004 -0.029868793 -0.21794398 -0.10951867 -0.1335458 -0.20586886 -0.094421856 -0.019068222 -0.20632778 0.0066587846 0.14566338 -0.06796872 0.023501426 -0.061903395 -0.15845904 -0.06141357 -0.10060198 0.01932612 0.0006094614 0.058454245 -0.11410679 0.030688511 -0.11187261 0.03808884 -0.032211065 -0.0057812827 0.025727276 -0.10558054 -0.20181756 -0.00026364595 0.024432268 -0.05826541 -0.005327535 -0.07789276 0.22943717 -0.09769434 0.12330228 -0.0045888205 -0.12581432 -0.025993964 -0.12564288 -0.015912471 -0.07052876 0.04910562 -0.05862628 -0.039850987 0.09881715 -0.09692452 0.0060231593 0.053734746 0.15533102 -0.2966167 -0.16868731 -0.025059208 -0.03359731 -0.040620264 0.064798325 0.10271408 0.08180221 -0.07960555 -0.09072674 -0.15100127 -0.1824603 0.06738014 0.26050854 0.0119028725 0.009261853 0.11811463 0.015265156 0.102158815 0.03573289 -0.03261321 -0.07730175 0.0023647335 0.17152168 0.04159349 0.037135925 0.09866754 0.023064986 -0.12063959 -0.11298353 0.14258566 -0.14233445 -0.0715648 -0.16438043 -0.0547254 -0.04262535 0.14911415 0.04999724 0.0084399 0.022039527 -0.07215273 -0.22254562 -0.11579354 0.15536906 -0.05302143 -0.035606794 0.12092444 0.016761415 -0.1555781 -0.06669231 -0.026740381 -0.2375017 -0.018878002 -0.078149475 0.078805104 0.037256006 0.17996144 -0.10826869 -0.091621295 -0.05887354 0.042151585 0.03409649 -0.0008510225 -0.039915025 -0.09418245 -0.09189749 -0.09083692 -0.03210404 0.24153538 -0.013016431 -0.16526648 -0.053621687 0.028408425 0.05356996 -0.10875095 -0.25420716 -0.055577278 0.05496437 0.14073059 0.11617333 0.062079318 0.065850765 0.049057424 -0.0927759 0.09676577 0.027235372 -0.07755757 0.02172657 -0.12660742 -0.10328552 -0.11598138 0.02984515 0.030070003 -0.027645769 -0.1066792 -0.025150543 -0.060226906 0.07310289 -0.105519205 -0.047922254 0.015652684 0.07793977 0.02351621 0.06010055 -0.16367398 0.007978226 -0.16086139 -0.03803945 -0.06078364 0.05573617 0.09993864 -0.039004587 0.120540515 0.031856123 -0.055215325 -0.11743804 0.036524057 0.16491091 -0.13647303 -0.15796545 -0.13590851 -0.008797206 0.028281445 0.049499456 0.078900546 0.075303145 0.014086516 0.09162013 0.089127265 -0.05582593 0.025329435 0.085898355 0.14724039 -0.11091099 0.10334969 0.07074924 -0.016694028 -0.06358103 -0.0822124 -0.045871887 -0.03872071 0.03371503 -0.04402872 0.023164272 -0.025517946 -0.15429348 -0.113674186 0.058266528 -0.21334763 -0.057514917 0.012166816 0.026529545 0.11166669 -0.04039694 0.02743005 0.019287141
太阳系 0.0017683967 -0.1087059 0.2664219 0.1659454 0.3062634 0.16704486 0.05687789 0.034228478 0.06387186 -0.038658608 -0.04124397 -0.16359426 0.100395195 -0.25219974 -0.072142415 0.08545368 0.22007792 0.023170495 -0.29194596 0.39674637 0.020882847 -0.0190532 0.00900868 -0.12257888 -0.3179168 0.058118034 -0.012316375 0.011874789 -0.14454296 0.018668924 0.06279415 0.0136321625 -0.06025256 0.14489421 0.040881656 0.14628099 -0.16387574 -0.11759074 0.22873726 -0.1142109 -0.46810472 0.07452491 0.17982344 -0.0010230334 0.3131066 -0.012760664 0.103300124 0.047005713 -0.12266651 0.0962966 0.1251654 0.114638634 0.0397801 0.037398107 -0.12551597 0.16633978 0.19845384 -0.050332967 -0.06262747 -0.046306543 -0.16394286 0.20001383 -0.21678813 0.027070481 0.03742923 0.013265111 -0.19543612 0.35470253 -0.113062814 -0.07121134 0.19968334 -0.32506347 -0.26830244 -0.019194325 0.048006453 -0.20857237 -0.1360152 -0.20598647 -0.22962329 -0.09341932 -0.10068714 0.119369835 0.0813658 0.107391864 0.03749106 0.1485254 0.062329132 -0.25571665 -0.077489376 -0.0011272108 -0.08765866 -0.31684875 -0.023747139 -0.15096101 0.0819108 0.063921094 -0.26213154 -0.122824825 0.083123095 -0.32819754 -0.16950312 -0.23934852 -0.17550066 0.0364616 0.1238091 0.107417084 0.051352937 -0.09790298 -0.05932233 -0.09270913 -0.343241 -0.24757192 0.06021155 0.19088168 0.020815156 -0.12676924 -0.01444411 0.15794568 0.032130096 0.057750184 0.064265706 -0.08910078 0.227274 0.040935706 0.12470293 0.024098553 0.105520345 -0.006065787 0.04259654 -0.03346239 -0.10821257 -0.19902582 -0.16590081 -0.023144623 0.0014208796 -0.14883263 0.049318638 0.15179725 0.06897265 0.04836848 -0.10010621 -0.009681476 0.33147252 0.17659159 -0.099133596 0.07897422 0.0070267078 0.08020596 0.17904258 0.13855162 -0.13421324 0.031044122 -0.29823592 0.03263623 -0.27712622 0.070406735 0.44523594 -0.08262983 -0.35407555 0.053757932 0.08693603 0.04163711 0.112040356 -0.13217504 0.084495105 -0.031378396 -0.052865952 0.11642612 0.34756052 0.050103918 -0.12794116 -0.015317635 0.1131202 -0.06796851 -0.25858307 -0.10695879 -0.028785123 -0.025720917 0.38411212 0.042800374 0.09802772 0.10546424 -0.008113713 0.28273472 0.2158084 0.13954416 -0.14186116 -0.059973795 -0.38896626 -0.0433053 0.094881244 0.04715783 0.018693537 0.24746415 0.10254229 -0.18002675 -0.047198888 -0.35404137 -0.0528381 0.056524303 -0.19698939 0.1428204 0.041005842 0.15186347 0.048624605 0.07028054 -0.07339012 -0.1983706 0.01981691 -0.025236078 -0.026450492 -0.018897312 0.22439137 -0.0652424 0.010478125 0.07427055 0.143349 0.10554779 -0.25587103 -0.058455057 0.11609064 0.09487601 0.09631271 0.1417458 -0.10159403 0.047558174 0.022465833 0.16513711 0.02271885 0.05071461 0.023088843 -0.13306439 -0.043607343 0.18443292 0.2274279 -0.17191657 -0.08777185 0.09833284 0.053554732 0.10330769 -0.14386646 0.013621193 -0.14847861 0.11937486 -0.0071728667 0.024217403 0.19843136 0.12998505 -0.235235 -0.10683404 -0.119376644 0.09042769 -0.09333477 -0.088754326 -0.2628252 0.013709874
很快 0.1400692 -0.08613648 0.13847189 0.060770504 0.054512333 -0.014684305 0.12087547 0.07780158 -0.07389325 -0.054229584 -0.16809306 -0.06752929 0.12230956 -0.053846784 0.07300868 0.08823293 0.045414656 0.1084885 -0.14416017 0.15656175 0.13596892 -0.0678341 -0.02623614 -0.018554758 -0.12839662 -0.046326432 -0.0014865539 0.009610949 0.08179601 0.16014904 0.06892467 -0.019560032 0.03716238 0.08724953 -0.03198492 0.048432346 -0.09271975 -0.028240273 0.09003015 0.032505903 -0.19346932 0.0729526 0.058550958 -0.0085701225 0.112127 -0.13308881 0.010079463 0.0014446292 0.07550178 0.10739117 -0.06869341 -0.18420456 -0.09139882 0.10902488 -0.22815381 -0.08615428 -0.037911624 -0.13908583 0.010199839 0.069571815 -0.005893746 0.023540154 -0.045076225 -0.0424458 0.010430268 -0.06796086 -0.081205286 0.055273537 -0.019749723 -0.13071471 0.04802618 -0.045252725 -0.12357318 0.023736663 0.009596568 -0.1468768 -0.04138417 -0.17224975 -0.03750494 -0.055620667 -0.007413141 -0.0363106 0.08628775 0.0782054 0.05594528 0.15132982 -0.0051677814 -0.19007051 -0.05204999 -0.026687734 -0.01423746 -0.14043061 -0.030210983 0.07281847 -0.0461116 0.019269021 -0.09918228 0.025004756 0.024111163 0.025620034 -0.17266995 -0.09519687 -0.101674244 -0.02183981 -0.043544088 0.040318113 0.022640802 -0.006446478 0.033353273 -0.042214014 -0.048526723 -0.061574418 0.049750507 0.10910801 0.16080868 -0.05169438 0.053547546 -0.022103967 0.088106655 0.032829307 -0.101349674 -0.079602964 -0.03161148 0.08115933 0.037444994 0.015588558 -0.10276795 -0.005180369 -0.051535632 -0.010306271 -0.1251113 -0.121146075 0.0254076 -0.03743507 0.0039674263 -0.058133665 -0.053962518 0.16662829 0.0943498 -0.053498257 0.0064730505 -0.08677679 0.0897549 0.050885372 -0.037061587 0.017128982 -0.10095604 0.10289452 -0.059151877 -0.117552735 -0.09720044 -0.12024165 0.03646645 -0.12353592 0.09947231 0.053621434 0.14831538 -0.01681702 -0.10619313 0.006922814 0.06009554 0.070054516 -0.09430338 -0.055237077 -0.06673607 -0.052653868 0.004901403 0.047179703 0.27218682 0.09629016 -0.09271088 0.008415826 -0.008922018 0.03185198 -0.07998918 -0.045943405 -0.12854579 -0.013379257 0.23123612 0.11081066 0.063602425 0.021261549 -0.030285215 -0.07687191 0.11386327 0.048816863 0.023224106 0.113723665 -0.1451023 -0.00045188403 -0.03932133 0.117767565 0.07775705 -0.08392288 -0.095918484 -0.04779411 -0.20584069 -0.22101471 -0.089210205 0.037508853 -0.039321803 0.07102217 0.06413022 -0.06590901 -0.0032958533 -0.14926554 -0.0784816 -0.012025421 -0.13193654 0.03563162 0.005752266 0.08387851 0.18229362 0.02296812 0.03890757 0.07449006 0.08145703 -0.020858623 -0.058745857 0.021801166 0.06660957 -0.011955251 0.04134093 0.08827969 0.11797789 -0.042735063 -0.13008852 0.15459733 0.008289692 -0.035136864 0.02866209 -0.016410176 0.11652886 0.048538655 0.044145305 0.0828819 -0.040501907 0.04985873 -0.06409216 0.020296581 -0.06699132 0.046970926 -0.040249806 0.011398171 0.12009448 -0.0713279 0.11151322 -0.004253031 -0.061531454 0.004993403 0.01760892 0.063670695 0.020874334 -0.057416085 -0.008748481 -0.016794499
真的 0.031295314 -0.102626674 0.16312692 0.1303399 0.06760417 0.033372626 -0.009252489 -0.15848565 -0.19598989 -0.029623201 -0.09303944 -0.029473986 0.05367701 -0.19540988 0.12314661 0.024814289 0.019104725 0.08834996 0.03990503 0.24495575 -0.02137077 0.0046646893 0.008381787 -0.17363523 -0.04983371 0.0044588167 0.028575553 -0.166675 -0.07304638 0.16331567 0.08540337 -0.14009136 -0.05512779 0.019824374 -0.12955436 0.00838565 -0.0048576645 -0.039504584 0.052827153 0.054353327 -0.03775139 -0.0819064 0.10594877 -0.051410384 0.13239315 -0.14559342 -0.061738268 -0.041677967 -0.028480401 0.15467674 -0.005448191 -0.1746027 -0.037432816 -0.11738077 -0.17440413 -0.03671803 0.042886533 -0.13624397 0.044263575 0.21919751 -0.076109074 0.08559028 -0.12515396 -0.047875393 -0.07825153 -0.065049686 0.05050819 -0.06921759 0.06996534 -0.12533268 0.09400066 -0.17908147 0.0052052173 0.048155848 -0.04399296 -0.036229245 -0.06957683 -0.21208243 0.09699205 -0.05784206 -0.15014538 0.15361877 -0.12450769 0.11870381 -0.029954279 0.027865095 0.048799507 -0.08012728 0.0190845 -0.17635651 0.049004417 -0.11448786 0.10766657 -0.016400293 0.02220574 0.08311786 -0.039626278 -0.0071067475 0.012180688 0.04501674 -0.20396653 -0.10770287 -0.004130353 -0.057550784 -0.03679355 0.04218308 0.115699984 -0.017661056 -0.07777237 -0.1752733 -0.12857278 -0.09266864 0.02254801 0.07829098 0.10888659 -0.084400885 0.056309257 0.01598252 -0.007059823 0.01464833 -0.09526545 -0.08175835 -0.010454392 0.19036998 0.020354182 0.00024424447 -0.06183897 -0.034232818 -0.10143755 -0.11234008 0.039318018 -0.12062295 -0.11527963 -0.06765641 -0.17617042 -0.14941823 0.20380518 -0.035550874 -0.09697012 0.054105915 -0.07525538 -0.1690732 -0.079629116 0.14473343 0.008752917 -0.039559532 0.09722487 -0.040371023 -0.05864669 0.014364877 -0.0074683563 -0.27124342 0.059953917 -0.03888308 0.067823246 -0.043020573 0.10016874 0.024959031 -0.19821914 -0.109406635 0.06381709 -0.022805396 0.09415831 -0.21820414 -0.08615361 -0.13984615 -0.11645446 0.06887135 0.17353821 0.04224093 -0.030412965 -0.1004524 0.085414715 0.047485612 -0.06085095 -0.0972812 -0.12734 0.053589616 0.24372678 -0.033477366 0.06477824 0.16202654 0.12980615 -0.11301676 0.08676114 0.12247051 -0.04918418 -0.047650993 -0.15883823 -0.16000614 0.0966361 0.010813535 -0.004052993 -0.014029749 0.035517868 -0.18261836 -0.045631964 0.007877379 -0.07380948 -0.057412196 0.033440355 0.16138995 -0.021848608 0.044680145 -0.14777753 0.0035247172 -0.2052794 -0.045635764 -0.0957094 0.009255502 0.109770596 0.00432021 0.14907917 0.04247932 0.05829956 -0.018529952 0.0112711545 0.10051975 -0.08949137 -0.1933146 -0.03694332 0.03389132 -0.059351526 -0.0118786795 0.07429709 0.07016483 -0.11586521 0.035138413 0.1430872 -0.053380888 -0.035361357 0.073545486 0.16637425 0.028145202 0.043999698 0.076851584 -0.04006109 -0.02006412 -0.09451863 -0.0047234944 -0.07473875 0.053987257 -0.120870024 0.0022858775 0.027509822 -0.120287456 0.016257487 0.15923905 -0.13369948 -0.086870216 0.009313054 0.0629439 0.1355772 0.028117921 0.0031494717 0.03716982
